digraph Tree {
node [shape=box, style="filled, rounded", color="black", fontname="helvetica"] ;
edge [fontname="helvetica"] ;
0 [label="nhiptho_on_dinh <= 0.5\ngini = 0.636\nsamples = 2062\nvalue = [53, 76, 1041, 651, 2, 161, 78]\nclass = 3", fillcolor="#c8f8ce"] ;
1 [label="chieucao <= 0.842\ngini = 0.664\nsamples = 493\nvalue = [53, 0, 224, 0, 1, 160, 55]\nclass = 3", fillcolor="#d9fadd"] ;
0 -> 1 [labeldistance=2.5, labelangle=45, headlabel="True"] ;
2 [label="lydovaovien_tainan <= 0.5\ngini = 0.109\nsamples = 52\nvalue = [0, 0, 0, 0, 0, 3, 49]\nclass = 7", fillcolor="#e7458d"] ;
1 -> 2 ;
3 [label="caccoquan_tuanhoan_timdeu <= 0.5\ngini = 0.075\nsamples = 51\nvalue = [0, 0, 0, 0, 0, 2, 49]\nclass = 7", fillcolor="#e6418b"] ;
2 -> 3 ;
4 [label="khambenh_chiam <= 0.5\ngini = 0.5\nsamples = 4\nvalue = [0, 0, 0, 0, 0, 2, 2]\nclass = 6", fillcolor="#ffffff"] ;
3 -> 4 ;
5 [label="gini = 0.0\nsamples = 1\nvalue = [0, 0, 0, 0, 0, 0, 1]\nclass = 7", fillcolor="#e53986"] ;
4 -> 5 ;
6 [label="khambenh_tinh <= 0.5\ngini = 0.444\nsamples = 3\nvalue = [0, 0, 0, 0, 0, 2, 1]\nclass = 6", fillcolor="#d89cf2"] ;
4 -> 6 ;
7 [label="gini = 0.0\nsamples = 1\nvalue = [0, 0, 0, 0, 0, 0, 1]\nclass = 7", fillcolor="#e53986"] ;
6 -> 7 ;
8 [label="gini = 0.0\nsamples = 2\nvalue = [0, 0, 0, 0, 0, 2, 0]\nclass = 6", fillcolor="#b139e5"] ;
6 -> 8 ;
9 [label="gini = 0.0\nsamples = 47\nvalue = [0, 0, 0, 0, 0, 0, 47]\nclass = 7", fillcolor="#e53986"] ;
3 -> 9 ;
10 [label="gini = 0.0\nsamples = 1\nvalue = [0, 0, 0, 0, 0, 1, 0]\nclass = 6", fillcolor="#b139e5"] ;
2 -> 10 ;
11 [label="caccoquan_hohap_phoiraleam <= 0.5\ngini = 0.601\nsamples = 441\nvalue = [53, 0, 224, 0, 1, 157, 6]\nclass = 3", fillcolor="#d0f9d5"] ;
1 -> 11 ;
12 [label="caccoquan_tuanhoan_momtimduongtrungdon <= 0.5\ngini = 0.522\nsamples = 313\nvalue = [0, 0, 151, 0, 1, 155, 6]\nclass = 6", fillcolor="#fdfafe"] ;
11 -> 12 ;
13 [label="khambenh_machro <= 0.5\ngini = 0.51\nsamples = 255\nvalue = [0, 0, 147, 0, 1, 101, 6]\nclass = 3", fillcolor="#c4f7ca"] ;
12 -> 13 ;
14 [label="chieucao <= 0.888\ngini = 0.406\nsamples = 151\nvalue = [0, 0, 110, 0, 0, 38, 3]\nclass = 3", fillcolor="#81ee8e"] ;
13 -> 14 ;
15 [label="hoibenh_khotho <= 0.5\ngini = 0.497\nsamples = 54\nvalue = [0, 0, 25, 0, 0, 29, 0]\nclass = 6", fillcolor="#f4e4fb"] ;
14 -> 15 ;
16 [label="khambenh_ho <= 0.5\ngini = 0.394\nsamples = 37\nvalue = [0, 0, 10, 0, 0, 27, 0]\nclass = 6", fillcolor="#ce82ef"] ;
15 -> 16 ;
17 [label="hoibenh_yeunuanguoi(P) <= 0.5\ngini = 0.18\nsamples = 30\nvalue = [0, 0, 3, 0, 0, 27, 0]\nclass = 6", fillcolor="#ba4fe8"] ;
16 -> 17 ;
18 [label="lydovaovien_sot <= 0.5\ngini = 0.069\nsamples = 28\nvalue = [0, 0, 1, 0, 0, 27, 0]\nclass = 6", fillcolor="#b440e6"] ;
17 -> 18 ;
19 [label="gini = 0.0\nsamples = 25\nvalue = [0, 0, 0, 0, 0, 25, 0]\nclass = 6", fillcolor="#b139e5"] ;
18 -> 19 ;
20 [label="khambenh_sot <= 0.5\ngini = 0.444\nsamples = 3\nvalue = [0, 0, 1, 0, 0, 2, 0]\nclass = 6", fillcolor="#d89cf2"] ;
18 -> 20 ;
21 [label="gini = 0.0\nsamples = 2\nvalue = [0, 0, 0, 0, 0, 2, 0]\nclass = 6", fillcolor="#b139e5"] ;
20 -> 21 ;
22 [label="gini = 0.0\nsamples = 1\nvalue = [0, 0, 1, 0, 0, 0, 0]\nclass = 3", fillcolor="#39e54d"] ;
20 -> 22 ;
23 [label="gini = 0.0\nsamples = 2\nvalue = [0, 0, 2, 0, 0, 0, 0]\nclass = 3", fillcolor="#39e54d"] ;
17 -> 23 ;
24 [label="gini = 0.0\nsamples = 7\nvalue = [0, 0, 7, 0, 0, 0, 0]\nclass = 3", fillcolor="#39e54d"] ;
16 -> 24 ;
25 [label="hoibenh_sot_ngaykhoiphat <= 0.016\ngini = 0.208\nsamples = 17\nvalue = [0, 0, 15, 0, 0, 2, 0]\nclass = 3", fillcolor="#53e865"] ;
15 -> 25 ;
26 [label="gini = 0.0\nsamples = 2\nvalue = [0, 0, 0, 0, 0, 2, 0]\nclass = 6", fillcolor="#b139e5"] ;
25 -> 26 ;
27 [label="gini = 0.0\nsamples = 15\nvalue = [0, 0, 15, 0, 0, 0, 0]\nclass = 3", fillcolor="#39e54d"] ;
25 -> 27 ;
28 [label="cannang <= 0.17\ngini = 0.223\nsamples = 97\nvalue = [0, 0, 85, 0, 0, 9, 3]\nclass = 3", fillcolor="#54e965"] ;
14 -> 28 ;
29 [label="hoibenh_anuongkem <= 0.5\ngini = 0.175\nsamples = 94\nvalue = [0, 0, 85, 0, 0, 8, 1]\nclass = 3", fillcolor="#4ee860"] ;
28 -> 29 ;
30 [label="khambenh_sungphuchan <= 0.5\ngini = 0.142\nsamples = 92\nvalue = [0, 0, 85, 0, 0, 6, 1]\nclass = 3", fillcolor="#49e75b"] ;
29 -> 30 ;
31 [label="hoibenh_daunguc <= 0.5\ngini = 0.106\nsamples = 90\nvalue = [0, 0, 85, 0, 0, 4, 1]\nclass = 3", fillcolor="#45e757"] ;
30 -> 31 ;
32 [label="hoibenh_sot_ngaykhoiphat <= 0.065\ngini = 0.066\nsamples = 88\nvalue = [0, 0, 85, 0, 0, 2, 1]\nclass = 3", fillcolor="#40e653"] ;
31 -> 32 ;
33 [label="khambenh_SpO2 <= 0.896\ngini = 0.045\nsamples = 87\nvalue = [0, 0, 85, 0, 0, 1, 1]\nclass = 3", fillcolor="#3ee651"] ;
32 -> 33 ;
34 [label="tiensu_tiemnguaCOVID <= 0.25\ngini = 0.024\nsamples = 84\nvalue = [0, 0, 83, 0, 0, 0, 1]\nclass = 3", fillcolor="#3be54f"] ;
33 -> 34 ;
35 [label="gini = 0.0\nsamples = 71\nvalue = [0, 0, 71, 0, 0, 0, 0]\nclass = 3", fillcolor="#39e54d"] ;
34 -> 35 ;
36 [label="huyetap2_on_dinh <= 0.5\ngini = 0.142\nsamples = 13\nvalue = [0, 0, 12, 0, 0, 0, 1]\nclass = 3", fillcolor="#49e75c"] ;
34 -> 36 ;
37 [label="gini = 0.0\nsamples = 10\nvalue = [0, 0, 10, 0, 0, 0, 0]\nclass = 3", fillcolor="#39e54d"] ;
36 -> 37 ;
38 [label="sex <= 0.75\ngini = 0.444\nsamples = 3\nvalue = [0, 0, 2, 0, 0, 0, 1]\nclass = 3", fillcolor="#9cf2a6"] ;
36 -> 38 ;
39 [label="gini = 0.0\nsamples = 1\nvalue = [0, 0, 0, 0, 0, 0, 1]\nclass = 7", fillcolor="#e53986"] ;
38 -> 39 ;
40 [label="gini = 0.0\nsamples = 2\nvalue = [0, 0, 2, 0, 0, 0, 0]\nclass = 3", fillcolor="#39e54d"] ;
38 -> 40 ;
41 [label="bmi_on_dinh <= 0.5\ngini = 0.444\nsamples = 3\nvalue = [0, 0, 2, 0, 0, 1, 0]\nclass = 3", fillcolor="#9cf2a6"] ;
33 -> 41 ;
42 [label="gini = 0.0\nsamples = 1\nvalue = [0, 0, 0, 0, 0, 1, 0]\nclass = 6", fillcolor="#b139e5"] ;
41 -> 42 ;
43 [label="gini = 0.0\nsamples = 2\nvalue = [0, 0, 2, 0, 0, 0, 0]\nclass = 3", fillcolor="#39e54d"] ;
41 -> 43 ;
44 [label="gini = 0.0\nsamples = 1\nvalue = [0, 0, 0, 0, 0, 1, 0]\nclass = 6", fillcolor="#b139e5"] ;
32 -> 44 ;
45 [label="gini = 0.0\nsamples = 2\nvalue = [0, 0, 0, 0, 0, 2, 0]\nclass = 6", fillcolor="#b139e5"] ;
31 -> 45 ;
46 [label="gini = 0.0\nsamples = 2\nvalue = [0, 0, 0, 0, 0, 2, 0]\nclass = 6", fillcolor="#b139e5"] ;
30 -> 46 ;
47 [label="gini = 0.0\nsamples = 2\nvalue = [0, 0, 0, 0, 0, 2, 0]\nclass = 6", fillcolor="#b139e5"] ;
29 -> 47 ;
48 [label="khambenh_tiepxuctot <= 0.5\ngini = 0.444\nsamples = 3\nvalue = [0, 0, 0, 0, 0, 1, 2]\nclass = 7", fillcolor="#f29cc2"] ;
28 -> 48 ;
49 [label="gini = 0.0\nsamples = 1\nvalue = [0, 0, 0, 0, 0, 1, 0]\nclass = 6", fillcolor="#b139e5"] ;
48 -> 49 ;
50 [label="gini = 0.0\nsamples = 2\nvalue = [0, 0, 0, 0, 0, 0, 2]\nclass = 7", fillcolor="#e53986"] ;
48 -> 50 ;
51 [label="khambenh_khotho <= 0.5\ngini = 0.506\nsamples = 104\nvalue = [0, 0, 37, 0, 1, 63, 3]\nclass = 6", fillcolor="#e1b2f5"] ;
13 -> 51 ;
52 [label="chieucao <= 0.894\ngini = 0.444\nsamples = 85\nvalue = [0, 0, 23, 0, 1, 59, 2]\nclass = 6", fillcolor="#d28cf0"] ;
51 -> 52 ;
53 [label="chieucao <= 0.888\ngini = 0.544\nsamples = 43\nvalue = [0, 0, 20, 0, 1, 21, 1]\nclass = 6", fillcolor="#fcf6fe"] ;
52 -> 53 ;
54 [label="lydovaovien_anuongkem <= 0.5\ngini = 0.43\nsamples = 29\nvalue = [0, 0, 6, 0, 1, 21, 1]\nclass = 6", fillcolor="#cc7eee"] ;
53 -> 54 ;
55 [label="cannang <= 0.117\ngini = 0.37\nsamples = 27\nvalue = [0, 0, 4, 0, 1, 21, 1]\nclass = 6", fillcolor="#c56dec"] ;
54 -> 55 ;
56 [label="gini = 0.0\nsamples = 17\nvalue = [0, 0, 0, 0, 0, 17, 0]\nclass = 6", fillcolor="#b139e5"] ;
55 -> 56 ;
57 [label="caccoquan_hohap_phoitho <= 0.5\ngini = 0.66\nsamples = 10\nvalue = [0, 0, 4, 0, 1, 4, 1]\nclass = 3", fillcolor="#ffffff"] ;
55 -> 57 ;
58 [label="tiensu_tiemnguaCOVID <= 0.25\ngini = 0.612\nsamples = 7\nvalue = [0, 0, 4, 0, 1, 1, 1]\nclass = 3", fillcolor="#9cf2a6"] ;
57 -> 58 ;
59 [label="hoibenh_tieugat <= 0.5\ngini = 0.32\nsamples = 5\nvalue = [0, 0, 4, 0, 1, 0, 0]\nclass = 3", fillcolor="#6aec79"] ;
58 -> 59 ;
60 [label="gini = 0.0\nsamples = 4\nvalue = [0, 0, 4, 0, 0, 0, 0]\nclass = 3", fillcolor="#39e54d"] ;
59 -> 60 ;
61 [label="gini = 0.0\nsamples = 1\nvalue = [0, 0, 0, 0, 1, 0, 0]\nclass = 5", fillcolor="#3956e5"] ;
59 -> 61 ;
62 [label="hoibenh_sars_covid <= 0.5\ngini = 0.5\nsamples = 2\nvalue = [0, 0, 0, 0, 0, 1, 1]\nclass = 6", fillcolor="#ffffff"] ;
58 -> 62 ;
63 [label="gini = 0.0\nsamples = 1\nvalue = [0, 0, 0, 0, 0, 1, 0]\nclass = 6", fillcolor="#b139e5"] ;
62 -> 63 ;
64 [label="gini = 0.0\nsamples = 1\nvalue = [0, 0, 0, 0, 0, 0, 1]\nclass = 7", fillcolor="#e53986"] ;
62 -> 64 ;
65 [label="gini = 0.0\nsamples = 3\nvalue = [0, 0, 0, 0, 0, 3, 0]\nclass = 6", fillcolor="#b139e5"] ;
57 -> 65 ;
66 [label="gini = 0.0\nsamples = 2\nvalue = [0, 0, 2, 0, 0, 0, 0]\nclass = 3", fillcolor="#39e54d"] ;
54 -> 66 ;
67 [label="gini = 0.0\nsamples = 14\nvalue = [0, 0, 14, 0, 0, 0, 0]\nclass = 3", fillcolor="#39e54d"] ;
53 -> 67 ;
68 [label="lydovaovien_cogiat <= 0.5\ngini = 0.176\nsamples = 42\nvalue = [0, 0, 3, 0, 0, 38, 1]\nclass = 6", fillcolor="#b94de8"] ;
52 -> 68 ;
69 [label="tiensu_dichungmachmaunao <= 0.5\ngini = 0.138\nsamples = 41\nvalue = [0, 0, 2, 0, 0, 38, 1]\nclass = 6", fillcolor="#b748e7"] ;
68 -> 69 ;
70 [label="tiensu_daithaoduong_2 <= 0.5\ngini = 0.096\nsamples = 40\nvalue = [0, 0, 1, 0, 0, 38, 1]\nclass = 6", fillcolor="#b543e6"] ;
69 -> 70 ;
71 [label="huyetap2_on_dinh <= 0.5\ngini = 0.051\nsamples = 38\nvalue = [0, 0, 1, 0, 0, 37, 0]\nclass = 6", fillcolor="#b33ee6"] ;
70 -> 71 ;
72 [label="gini = 0.0\nsamples = 36\nvalue = [0, 0, 0, 0, 0, 36, 0]\nclass = 6", fillcolor="#b139e5"] ;
71 -> 72 ;
73 [label="tiensu_loetdaday <= 0.5\ngini = 0.5\nsamples = 2\nvalue = [0, 0, 1, 0, 0, 1, 0]\nclass = 3", fillcolor="#ffffff"] ;
71 -> 73 ;
74 [label="gini = 0.0\nsamples = 1\nvalue = [0, 0, 1, 0, 0, 0, 0]\nclass = 3", fillcolor="#39e54d"] ;
73 -> 74 ;
75 [label="gini = 0.0\nsamples = 1\nvalue = [0, 0, 0, 0, 0, 1, 0]\nclass = 6", fillcolor="#b139e5"] ;
73 -> 75 ;
76 [label="lydovaovien_chuyenvien <= 0.5\ngini = 0.5\nsamples = 2\nvalue = [0, 0, 0, 0, 0, 1, 1]\nclass = 6", fillcolor="#ffffff"] ;
70 -> 76 ;
77 [label="gini = 0.0\nsamples = 1\nvalue = [0, 0, 0, 0, 0, 1, 0]\nclass = 6", fillcolor="#b139e5"] ;
76 -> 77 ;
78 [label="gini = 0.0\nsamples = 1\nvalue = [0, 0, 0, 0, 0, 0, 1]\nclass = 7", fillcolor="#e53986"] ;
76 -> 78 ;
79 [label="gini = 0.0\nsamples = 1\nvalue = [0, 0, 1, 0, 0, 0, 0]\nclass = 3", fillcolor="#39e54d"] ;
69 -> 79 ;
80 [label="gini = 0.0\nsamples = 1\nvalue = [0, 0, 1, 0, 0, 0, 0]\nclass = 3", fillcolor="#39e54d"] ;
68 -> 80 ;
81 [label="cannang <= 0.139\ngini = 0.41\nsamples = 19\nvalue = [0, 0, 14, 0, 0, 4, 1]\nclass = 3", fillcolor="#7bee88"] ;
51 -> 81 ;
82 [label="gini = 0.0\nsamples = 14\nvalue = [0, 0, 14, 0, 0, 0, 0]\nclass = 3", fillcolor="#39e54d"] ;
81 -> 82 ;
83 [label="khambenh_daniemtimtai <= 0.5\ngini = 0.32\nsamples = 5\nvalue = [0, 0, 0, 0, 0, 4, 1]\nclass = 6", fillcolor="#c46aec"] ;
81 -> 83 ;
84 [label="gini = 0.0\nsamples = 1\nvalue = [0, 0, 0, 0, 0, 0, 1]\nclass = 7", fillcolor="#e53986"] ;
83 -> 84 ;
85 [label="gini = 0.0\nsamples = 4\nvalue = [0, 0, 0, 0, 0, 4, 0]\nclass = 6", fillcolor="#b139e5"] ;
83 -> 85 ;
86 [label="khambenh_tangbeophi <= 0.5\ngini = 0.128\nsamples = 58\nvalue = [0, 0, 4, 0, 0, 54, 0]\nclass = 6", fillcolor="#b748e7"] ;
12 -> 86 ;
87 [label="khambenh_tinh <= 0.5\ngini = 0.036\nsamples = 55\nvalue = [0, 0, 1, 0, 0, 54, 0]\nclass = 6", fillcolor="#b23de5"] ;
86 -> 87 ;
88 [label="gini = 0.0\nsamples = 1\nvalue = [0, 0, 1, 0, 0, 0, 0]\nclass = 3", fillcolor="#39e54d"] ;
87 -> 88 ;
89 [label="gini = 0.0\nsamples = 54\nvalue = [0, 0, 0, 0, 0, 54, 0]\nclass = 6", fillcolor="#b139e5"] ;
87 -> 89 ;
90 [label="gini = 0.0\nsamples = 3\nvalue = [0, 0, 3, 0, 0, 0, 0]\nclass = 3", fillcolor="#39e54d"] ;
86 -> 90 ;
91 [label="khambenh_thooxy <= 0.5\ngini = 0.503\nsamples = 128\nvalue = [53, 0, 73, 0, 0, 2, 0]\nclass = 3", fillcolor="#caf8d0"] ;
11 -> 91 ;
92 [label="tiensu_dotquy <= 0.5\ngini = 0.434\nsamples = 99\nvalue = [28, 0, 69, 0, 0, 2, 0]\nclass = 3", fillcolor="#8df098"] ;
91 -> 92 ;
93 [label="hoibenh_met <= 0.5\ngini = 0.363\nsamples = 90\nvalue = [20, 0, 69, 0, 0, 1, 0]\nclass = 3", fillcolor="#74ed82"] ;
92 -> 93 ;
94 [label="hoibenh_sars_covid <= 0.5\ngini = 0.47\nsamples = 53\nvalue = [20, 0, 33, 0, 0, 0, 0]\nclass = 3", fillcolor="#b1f5b9"] ;
93 -> 94 ;
95 [label="tiensu_COVID(+) <= 0.5\ngini = 0.198\nsamples = 18\nvalue = [2, 0, 16, 0, 0, 0, 0]\nclass = 3", fillcolor="#52e863"] ;
94 -> 95 ;
96 [label="hoibenh_daubung <= 0.5\ngini = 0.111\nsamples = 17\nvalue = [1, 0, 16, 0, 0, 0, 0]\nclass = 3", fillcolor="#45e758"] ;
95 -> 96 ;
97 [label="gini = 0.0\nsamples = 15\nvalue = [0, 0, 15, 0, 0, 0, 0]\nclass = 3", fillcolor="#39e54d"] ;
96 -> 97 ;
98 [label="tiensu_daithaoduong_2 <= 0.5\ngini = 0.5\nsamples = 2\nvalue = [1, 0, 1, 0, 0, 0, 0]\nclass = 1", fillcolor="#ffffff"] ;
96 -> 98 ;
99 [label="gini = 0.0\nsamples = 1\nvalue = [0, 0, 1, 0, 0, 0, 0]\nclass = 3", fillcolor="#39e54d"] ;
98 -> 99 ;
100 [label="gini = 0.0\nsamples = 1\nvalue = [1, 0, 0, 0, 0, 0, 0]\nclass = 1", fillcolor="#e58139"] ;
98 -> 100 ;
101 [label="gini = 0.0\nsamples = 1\nvalue = [1, 0, 0, 0, 0, 0, 0]\nclass = 1", fillcolor="#e58139"] ;
95 -> 101 ;
102 [label="tiensu_tiemnguaCOVID <= 0.25\ngini = 0.5\nsamples = 35\nvalue = [18, 0, 17, 0, 0, 0, 0]\nclass = 1", fillcolor="#fef8f4"] ;
94 -> 102 ;
103 [label="khambenh_daniemhong <= 0.5\ngini = 0.459\nsamples = 28\nvalue = [18, 0, 10, 0, 0, 0, 0]\nclass = 1", fillcolor="#f3c7a7"] ;
102 -> 103 ;
104 [label="khambenh_lomo <= 0.5\ngini = 0.459\nsamples = 14\nvalue = [5, 0, 9, 0, 0, 0, 0]\nclass = 3", fillcolor="#a7f3b0"] ;
103 -> 104 ;
105 [label="gini = 0.0\nsamples = 9\nvalue = [0, 0, 9, 0, 0, 0, 0]\nclass = 3", fillcolor="#39e54d"] ;
104 -> 105 ;
106 [label="gini = 0.0\nsamples = 5\nvalue = [5, 0, 0, 0, 0, 0, 0]\nclass = 1", fillcolor="#e58139"] ;
104 -> 106 ;
107 [label="hoibenh_khotho_ngaykhoiphat <= 0.008\ngini = 0.133\nsamples = 14\nvalue = [13, 0, 1, 0, 0, 0, 0]\nclass = 1", fillcolor="#e78b48"] ;
103 -> 107 ;
108 [label="gini = 0.0\nsamples = 1\nvalue = [0, 0, 1, 0, 0, 0, 0]\nclass = 3", fillcolor="#39e54d"] ;
107 -> 108 ;
109 [label="gini = 0.0\nsamples = 13\nvalue = [13, 0, 0, 0, 0, 0, 0]\nclass = 1", fillcolor="#e58139"] ;
107 -> 109 ;
110 [label="gini = 0.0\nsamples = 7\nvalue = [0, 0, 7, 0, 0, 0, 0]\nclass = 3", fillcolor="#39e54d"] ;
102 -> 110 ;
111 [label="lydovaovien_nonoi <= 0.5\ngini = 0.053\nsamples = 37\nvalue = [0, 0, 36, 0, 0, 1, 0]\nclass = 3", fillcolor="#3ee652"] ;
93 -> 111 ;
112 [label="gini = 0.0\nsamples = 36\nvalue = [0, 0, 36, 0, 0, 0, 0]\nclass = 3", fillcolor="#39e54d"] ;
111 -> 112 ;
113 [label="gini = 0.0\nsamples = 1\nvalue = [0, 0, 0, 0, 0, 1, 0]\nclass = 6", fillcolor="#b139e5"] ;
111 -> 113 ;
114 [label="tiensu_suytim <= 0.5\ngini = 0.198\nsamples = 9\nvalue = [8, 0, 0, 0, 0, 1, 0]\nclass = 1", fillcolor="#e89152"] ;
92 -> 114 ;
115 [label="gini = 0.0\nsamples = 8\nvalue = [8, 0, 0, 0, 0, 0, 0]\nclass = 1", fillcolor="#e58139"] ;
114 -> 115 ;
116 [label="gini = 0.0\nsamples = 1\nvalue = [0, 0, 0, 0, 0, 1, 0]\nclass = 6", fillcolor="#b139e5"] ;
114 -> 116 ;
117 [label="tiensu_tiemnguaCOVID <= 0.25\ngini = 0.238\nsamples = 29\nvalue = [25, 0, 4, 0, 0, 0, 0]\nclass = 1", fillcolor="#e99559"] ;
91 -> 117 ;
118 [label="gini = 0.0\nsamples = 25\nvalue = [25, 0, 0, 0, 0, 0, 0]\nclass = 1", fillcolor="#e58139"] ;
117 -> 118 ;
119 [label="gini = 0.0\nsamples = 4\nvalue = [0, 0, 4, 0, 0, 0, 0]\nclass = 3", fillcolor="#39e54d"] ;
117 -> 119 ;
120 [label="caccoquan_tuanhoan_timdeu <= 0.5\ngini = 0.554\nsamples = 1569\nvalue = [0, 76, 817, 651, 1, 1, 23]\nclass = 3", fillcolor="#dbfadf"] ;
0 -> 120 [labeldistance=2.5, labelangle=-45, headlabel="False"] ;
121 [label="caccoquan_hohap_binhthuong <= 0.5\ngini = 0.539\nsamples = 1041\nvalue = [0, 37, 458, 537, 0, 0, 9]\nclass = 4", fillcolor="#e4fbfb"] ;
120 -> 121 ;
122 [label="caccoquan_hohap_phoitho <= 0.5\ngini = 0.394\nsamples = 235\nvalue = [0, 19, 38, 178, 0, 0, 0]\nclass = 4", fillcolor="#72edea"] ;
121 -> 122 ;
123 [label="tiensu_tiemnguaCOVID <= 0.125\ngini = 0.295\nsamples = 215\nvalue = [0, 8, 29, 178, 0, 0, 0]\nclass = 4", fillcolor="#60eae8"] ;
122 -> 123 ;
124 [label="khambenh_cokeo <= 0.5\ngini = 0.223\nsamples = 195\nvalue = [0, 8, 16, 171, 0, 0, 0]\nclass = 4", fillcolor="#54e8e6"] ;
123 -> 124 ;
125 [label="lydovaovien_daubung <= 0.5\ngini = 0.133\nsamples = 170\nvalue = [0, 2, 10, 158, 0, 0, 0]\nclass = 4", fillcolor="#48e7e4"] ;
124 -> 125 ;
126 [label="khambenh_daniemnhat <= 0.5\ngini = 0.112\nsamples = 168\nvalue = [0, 0, 10, 158, 0, 0, 0]\nclass = 4", fillcolor="#46e7e4"] ;
125 -> 126 ;
127 [label="hoibenh_daubung <= 0.5\ngini = 0.092\nsamples = 166\nvalue = [0, 0, 8, 158, 0, 0, 0]\nclass = 4", fillcolor="#43e6e3"] ;
126 -> 127 ;
128 [label="tiensu_thoaihoacotsong <= 0.5\ngini = 0.071\nsamples = 163\nvalue = [0, 0, 6, 157, 0, 0, 0]\nclass = 4", fillcolor="#41e6e3"] ;
127 -> 128 ;
129 [label="hoibenh_matvigiac <= 0.5\ngini = 0.06\nsamples = 162\nvalue = [0, 0, 5, 157, 0, 0, 0]\nclass = 4", fillcolor="#3fe6e3"] ;
128 -> 129 ;
130 [label="tiensu_nhoimaucotim <= 0.5\ngini = 0.048\nsamples = 161\nvalue = [0, 0, 4, 157, 0, 0, 0]\nclass = 4", fillcolor="#3ee6e3"] ;
129 -> 130 ;
131 [label="khambenh_lomo <= 0.5\ngini = 0.037\nsamples = 160\nvalue = [0, 0, 3, 157, 0, 0, 0]\nclass = 4", fillcolor="#3de5e3"] ;
130 -> 131 ;
132 [label="cannang <= 0.104\ngini = 0.014\nsamples = 146\nvalue = [0, 0, 1, 145, 0, 0, 0]\nclass = 4", fillcolor="#3ae5e2"] ;
131 -> 132 ;
133 [label="hoibenh_hodam <= 0.5\ngini = 0.245\nsamples = 7\nvalue = [0, 0, 1, 6, 0, 0, 0]\nclass = 4", fillcolor="#5ae9e7"] ;
132 -> 133 ;
134 [label="gini = 0.0\nsamples = 6\nvalue = [0, 0, 0, 6, 0, 0, 0]\nclass = 4", fillcolor="#39e5e2"] ;
133 -> 134 ;
135 [label="gini = 0.0\nsamples = 1\nvalue = [0, 0, 1, 0, 0, 0, 0]\nclass = 3", fillcolor="#39e54d"] ;
133 -> 135 ;
136 [label="gini = 0.0\nsamples = 139\nvalue = [0, 0, 0, 139, 0, 0, 0]\nclass = 4", fillcolor="#39e5e2"] ;
132 -> 136 ;
137 [label="hoibenh_sars_covid <= 0.5\ngini = 0.245\nsamples = 14\nvalue = [0, 0, 2, 12, 0, 0, 0]\nclass = 4", fillcolor="#5ae9e7"] ;
131 -> 137 ;
138 [label="gini = 0.0\nsamples = 12\nvalue = [0, 0, 0, 12, 0, 0, 0]\nclass = 4", fillcolor="#39e5e2"] ;
137 -> 138 ;
139 [label="gini = 0.0\nsamples = 2\nvalue = [0, 0, 2, 0, 0, 0, 0]\nclass = 3", fillcolor="#39e54d"] ;
137 -> 139 ;
140 [label="gini = 0.0\nsamples = 1\nvalue = [0, 0, 1, 0, 0, 0, 0]\nclass = 3", fillcolor="#39e54d"] ;
130 -> 140 ;
141 [label="gini = 0.0\nsamples = 1\nvalue = [0, 0, 1, 0, 0, 0, 0]\nclass = 3", fillcolor="#39e54d"] ;
129 -> 141 ;
142 [label="gini = 0.0\nsamples = 1\nvalue = [0, 0, 1, 0, 0, 0, 0]\nclass = 3", fillcolor="#39e54d"] ;
128 -> 142 ;
143 [label="khambenh_chiam <= 0.5\ngini = 0.444\nsamples = 3\nvalue = [0, 0, 2, 1, 0, 0, 0]\nclass = 3", fillcolor="#9cf2a6"] ;
127 -> 143 ;
144 [label="gini = 0.0\nsamples = 2\nvalue = [0, 0, 2, 0, 0, 0, 0]\nclass = 3", fillcolor="#39e54d"] ;
143 -> 144 ;
145 [label="gini = 0.0\nsamples = 1\nvalue = [0, 0, 0, 1, 0, 0, 0]\nclass = 4", fillcolor="#39e5e2"] ;
143 -> 145 ;
146 [label="gini = 0.0\nsamples = 2\nvalue = [0, 0, 2, 0, 0, 0, 0]\nclass = 3", fillcolor="#39e54d"] ;
126 -> 146 ;
147 [label="gini = 0.0\nsamples = 2\nvalue = [0, 2, 0, 0, 0, 0, 0]\nclass = 2", fillcolor="#b7e539"] ;
125 -> 147 ;
148 [label="lydovaovien_khotho <= 0.5\ngini = 0.614\nsamples = 25\nvalue = [0, 6, 6, 13, 0, 0, 0]\nclass = 4", fillcolor="#b6f5f4"] ;
124 -> 148 ;
149 [label="huyetap2_on_dinh <= 0.5\ngini = 0.415\nsamples = 17\nvalue = [0, 0, 5, 12, 0, 0, 0]\nclass = 4", fillcolor="#8bf0ee"] ;
148 -> 149 ;
150 [label="tiensu_xuathuyettieuhoa <= 0.5\ngini = 0.245\nsamples = 14\nvalue = [0, 0, 2, 12, 0, 0, 0]\nclass = 4", fillcolor="#5ae9e7"] ;
149 -> 150 ;
151 [label="caccoquan_hohap_phoiraleam <= 0.5\ngini = 0.142\nsamples = 13\nvalue = [0, 0, 1, 12, 0, 0, 0]\nclass = 4", fillcolor="#49e7e4"] ;
150 -> 151 ;
152 [label="gini = 0.0\nsamples = 12\nvalue = [0, 0, 0, 12, 0, 0, 0]\nclass = 4", fillcolor="#39e5e2"] ;
151 -> 152 ;
153 [label="gini = 0.0\nsamples = 1\nvalue = [0, 0, 1, 0, 0, 0, 0]\nclass = 3", fillcolor="#39e54d"] ;
151 -> 153 ;
154 [label="gini = 0.0\nsamples = 1\nvalue = [0, 0, 1, 0, 0, 0, 0]\nclass = 3", fillcolor="#39e54d"] ;
150 -> 154 ;
155 [label="gini = 0.0\nsamples = 3\nvalue = [0, 0, 3, 0, 0, 0, 0]\nclass = 3", fillcolor="#39e54d"] ;
149 -> 155 ;
156 [label="hoibenh_sot <= 0.5\ngini = 0.406\nsamples = 8\nvalue = [0, 6, 1, 1, 0, 0, 0]\nclass = 2", fillcolor="#ccec72"] ;
148 -> 156 ;
157 [label="khambenh_tangCushing <= 0.5\ngini = 0.5\nsamples = 2\nvalue = [0, 0, 1, 1, 0, 0, 0]\nclass = 3", fillcolor="#ffffff"] ;
156 -> 157 ;
158 [label="gini = 0.0\nsamples = 1\nvalue = [0, 0, 1, 0, 0, 0, 0]\nclass = 3", fillcolor="#39e54d"] ;
157 -> 158 ;
159 [label="gini = 0.0\nsamples = 1\nvalue = [0, 0, 0, 1, 0, 0, 0]\nclass = 4", fillcolor="#39e5e2"] ;
157 -> 159 ;
160 [label="gini = 0.0\nsamples = 6\nvalue = [0, 6, 0, 0, 0, 0, 0]\nclass = 2", fillcolor="#b7e539"] ;
156 -> 160 ;
161 [label="hoibenh_khotho_ngaykhoiphat <= 0.025\ngini = 0.455\nsamples = 20\nvalue = [0, 0, 13, 7, 0, 0, 0]\nclass = 3", fillcolor="#a4f3ad"] ;
123 -> 161 ;
162 [label="cannang <= 0.142\ngini = 0.245\nsamples = 7\nvalue = [0, 0, 1, 6, 0, 0, 0]\nclass = 4", fillcolor="#5ae9e7"] ;
161 -> 162 ;
163 [label="gini = 0.0\nsamples = 6\nvalue = [0, 0, 0, 6, 0, 0, 0]\nclass = 4", fillcolor="#39e5e2"] ;
162 -> 163 ;
164 [label="gini = 0.0\nsamples = 1\nvalue = [0, 0, 1, 0, 0, 0, 0]\nclass = 3", fillcolor="#39e54d"] ;
162 -> 164 ;
165 [label="tiensu_tiemnguaCOVID <= 0.625\ngini = 0.142\nsamples = 13\nvalue = [0, 0, 12, 1, 0, 0, 0]\nclass = 3", fillcolor="#49e75c"] ;
161 -> 165 ;
166 [label="gini = 0.0\nsamples = 12\nvalue = [0, 0, 12, 0, 0, 0, 0]\nclass = 3", fillcolor="#39e54d"] ;
165 -> 166 ;
167 [label="gini = 0.0\nsamples = 1\nvalue = [0, 0, 0, 1, 0, 0, 0]\nclass = 4", fillcolor="#39e5e2"] ;
165 -> 167 ;
168 [label="hoibenh_matkhuugiac <= 0.5\ngini = 0.495\nsamples = 20\nvalue = [0, 11, 9, 0, 0, 0, 0]\nclass = 2", fillcolor="#f2fadb"] ;
122 -> 168 ;
169 [label="gini = 0.0\nsamples = 9\nvalue = [0, 0, 9, 0, 0, 0, 0]\nclass = 3", fillcolor="#39e54d"] ;
168 -> 169 ;
170 [label="gini = 0.0\nsamples = 11\nvalue = [0, 11, 0, 0, 0, 0, 0]\nclass = 2", fillcolor="#b7e539"] ;
168 -> 170 ;
171 [label="khambenh_tiepxuctot <= 0.5\ngini = 0.529\nsamples = 806\nvalue = [0, 18, 420, 359, 0, 0, 9]\nclass = 3", fillcolor="#e4fbe7"] ;
121 -> 171 ;
172 [label="huyetap1_on_dinh <= 0.5\ngini = 0.41\nsamples = 245\nvalue = [0, 2, 177, 64, 0, 0, 2]\nclass = 3", fillcolor="#83ef90"] ;
171 -> 172 ;
173 [label="chieucao <= 0.888\ngini = 0.325\nsamples = 202\nvalue = [0, 2, 162, 36, 0, 0, 2]\nclass = 3", fillcolor="#69eb78"] ;
172 -> 173 ;
174 [label="tiensu_daithaoduong_1 <= 0.5\ngini = 0.528\nsamples = 61\nvalue = [0, 0, 32, 27, 0, 0, 2]\nclass = 3", fillcolor="#e2fbe5"] ;
173 -> 174 ;
175 [label="lydovaovien_chuyenvien <= 0.5\ngini = 0.525\nsamples = 48\nvalue = [0, 0, 19, 27, 0, 0, 2]\nclass = 4", fillcolor="#c8f8f7"] ;
174 -> 175 ;
176 [label="tiensu_khoe <= 0.5\ngini = 0.538\nsamples = 34\nvalue = [0, 0, 19, 13, 0, 0, 2]\nclass = 3", fillcolor="#c6f8cc"] ;
175 -> 176 ;
177 [label="lydovaovien_khotho <= 0.5\ngini = 0.436\nsamples = 27\nvalue = [0, 0, 19, 7, 0, 0, 1]\nclass = 3", fillcolor="#88ef94"] ;
176 -> 177 ;
178 [label="khambenh_daniemtimtai <= 0.5\ngini = 0.562\nsamples = 11\nvalue = [0, 0, 4, 6, 0, 0, 1]\nclass = 4", fillcolor="#c6f8f7"] ;
177 -> 178 ;
179 [label="khambenh_met <= 0.5\ngini = 0.406\nsamples = 8\nvalue = [0, 0, 1, 6, 0, 0, 1]\nclass = 4", fillcolor="#72ecea"] ;
178 -> 179 ;
180 [label="chieucao <= 0.718\ngini = 0.245\nsamples = 7\nvalue = [0, 0, 0, 6, 0, 0, 1]\nclass = 4", fillcolor="#5ae9e7"] ;
179 -> 180 ;
181 [label="gini = 0.0\nsamples = 1\nvalue = [0, 0, 0, 0, 0, 0, 1]\nclass = 7", fillcolor="#e53986"] ;
180 -> 181 ;
182 [label="gini = 0.0\nsamples = 6\nvalue = [0, 0, 0, 6, 0, 0, 0]\nclass = 4", fillcolor="#39e5e2"] ;
180 -> 182 ;
183 [label="gini = 0.0\nsamples = 1\nvalue = [0, 0, 1, 0, 0, 0, 0]\nclass = 3", fillcolor="#39e54d"] ;
179 -> 183 ;
184 [label="gini = 0.0\nsamples = 3\nvalue = [0, 0, 3, 0, 0, 0, 0]\nclass = 3", fillcolor="#39e54d"] ;
178 -> 184 ;
185 [label="tiensu_tiemnguaCOVID <= 0.625\ngini = 0.117\nsamples = 16\nvalue = [0, 0, 15, 1, 0, 0, 0]\nclass = 3", fillcolor="#46e759"] ;
177 -> 185 ;
186 [label="gini = 0.0\nsamples = 15\nvalue = [0, 0, 15, 0, 0, 0, 0]\nclass = 3", fillcolor="#39e54d"] ;
185 -> 186 ;
187 [label="gini = 0.0\nsamples = 1\nvalue = [0, 0, 0, 1, 0, 0, 0]\nclass = 4", fillcolor="#39e5e2"] ;
185 -> 187 ;
188 [label="hoibenh_anuongkem <= 0.5\ngini = 0.245\nsamples = 7\nvalue = [0, 0, 0, 6, 0, 0, 1]\nclass = 4", fillcolor="#5ae9e7"] ;
176 -> 188 ;
189 [label="gini = 0.0\nsamples = 6\nvalue = [0, 0, 0, 6, 0, 0, 0]\nclass = 4", fillcolor="#39e5e2"] ;
188 -> 189 ;
190 [label="gini = 0.0\nsamples = 1\nvalue = [0, 0, 0, 0, 0, 0, 1]\nclass = 7", fillcolor="#e53986"] ;
188 -> 190 ;
191 [label="gini = 0.0\nsamples = 14\nvalue = [0, 0, 0, 14, 0, 0, 0]\nclass = 4", fillcolor="#39e5e2"] ;
175 -> 191 ;
192 [label="gini = 0.0\nsamples = 13\nvalue = [0, 0, 13, 0, 0, 0, 0]\nclass = 3", fillcolor="#39e54d"] ;
174 -> 192 ;
193 [label="tiensu_K_vu <= 0.5\ngini = 0.146\nsamples = 141\nvalue = [0, 2, 130, 9, 0, 0, 0]\nclass = 3", fillcolor="#4ae75c"] ;
173 -> 193 ;
194 [label="tiensu_laophoi <= 0.5\ngini = 0.085\nsamples = 136\nvalue = [0, 2, 130, 4, 0, 0, 0]\nclass = 3", fillcolor="#42e655"] ;
193 -> 194 ;
195 [label="hoibenh_honme <= 0.5\ngini = 0.072\nsamples = 135\nvalue = [0, 2, 130, 3, 0, 0, 0]\nclass = 3", fillcolor="#41e654"] ;
194 -> 195 ;
196 [label="tiensu_tiemnguaCOVID <= 0.375\ngini = 0.058\nsamples = 134\nvalue = [0, 2, 130, 2, 0, 0, 0]\nclass = 3", fillcolor="#3fe652"] ;
195 -> 196 ;
197 [label="gini = 0.0\nsamples = 116\nvalue = [0, 0, 116, 0, 0, 0, 0]\nclass = 3", fillcolor="#39e54d"] ;
196 -> 197 ;
198 [label="hoibenh_khotho_ngaykhoiphat <= 0.107\ngini = 0.37\nsamples = 18\nvalue = [0, 2, 14, 2, 0, 0, 0]\nclass = 3", fillcolor="#6aec79"] ;
196 -> 198 ;
199 [label="khambenh_machro <= 0.5\ngini = 0.219\nsamples = 16\nvalue = [0, 0, 14, 2, 0, 0, 0]\nclass = 3", fillcolor="#55e966"] ;
198 -> 199 ;
200 [label="hoibenh_thocokeo <= 0.5\ngini = 0.124\nsamples = 15\nvalue = [0, 0, 14, 1, 0, 0, 0]\nclass = 3", fillcolor="#47e75a"] ;
199 -> 200 ;
201 [label="gini = 0.0\nsamples = 14\nvalue = [0, 0, 14, 0, 0, 0, 0]\nclass = 3", fillcolor="#39e54d"] ;
200 -> 201 ;
202 [label="gini = 0.0\nsamples = 1\nvalue = [0, 0, 0, 1, 0, 0, 0]\nclass = 4", fillcolor="#39e5e2"] ;
200 -> 202 ;
203 [label="gini = 0.0\nsamples = 1\nvalue = [0, 0, 0, 1, 0, 0, 0]\nclass = 4", fillcolor="#39e5e2"] ;
199 -> 203 ;
204 [label="gini = 0.0\nsamples = 2\nvalue = [0, 2, 0, 0, 0, 0, 0]\nclass = 2", fillcolor="#b7e539"] ;
198 -> 204 ;
205 [label="gini = 0.0\nsamples = 1\nvalue = [0, 0, 0, 1, 0, 0, 0]\nclass = 4", fillcolor="#39e5e2"] ;
195 -> 205 ;
206 [label="gini = 0.0\nsamples = 1\nvalue = [0, 0, 0, 1, 0, 0, 0]\nclass = 4", fillcolor="#39e5e2"] ;
194 -> 206 ;
207 [label="gini = 0.0\nsamples = 5\nvalue = [0, 0, 0, 5, 0, 0, 0]\nclass = 4", fillcolor="#39e5e2"] ;
193 -> 207 ;
208 [label="khambenh_daniemhong <= 0.5\ngini = 0.454\nsamples = 43\nvalue = [0, 0, 15, 28, 0, 0, 0]\nclass = 4", fillcolor="#a3f3f2"] ;
172 -> 208 ;
209 [label="cannang <= 0.133\ngini = 0.32\nsamples = 35\nvalue = [0, 0, 7, 28, 0, 0, 0]\nclass = 4", fillcolor="#6aece9"] ;
208 -> 209 ;
210 [label="hoibenh_khotho_ngaykhoiphat <= 0.049\ngini = 0.219\nsamples = 32\nvalue = [0, 0, 4, 28, 0, 0, 0]\nclass = 4", fillcolor="#55e9e6"] ;
209 -> 210 ;
211 [label="bmi_on_dinh <= 0.5\ngini = 0.124\nsamples = 30\nvalue = [0, 0, 2, 28, 0, 0, 0]\nclass = 4", fillcolor="#47e7e4"] ;
210 -> 211 ;
212 [label="gini = 0.0\nsamples = 1\nvalue = [0, 0, 1, 0, 0, 0, 0]\nclass = 3", fillcolor="#39e54d"] ;
211 -> 212 ;
213 [label="lydovaovien_khotho <= 0.5\ngini = 0.067\nsamples = 29\nvalue = [0, 0, 1, 28, 0, 0, 0]\nclass = 4", fillcolor="#40e6e3"] ;
211 -> 213 ;
214 [label="gini = 0.0\nsamples = 24\nvalue = [0, 0, 0, 24, 0, 0, 0]\nclass = 4", fillcolor="#39e5e2"] ;
213 -> 214 ;
215 [label="cannang <= 0.117\ngini = 0.32\nsamples = 5\nvalue = [0, 0, 1, 4, 0, 0, 0]\nclass = 4", fillcolor="#6aece9"] ;
213 -> 215 ;
216 [label="gini = 0.0\nsamples = 1\nvalue = [0, 0, 1, 0, 0, 0, 0]\nclass = 3", fillcolor="#39e54d"] ;
215 -> 216 ;
217 [label="gini = 0.0\nsamples = 4\nvalue = [0, 0, 0, 4, 0, 0, 0]\nclass = 4", fillcolor="#39e5e2"] ;
215 -> 217 ;
218 [label="gini = 0.0\nsamples = 2\nvalue = [0, 0, 2, 0, 0, 0, 0]\nclass = 3", fillcolor="#39e54d"] ;
210 -> 218 ;
219 [label="gini = 0.0\nsamples = 3\nvalue = [0, 0, 3, 0, 0, 0, 0]\nclass = 3", fillcolor="#39e54d"] ;
209 -> 219 ;
220 [label="gini = 0.0\nsamples = 8\nvalue = [0, 0, 8, 0, 0, 0, 0]\nclass = 3", fillcolor="#39e54d"] ;
208 -> 220 ;
221 [label="tiensu_tiemnguaCOVID <= 0.125\ngini = 0.535\nsamples = 561\nvalue = [0, 16, 243, 295, 0, 0, 7]\nclass = 4", fillcolor="#dffbfa"] ;
171 -> 221 ;
222 [label="hoibenh_sot_ngaykhoiphat <= 0.016\ngini = 0.519\nsamples = 506\nvalue = [0, 16, 200, 288, 0, 0, 2]\nclass = 4", fillcolor="#c6f8f7"] ;
221 -> 222 ;
223 [label="cannang <= 0.128\ngini = 0.57\nsamples = 37\nvalue = [0, 16, 18, 3, 0, 0, 0]\nclass = 3", fillcolor="#ecfdee"] ;
222 -> 223 ;
224 [label="khambenh_SpO2 <= 0.881\ngini = 0.245\nsamples = 21\nvalue = [0, 0, 18, 3, 0, 0, 0]\nclass = 3", fillcolor="#5ae96b"] ;
223 -> 224 ;
225 [label="gini = 0.0\nsamples = 18\nvalue = [0, 0, 18, 0, 0, 0, 0]\nclass = 3", fillcolor="#39e54d"] ;
224 -> 225 ;
226 [label="gini = 0.0\nsamples = 3\nvalue = [0, 0, 0, 3, 0, 0, 0]\nclass = 4", fillcolor="#39e5e2"] ;
224 -> 226 ;
227 [label="gini = 0.0\nsamples = 16\nvalue = [0, 16, 0, 0, 0, 0, 0]\nclass = 2", fillcolor="#b7e539"] ;
223 -> 227 ;
228 [label="hoibenh_dauthuongvi <= 0.5\ngini = 0.48\nsamples = 469\nvalue = [0, 0, 182, 285, 0, 0, 2]\nclass = 4", fillcolor="#b8f6f5"] ;
222 -> 228 ;
229 [label="khambenh_thooxy <= 0.5\ngini = 0.471\nsamples = 453\nvalue = [0, 0, 167, 284, 0, 0, 2]\nclass = 4", fillcolor="#aef4f3"] ;
228 -> 229 ;
230 [label="chieucao <= 0.908\ngini = 0.449\nsamples = 409\nvalue = [0, 0, 137, 271, 0, 0, 1]\nclass = 4", fillcolor="#9df2f1"] ;
229 -> 230 ;
231 [label="chieucao <= 0.862\ngini = 0.501\nsamples = 231\nvalue = [0, 0, 105, 125, 0, 0, 1]\nclass = 4", fillcolor="#e0fbfa"] ;
230 -> 231 ;
232 [label="khambenh_butrut <= 0.5\ngini = 0.067\nsamples = 29\nvalue = [0, 0, 1, 28, 0, 0, 0]\nclass = 4", fillcolor="#40e6e3"] ;
231 -> 232 ;
233 [label="gini = 0.0\nsamples = 28\nvalue = [0, 0, 0, 28, 0, 0, 0]\nclass = 4", fillcolor="#39e5e2"] ;
232 -> 233 ;
234 [label="gini = 0.0\nsamples = 1\nvalue = [0, 0, 1, 0, 0, 0, 0]\nclass = 3", fillcolor="#39e54d"] ;
232 -> 234 ;
235 [label="hoibenh_thooxy <= 0.5\ngini = 0.504\nsamples = 202\nvalue = [0, 0, 104, 97, 0, 0, 1]\nclass = 3", fillcolor="#f2fdf3"] ;
231 -> 235 ;
236 [label="tiensu_khoe <= 0.5\ngini = 0.498\nsamples = 187\nvalue = [0, 0, 104, 82, 0, 0, 1]\nclass = 3", fillcolor="#d6fada"] ;
235 -> 236 ;
237 [label="huyetap1_on_dinh <= 0.5\ngini = 0.47\nsamples = 144\nvalue = [0, 0, 91, 52, 0, 0, 1]\nclass = 3", fillcolor="#abf4b4"] ;
236 -> 237 ;
238 [label="hoibenh_khotho_ngaykhoiphat <= 0.008\ngini = 0.485\nsamples = 82\nvalue = [0, 0, 31, 50, 0, 0, 1]\nclass = 4", fillcolor="#b5f5f4"] ;
237 -> 238 ;
239 [label="khambenh_tangsuykiet <= 0.5\ngini = 0.298\nsamples = 22\nvalue = [0, 0, 18, 4, 0, 0, 0]\nclass = 3", fillcolor="#65eb75"] ;
238 -> 239 ;
240 [label="gini = 0.0\nsamples = 18\nvalue = [0, 0, 18, 0, 0, 0, 0]\nclass = 3", fillcolor="#39e54d"] ;
239 -> 240 ;
241 [label="gini = 0.0\nsamples = 4\nvalue = [0, 0, 0, 4, 0, 0, 0]\nclass = 4", fillcolor="#39e5e2"] ;
239 -> 241 ;
242 [label="tiensu_suytim <= 0.5\ngini = 0.365\nsamples = 60\nvalue = [0, 0, 13, 46, 0, 0, 1]\nclass = 4", fillcolor="#74edeb"] ;
238 -> 242 ;
243 [label="khambenh_sot <= 0.5\ngini = 0.299\nsamples = 56\nvalue = [0, 0, 9, 46, 0, 0, 1]\nclass = 4", fillcolor="#63ebe8"] ;
242 -> 243 ;
244 [label="tiensu_trandichmangphoi <= 0.5\ngini = 0.234\nsamples = 53\nvalue = [0, 0, 6, 46, 0, 0, 1]\nclass = 4", fillcolor="#56e9e6"] ;
243 -> 244 ;
245 [label="tiensu_hovan3la <= 0.5\ngini = 0.18\nsamples = 51\nvalue = [0, 0, 4, 46, 0, 0, 1]\nclass = 4", fillcolor="#4ee8e5"] ;
244 -> 245 ;
246 [label="cannang <= 0.081\ngini = 0.147\nsamples = 50\nvalue = [0, 0, 4, 46, 0, 0, 0]\nclass = 4", fillcolor="#4ae7e5"] ;
245 -> 246 ;
247 [label="gini = 0.0\nsamples = 1\nvalue = [0, 0, 1, 0, 0, 0, 0]\nclass = 3", fillcolor="#39e54d"] ;
246 -> 247 ;
248 [label="hoibenh_noikho <= 0.5\ngini = 0.115\nsamples = 49\nvalue = [0, 0, 3, 46, 0, 0, 0]\nclass = 4", fillcolor="#46e7e4"] ;
246 -> 248 ;
249 [label="lydovaovien_met <= 0.5\ngini = 0.08\nsamples = 48\nvalue = [0, 0, 2, 46, 0, 0, 0]\nclass = 4", fillcolor="#42e6e3"] ;
248 -> 249 ;
250 [label="gini = 0.0\nsamples = 42\nvalue = [0, 0, 0, 42, 0, 0, 0]\nclass = 4", fillcolor="#39e5e2"] ;
249 -> 250 ;
251 [label="bmi_on_dinh <= 0.5\ngini = 0.444\nsamples = 6\nvalue = [0, 0, 2, 4, 0, 0, 0]\nclass = 4", fillcolor="#9cf2f0"] ;
249 -> 251 ;
252 [label="gini = 0.0\nsamples = 1\nvalue = [0, 0, 1, 0, 0, 0, 0]\nclass = 3", fillcolor="#39e54d"] ;
251 -> 252 ;
253 [label="hoibenh_met <= 0.5\ngini = 0.32\nsamples = 5\nvalue = [0, 0, 1, 4, 0, 0, 0]\nclass = 4", fillcolor="#6aece9"] ;
251 -> 253 ;
254 [label="gini = 0.0\nsamples = 1\nvalue = [0, 0, 1, 0, 0, 0, 0]\nclass = 3", fillcolor="#39e54d"] ;
253 -> 254 ;
255 [label="gini = 0.0\nsamples = 4\nvalue = [0, 0, 0, 4, 0, 0, 0]\nclass = 4", fillcolor="#39e5e2"] ;
253 -> 255 ;
256 [label="gini = 0.0\nsamples = 1\nvalue = [0, 0, 1, 0, 0, 0, 0]\nclass = 3", fillcolor="#39e54d"] ;
248 -> 256 ;
257 [label="gini = 0.0\nsamples = 1\nvalue = [0, 0, 0, 0, 0, 0, 1]\nclass = 7", fillcolor="#e53986"] ;
245 -> 257 ;
258 [label="gini = 0.0\nsamples = 2\nvalue = [0, 0, 2, 0, 0, 0, 0]\nclass = 3", fillcolor="#39e54d"] ;
244 -> 258 ;
259 [label="gini = 0.0\nsamples = 3\nvalue = [0, 0, 3, 0, 0, 0, 0]\nclass = 3", fillcolor="#39e54d"] ;
243 -> 259 ;
260 [label="gini = 0.0\nsamples = 4\nvalue = [0, 0, 4, 0, 0, 0, 0]\nclass = 3", fillcolor="#39e54d"] ;
242 -> 260 ;
261 [label="tiensu_dichungmachmaunao <= 0.5\ngini = 0.062\nsamples = 62\nvalue = [0, 0, 60, 2, 0, 0, 0]\nclass = 3", fillcolor="#40e653"] ;
237 -> 261 ;
262 [label="khambenh_tinh <= 0.5\ngini = 0.032\nsamples = 61\nvalue = [0, 0, 60, 1, 0, 0, 0]\nclass = 3", fillcolor="#3ce550"] ;
261 -> 262 ;
263 [label="khambenh_lietnuanguoi(P) <= 0.5\ngini = 0.5\nsamples = 2\nvalue = [0, 0, 1, 1, 0, 0, 0]\nclass = 3", fillcolor="#ffffff"] ;
262 -> 263 ;
264 [label="gini = 0.0\nsamples = 1\nvalue = [0, 0, 0, 1, 0, 0, 0]\nclass = 4", fillcolor="#39e5e2"] ;
263 -> 264 ;
265 [label="gini = 0.0\nsamples = 1\nvalue = [0, 0, 1, 0, 0, 0, 0]\nclass = 3", fillcolor="#39e54d"] ;
263 -> 265 ;
266 [label="gini = 0.0\nsamples = 59\nvalue = [0, 0, 59, 0, 0, 0, 0]\nclass = 3", fillcolor="#39e54d"] ;
262 -> 266 ;
267 [label="gini = 0.0\nsamples = 1\nvalue = [0, 0, 0, 1, 0, 0, 0]\nclass = 4", fillcolor="#39e5e2"] ;
261 -> 267 ;
268 [label="khambenh_khotho <= 0.5\ngini = 0.422\nsamples = 43\nvalue = [0, 0, 13, 30, 0, 0, 0]\nclass = 4", fillcolor="#8ff0ef"] ;
236 -> 268 ;
269 [label="hoibenh_chongmat <= 0.5\ngini = 0.064\nsamples = 30\nvalue = [0, 0, 1, 29, 0, 0, 0]\nclass = 4", fillcolor="#40e6e3"] ;
268 -> 269 ;
270 [label="gini = 0.0\nsamples = 29\nvalue = [0, 0, 0, 29, 0, 0, 0]\nclass = 4", fillcolor="#39e5e2"] ;
269 -> 270 ;
271 [label="gini = 0.0\nsamples = 1\nvalue = [0, 0, 1, 0, 0, 0, 0]\nclass = 3", fillcolor="#39e54d"] ;
269 -> 271 ;
272 [label="hoibenh_sars_covid <= 0.5\ngini = 0.142\nsamples = 13\nvalue = [0, 0, 12, 1, 0, 0, 0]\nclass = 3", fillcolor="#49e75c"] ;
268 -> 272 ;
273 [label="gini = 0.0\nsamples = 12\nvalue = [0, 0, 12, 0, 0, 0, 0]\nclass = 3", fillcolor="#39e54d"] ;
272 -> 273 ;
274 [label="gini = 0.0\nsamples = 1\nvalue = [0, 0, 0, 1, 0, 0, 0]\nclass = 4", fillcolor="#39e5e2"] ;
272 -> 274 ;
275 [label="gini = 0.0\nsamples = 15\nvalue = [0, 0, 0, 15, 0, 0, 0]\nclass = 4", fillcolor="#39e5e2"] ;
235 -> 275 ;
276 [label="tiensu_daithaoduong_1 <= 0.5\ngini = 0.295\nsamples = 178\nvalue = [0, 0, 32, 146, 0, 0, 0]\nclass = 4", fillcolor="#64ebe8"] ;
230 -> 276 ;
277 [label="lydovaovien_ho <= 0.5\ngini = 0.232\nsamples = 164\nvalue = [0, 0, 22, 142, 0, 0, 0]\nclass = 4", fillcolor="#58e9e6"] ;
276 -> 277 ;
278 [label="hoibenh_viemphoi <= 0.5\ngini = 0.208\nsamples = 161\nvalue = [0, 0, 19, 142, 0, 0, 0]\nclass = 4", fillcolor="#53e8e6"] ;
277 -> 278 ;
279 [label="cannang <= 0.13\ngini = 0.183\nsamples = 157\nvalue = [0, 0, 16, 141, 0, 0, 0]\nclass = 4", fillcolor="#4fe8e5"] ;
278 -> 279 ;
280 [label="khambenh_sot <= 0.5\ngini = 0.091\nsamples = 126\nvalue = [0, 0, 6, 120, 0, 0, 0]\nclass = 4", fillcolor="#43e6e3"] ;
279 -> 280 ;
281 [label="khambenh_daniemvang <= 0.5\ngini = 0.077\nsamples = 125\nvalue = [0, 0, 5, 120, 0, 0, 0]\nclass = 4", fillcolor="#41e6e3"] ;
280 -> 281 ;
282 [label="khambenh_tangCushing <= 0.5\ngini = 0.062\nsamples = 124\nvalue = [0, 0, 4, 120, 0, 0, 0]\nclass = 4", fillcolor="#40e6e3"] ;
281 -> 282 ;
283 [label="hoibenh_daulung <= 0.5\ngini = 0.048\nsamples = 123\nvalue = [0, 0, 3, 120, 0, 0, 0]\nclass = 4", fillcolor="#3ee6e3"] ;
282 -> 283 ;
284 [label="khambenh_sungdaucotay(T) <= 0.5\ngini = 0.032\nsamples = 122\nvalue = [0, 0, 2, 120, 0, 0, 0]\nclass = 4", fillcolor="#3ce5e2"] ;
283 -> 284 ;
285 [label="khambenh_thokhitroi <= 0.5\ngini = 0.016\nsamples = 121\nvalue = [0, 0, 1, 120, 0, 0, 0]\nclass = 4", fillcolor="#3be5e2"] ;
284 -> 285 ;
286 [label="gini = 0.0\nsamples = 120\nvalue = [0, 0, 0, 120, 0, 0, 0]\nclass = 4", fillcolor="#39e5e2"] ;
285 -> 286 ;
287 [label="gini = 0.0\nsamples = 1\nvalue = [0, 0, 1, 0, 0, 0, 0]\nclass = 3", fillcolor="#39e54d"] ;
285 -> 287 ;
288 [label="gini = 0.0\nsamples = 1\nvalue = [0, 0, 1, 0, 0, 0, 0]\nclass = 3", fillcolor="#39e54d"] ;
284 -> 288 ;
289 [label="gini = 0.0\nsamples = 1\nvalue = [0, 0, 1, 0, 0, 0, 0]\nclass = 3", fillcolor="#39e54d"] ;
283 -> 289 ;
290 [label="gini = 0.0\nsamples = 1\nvalue = [0, 0, 1, 0, 0, 0, 0]\nclass = 3", fillcolor="#39e54d"] ;
282 -> 290 ;
291 [label="gini = 0.0\nsamples = 1\nvalue = [0, 0, 1, 0, 0, 0, 0]\nclass = 3", fillcolor="#39e54d"] ;
281 -> 291 ;
292 [label="gini = 0.0\nsamples = 1\nvalue = [0, 0, 1, 0, 0, 0, 0]\nclass = 3", fillcolor="#39e54d"] ;
280 -> 292 ;
293 [label="huyetap1_on_dinh <= 0.5\ngini = 0.437\nsamples = 31\nvalue = [0, 0, 10, 21, 0, 0, 0]\nclass = 4", fillcolor="#97f1f0"] ;
279 -> 293 ;
294 [label="chieucao <= 0.934\ngini = 0.499\nsamples = 21\nvalue = [0, 0, 10, 11, 0, 0, 0]\nclass = 4", fillcolor="#edfdfc"] ;
293 -> 294 ;
295 [label="tiensu_suythan <= 0.5\ngini = 0.245\nsamples = 7\nvalue = [0, 0, 6, 1, 0, 0, 0]\nclass = 3", fillcolor="#5ae96b"] ;
294 -> 295 ;
296 [label="gini = 0.0\nsamples = 6\nvalue = [0, 0, 6, 0, 0, 0, 0]\nclass = 3", fillcolor="#39e54d"] ;
295 -> 296 ;
297 [label="gini = 0.0\nsamples = 1\nvalue = [0, 0, 0, 1, 0, 0, 0]\nclass = 4", fillcolor="#39e5e2"] ;
295 -> 297 ;
298 [label="lydovaovien_met <= 0.5\ngini = 0.408\nsamples = 14\nvalue = [0, 0, 4, 10, 0, 0, 0]\nclass = 4", fillcolor="#88efee"] ;
294 -> 298 ;
299 [label="tiensu_hepdongmachcanh <= 0.5\ngini = 0.278\nsamples = 12\nvalue = [0, 0, 2, 10, 0, 0, 0]\nclass = 4", fillcolor="#61eae8"] ;
298 -> 299 ;
300 [label="hoibenh_yeuhaichan <= 0.5\ngini = 0.165\nsamples = 11\nvalue = [0, 0, 1, 10, 0, 0, 0]\nclass = 4", fillcolor="#4de8e5"] ;
299 -> 300 ;
301 [label="gini = 0.0\nsamples = 10\nvalue = [0, 0, 0, 10, 0, 0, 0]\nclass = 4", fillcolor="#39e5e2"] ;
300 -> 301 ;
302 [label="gini = 0.0\nsamples = 1\nvalue = [0, 0, 1, 0, 0, 0, 0]\nclass = 3", fillcolor="#39e54d"] ;
300 -> 302 ;
303 [label="gini = 0.0\nsamples = 1\nvalue = [0, 0, 1, 0, 0, 0, 0]\nclass = 3", fillcolor="#39e54d"] ;
299 -> 303 ;
304 [label="gini = 0.0\nsamples = 2\nvalue = [0, 0, 2, 0, 0, 0, 0]\nclass = 3", fillcolor="#39e54d"] ;
298 -> 304 ;
305 [label="gini = 0.0\nsamples = 10\nvalue = [0, 0, 0, 10, 0, 0, 0]\nclass = 4", fillcolor="#39e5e2"] ;
293 -> 305 ;
306 [label="hoibenh_khotho <= 0.5\ngini = 0.375\nsamples = 4\nvalue = [0, 0, 3, 1, 0, 0, 0]\nclass = 3", fillcolor="#7bee88"] ;
278 -> 306 ;
307 [label="gini = 0.0\nsamples = 3\nvalue = [0, 0, 3, 0, 0, 0, 0]\nclass = 3", fillcolor="#39e54d"] ;
306 -> 307 ;
308 [label="gini = 0.0\nsamples = 1\nvalue = [0, 0, 0, 1, 0, 0, 0]\nclass = 4", fillcolor="#39e5e2"] ;
306 -> 308 ;
309 [label="gini = 0.0\nsamples = 3\nvalue = [0, 0, 3, 0, 0, 0, 0]\nclass = 3", fillcolor="#39e54d"] ;
277 -> 309 ;
310 [label="chieucao <= 0.928\ngini = 0.408\nsamples = 14\nvalue = [0, 0, 10, 4, 0, 0, 0]\nclass = 3", fillcolor="#88ef94"] ;
276 -> 310 ;
311 [label="hoibenh_met <= 0.5\ngini = 0.32\nsamples = 5\nvalue = [0, 0, 1, 4, 0, 0, 0]\nclass = 4", fillcolor="#6aece9"] ;
310 -> 311 ;
312 [label="gini = 0.0\nsamples = 1\nvalue = [0, 0, 1, 0, 0, 0, 0]\nclass = 3", fillcolor="#39e54d"] ;
311 -> 312 ;
313 [label="gini = 0.0\nsamples = 4\nvalue = [0, 0, 0, 4, 0, 0, 0]\nclass = 4", fillcolor="#39e5e2"] ;
311 -> 313 ;
314 [label="gini = 0.0\nsamples = 9\nvalue = [0, 0, 9, 0, 0, 0, 0]\nclass = 3", fillcolor="#39e54d"] ;
310 -> 314 ;
315 [label="hoibenh_met <= 0.5\ngini = 0.447\nsamples = 44\nvalue = [0, 0, 30, 13, 0, 0, 1]\nclass = 3", fillcolor="#92f19d"] ;
229 -> 315 ;
316 [label="lydovaovien_viemphoi <= 0.5\ngini = 0.087\nsamples = 22\nvalue = [0, 0, 21, 1, 0, 0, 0]\nclass = 3", fillcolor="#42e655"] ;
315 -> 316 ;
317 [label="gini = 0.0\nsamples = 21\nvalue = [0, 0, 21, 0, 0, 0, 0]\nclass = 3", fillcolor="#39e54d"] ;
316 -> 317 ;
318 [label="gini = 0.0\nsamples = 1\nvalue = [0, 0, 0, 1, 0, 0, 0]\nclass = 4", fillcolor="#39e5e2"] ;
316 -> 318 ;
319 [label="hoibenh_khotho_ngaykhoiphat <= 0.049\ngini = 0.533\nsamples = 22\nvalue = [0, 0, 9, 12, 0, 0, 1]\nclass = 4", fillcolor="#d1f9f8"] ;
315 -> 319 ;
320 [label="khambenh_thonhanh <= 0.5\ngini = 0.398\nsamples = 16\nvalue = [0, 0, 3, 12, 0, 0, 1]\nclass = 4", fillcolor="#76edeb"] ;
319 -> 320 ;
321 [label="khambenh_cokeo <= 0.5\ngini = 0.142\nsamples = 13\nvalue = [0, 0, 0, 12, 0, 0, 1]\nclass = 4", fillcolor="#49e7e4"] ;
320 -> 321 ;
322 [label="gini = 0.0\nsamples = 12\nvalue = [0, 0, 0, 12, 0, 0, 0]\nclass = 4", fillcolor="#39e5e2"] ;
321 -> 322 ;
323 [label="gini = 0.0\nsamples = 1\nvalue = [0, 0, 0, 0, 0, 0, 1]\nclass = 7", fillcolor="#e53986"] ;
321 -> 323 ;
324 [label="gini = 0.0\nsamples = 3\nvalue = [0, 0, 3, 0, 0, 0, 0]\nclass = 3", fillcolor="#39e54d"] ;
320 -> 324 ;
325 [label="gini = 0.0\nsamples = 6\nvalue = [0, 0, 6, 0, 0, 0, 0]\nclass = 3", fillcolor="#39e54d"] ;
319 -> 325 ;
326 [label="tiensu_loetdaday <= 0.5\ngini = 0.117\nsamples = 16\nvalue = [0, 0, 15, 1, 0, 0, 0]\nclass = 3", fillcolor="#46e759"] ;
228 -> 326 ;
327 [label="gini = 0.0\nsamples = 15\nvalue = [0, 0, 15, 0, 0, 0, 0]\nclass = 3", fillcolor="#39e54d"] ;
326 -> 327 ;
328 [label="gini = 0.0\nsamples = 1\nvalue = [0, 0, 0, 1, 0, 0, 0]\nclass = 4", fillcolor="#39e5e2"] ;
326 -> 328 ;
329 [label="hoibenh_onlanh <= 0.5\ngini = 0.364\nsamples = 55\nvalue = [0, 0, 43, 7, 0, 0, 5]\nclass = 3", fillcolor="#6bec7a"] ;
221 -> 329 ;
330 [label="hoibenh_sars_covid <= 0.5\ngini = 0.301\nsamples = 52\nvalue = [0, 0, 43, 4, 0, 0, 5]\nclass = 3", fillcolor="#5fea6f"] ;
329 -> 330 ;
331 [label="tiensu_uxotucung <= 0.5\ngini = 0.056\nsamples = 35\nvalue = [0, 0, 34, 1, 0, 0, 0]\nclass = 3", fillcolor="#3fe652"] ;
330 -> 331 ;
332 [label="gini = 0.0\nsamples = 34\nvalue = [0, 0, 34, 0, 0, 0, 0]\nclass = 3", fillcolor="#39e54d"] ;
331 -> 332 ;
333 [label="gini = 0.0\nsamples = 1\nvalue = [0, 0, 0, 1, 0, 0, 0]\nclass = 4", fillcolor="#39e5e2"] ;
331 -> 333 ;
334 [label="tiensu_tanghuyetap <= 0.5\ngini = 0.602\nsamples = 17\nvalue = [0, 0, 9, 3, 0, 0, 5]\nclass = 3", fillcolor="#bdf6c4"] ;
330 -> 334 ;
335 [label="khambenh_thokhitroi <= 0.5\ngini = 0.52\nsamples = 14\nvalue = [0, 0, 9, 3, 0, 0, 2]\nclass = 3", fillcolor="#93f19e"] ;
334 -> 335 ;
336 [label="khambenh_sot <= 0.5\ngini = 0.314\nsamples = 11\nvalue = [0, 0, 9, 1, 0, 0, 1]\nclass = 3", fillcolor="#61ea71"] ;
335 -> 336 ;
337 [label="cannang <= 0.148\ngini = 0.18\nsamples = 10\nvalue = [0, 0, 9, 0, 0, 0, 1]\nclass = 3", fillcolor="#4fe861"] ;
336 -> 337 ;
338 [label="gini = 0.0\nsamples = 9\nvalue = [0, 0, 9, 0, 0, 0, 0]\nclass = 3", fillcolor="#39e54d"] ;
337 -> 338 ;
339 [label="gini = 0.0\nsamples = 1\nvalue = [0, 0, 0, 0, 0, 0, 1]\nclass = 7", fillcolor="#e53986"] ;
337 -> 339 ;
340 [label="gini = 0.0\nsamples = 1\nvalue = [0, 0, 0, 1, 0, 0, 0]\nclass = 4", fillcolor="#39e5e2"] ;
336 -> 340 ;
341 [label="khambenh_SpO2 <= 0.96\ngini = 0.444\nsamples = 3\nvalue = [0, 0, 0, 2, 0, 0, 1]\nclass = 4", fillcolor="#9cf2f0"] ;
335 -> 341 ;
342 [label="gini = 0.0\nsamples = 2\nvalue = [0, 0, 0, 2, 0, 0, 0]\nclass = 4", fillcolor="#39e5e2"] ;
341 -> 342 ;
343 [label="gini = 0.0\nsamples = 1\nvalue = [0, 0, 0, 0, 0, 0, 1]\nclass = 7", fillcolor="#e53986"] ;
341 -> 343 ;
344 [label="gini = 0.0\nsamples = 3\nvalue = [0, 0, 0, 0, 0, 0, 3]\nclass = 7", fillcolor="#e53986"] ;
334 -> 344 ;
345 [label="gini = 0.0\nsamples = 3\nvalue = [0, 0, 0, 3, 0, 0, 0]\nclass = 4", fillcolor="#39e5e2"] ;
329 -> 345 ;
346 [label="caccoquan_tuanhoan_momtimduongtrungdon <= 0.5\ngini = 0.485\nsamples = 528\nvalue = [0, 39, 359, 114, 1, 1, 14]\nclass = 3", fillcolor="#8af096"] ;
120 -> 346 ;
347 [label="caccoquan_hohap_phoitrong <= 0.5\ngini = 0.411\nsamples = 449\nvalue = [0, 39, 337, 58, 0, 1, 14]\nclass = 3", fillcolor="#72ec80"] ;
346 -> 347 ;
348 [label="lydovaovien_sars_covid <= 0.5\ngini = 0.349\nsamples = 423\nvalue = [0, 39, 336, 45, 0, 0, 3]\nclass = 3", fillcolor="#67eb76"] ;
347 -> 348 ;
349 [label="cannang <= 0.113\ngini = 0.327\nsamples = 411\nvalue = [0, 39, 333, 36, 0, 0, 3]\nclass = 3", fillcolor="#63ea72"] ;
348 -> 349 ;
350 [label="tiensu_khoe <= 0.5\ngini = 0.535\nsamples = 108\nvalue = [0, 25, 68, 13, 0, 0, 2]\nclass = 3", fillcolor="#98f2a3"] ;
349 -> 350 ;
351 [label="hoibenh_mattrigiac <= 0.5\ngini = 0.372\nsamples = 85\nvalue = [0, 6, 66, 12, 0, 0, 1]\nclass = 3", fillcolor="#6dec7b"] ;
350 -> 351 ;
352 [label="tiensu_laophoi <= 0.5\ngini = 0.329\nsamples = 82\nvalue = [0, 3, 66, 12, 0, 0, 1]\nclass = 3", fillcolor="#66eb76"] ;
351 -> 352 ;
353 [label="hoibenh_khotho_ngaykhoiphat <= 0.156\ngini = 0.287\nsamples = 79\nvalue = [0, 3, 66, 9, 0, 0, 1]\nclass = 3", fillcolor="#5eea6e"] ;
352 -> 353 ;
354 [label="tiensu_cushing <= 0.5\ngini = 0.255\nsamples = 77\nvalue = [0, 3, 66, 7, 0, 0, 1]\nclass = 3", fillcolor="#58e969"] ;
353 -> 354 ;
355 [label="tiensu_teoco <= 0.5\ngini = 0.219\nsamples = 74\nvalue = [0, 1, 65, 7, 0, 0, 1]\nclass = 3", fillcolor="#54e865"] ;
354 -> 355 ;
356 [label="hoibenh_hodam <= 0.5\ngini = 0.198\nsamples = 73\nvalue = [0, 1, 65, 7, 0, 0, 0]\nclass = 3", fillcolor="#51e863"] ;
355 -> 356 ;
357 [label="khambenh_tongtrangtrungbinh <= 0.5\ngini = 0.122\nsamples = 62\nvalue = [0, 1, 58, 3, 0, 0, 0]\nclass = 3", fillcolor="#46e759"] ;
356 -> 357 ;
358 [label="caccoquan_hohap_cokeoco <= 0.5\ngini = 0.095\nsamples = 61\nvalue = [0, 1, 58, 2, 0, 0, 0]\nclass = 3", fillcolor="#43e656"] ;
357 -> 358 ;
359 [label="khambenh_tongtranggay <= 0.5\ngini = 0.065\nsamples = 60\nvalue = [0, 1, 58, 1, 0, 0, 0]\nclass = 3", fillcolor="#40e653"] ;
358 -> 359 ;
360 [label="lydovaovien_khotho <= 0.5\ngini = 0.034\nsamples = 58\nvalue = [0, 1, 57, 0, 0, 0, 0]\nclass = 3", fillcolor="#3ce550"] ;
359 -> 360 ;
361 [label="gini = 0.0\nsamples = 43\nvalue = [0, 0, 43, 0, 0, 0, 0]\nclass = 3", fillcolor="#39e54d"] ;
360 -> 361 ;
362 [label="khambenh_khotho <= 0.5\ngini = 0.124\nsamples = 15\nvalue = [0, 1, 14, 0, 0, 0, 0]\nclass = 3", fillcolor="#47e75a"] ;
360 -> 362 ;
363 [label="gini = 0.0\nsamples = 12\nvalue = [0, 0, 12, 0, 0, 0, 0]\nclass = 3", fillcolor="#39e54d"] ;
362 -> 363 ;
364 [label="khambenh_daniemhong <= 0.5\ngini = 0.444\nsamples = 3\nvalue = [0, 1, 2, 0, 0, 0, 0]\nclass = 3", fillcolor="#9cf2a6"] ;
362 -> 364 ;
365 [label="gini = 0.0\nsamples = 2\nvalue = [0, 0, 2, 0, 0, 0, 0]\nclass = 3", fillcolor="#39e54d"] ;
364 -> 365 ;
366 [label="gini = 0.0\nsamples = 1\nvalue = [0, 1, 0, 0, 0, 0, 0]\nclass = 2", fillcolor="#b7e539"] ;
364 -> 366 ;
367 [label="huyetap2_on_dinh <= 0.5\ngini = 0.5\nsamples = 2\nvalue = [0, 0, 1, 1, 0, 0, 0]\nclass = 3", fillcolor="#ffffff"] ;
359 -> 367 ;
368 [label="gini = 0.0\nsamples = 1\nvalue = [0, 0, 0, 1, 0, 0, 0]\nclass = 4", fillcolor="#39e5e2"] ;
367 -> 368 ;
369 [label="gini = 0.0\nsamples = 1\nvalue = [0, 0, 1, 0, 0, 0, 0]\nclass = 3", fillcolor="#39e54d"] ;
367 -> 369 ;
370 [label="gini = 0.0\nsamples = 1\nvalue = [0, 0, 0, 1, 0, 0, 0]\nclass = 4", fillcolor="#39e5e2"] ;
358 -> 370 ;
371 [label="gini = 0.0\nsamples = 1\nvalue = [0, 0, 0, 1, 0, 0, 0]\nclass = 4", fillcolor="#39e5e2"] ;
357 -> 371 ;
372 [label="tiensu_daithaoduong_2 <= 0.5\ngini = 0.463\nsamples = 11\nvalue = [0, 0, 7, 4, 0, 0, 0]\nclass = 3", fillcolor="#aaf4b3"] ;
356 -> 372 ;
373 [label="gini = 0.0\nsamples = 7\nvalue = [0, 0, 7, 0, 0, 0, 0]\nclass = 3", fillcolor="#39e54d"] ;
372 -> 373 ;
374 [label="gini = 0.0\nsamples = 4\nvalue = [0, 0, 0, 4, 0, 0, 0]\nclass = 4", fillcolor="#39e5e2"] ;
372 -> 374 ;
375 [label="gini = 0.0\nsamples = 1\nvalue = [0, 0, 0, 0, 0, 0, 1]\nclass = 7", fillcolor="#e53986"] ;
355 -> 375 ;
376 [label="hoibenh_met <= 0.5\ngini = 0.444\nsamples = 3\nvalue = [0, 2, 1, 0, 0, 0, 0]\nclass = 2", fillcolor="#dbf29c"] ;
354 -> 376 ;
377 [label="gini = 0.0\nsamples = 2\nvalue = [0, 2, 0, 0, 0, 0, 0]\nclass = 2", fillcolor="#b7e539"] ;
376 -> 377 ;
378 [label="gini = 0.0\nsamples = 1\nvalue = [0, 0, 1, 0, 0, 0, 0]\nclass = 3", fillcolor="#39e54d"] ;
376 -> 378 ;
379 [label="gini = 0.0\nsamples = 2\nvalue = [0, 0, 0, 2, 0, 0, 0]\nclass = 4", fillcolor="#39e5e2"] ;
353 -> 379 ;
380 [label="gini = 0.0\nsamples = 3\nvalue = [0, 0, 0, 3, 0, 0, 0]\nclass = 4", fillcolor="#39e5e2"] ;
352 -> 380 ;
381 [label="gini = 0.0\nsamples = 3\nvalue = [0, 3, 0, 0, 0, 0, 0]\nclass = 2", fillcolor="#b7e539"] ;
351 -> 381 ;
382 [label="huyetap1_on_dinh <= 0.5\ngini = 0.306\nsamples = 23\nvalue = [0, 19, 2, 1, 0, 0, 1]\nclass = 2", fillcolor="#c5ea5f"] ;
350 -> 382 ;
383 [label="khambenh_moihong <= 0.5\ngini = 0.625\nsamples = 4\nvalue = [0, 0, 2, 1, 0, 0, 1]\nclass = 3", fillcolor="#bdf6c4"] ;
382 -> 383 ;
384 [label="gini = 0.0\nsamples = 2\nvalue = [0, 0, 2, 0, 0, 0, 0]\nclass = 3", fillcolor="#39e54d"] ;
383 -> 384 ;
385 [label="mach_on_dinh <= 0.75\ngini = 0.5\nsamples = 2\nvalue = [0, 0, 0, 1, 0, 0, 1]\nclass = 4", fillcolor="#ffffff"] ;
383 -> 385 ;
386 [label="gini = 0.0\nsamples = 1\nvalue = [0, 0, 0, 0, 0, 0, 1]\nclass = 7", fillcolor="#e53986"] ;
385 -> 386 ;
387 [label="gini = 0.0\nsamples = 1\nvalue = [0, 0, 0, 1, 0, 0, 0]\nclass = 4", fillcolor="#39e5e2"] ;
385 -> 387 ;
388 [label="gini = 0.0\nsamples = 19\nvalue = [0, 19, 0, 0, 0, 0, 0]\nclass = 2", fillcolor="#b7e539"] ;
382 -> 388 ;
389 [label="lydovaovien_lomo <= 0.5\ngini = 0.227\nsamples = 303\nvalue = [0, 14, 265, 23, 0, 0, 1]\nclass = 3", fillcolor="#54e965"] ;
349 -> 389 ;
390 [label="caccoquan_hohap_phoikhongrale <= 0.5\ngini = 0.198\nsamples = 297\nvalue = [0, 12, 265, 19, 0, 0, 1]\nclass = 3", fillcolor="#50e861"] ;
389 -> 390 ;
391 [label="chieucao <= 0.851\ngini = 0.183\nsamples = 294\nvalue = [0, 12, 265, 16, 0, 0, 1]\nclass = 3", fillcolor="#4ee860"] ;
390 -> 391 ;
392 [label="chieucao <= 0.842\ngini = 0.375\nsamples = 4\nvalue = [0, 0, 1, 3, 0, 0, 0]\nclass = 4", fillcolor="#7beeec"] ;
391 -> 392 ;
393 [label="gini = 0.0\nsamples = 1\nvalue = [0, 0, 1, 0, 0, 0, 0]\nclass = 3", fillcolor="#39e54d"] ;
392 -> 393 ;
394 [label="gini = 0.0\nsamples = 3\nvalue = [0, 0, 0, 3, 0, 0, 0]\nclass = 4", fillcolor="#39e5e2"] ;
392 -> 394 ;
395 [label="khambenh_danoibong <= 0.5\ngini = 0.168\nsamples = 290\nvalue = [0, 12, 264, 13, 0, 0, 1]\nclass = 3", fillcolor="#4ce75e"] ;
391 -> 395 ;
396 [label="tiensu_nhoimaucotim <= 0.5\ngini = 0.156\nsamples = 288\nvalue = [0, 10, 264, 13, 0, 0, 1]\nclass = 3", fillcolor="#4ae75d"] ;
395 -> 396 ;
397 [label="hoibenh_thooxy <= 0.5\ngini = 0.145\nsamples = 286\nvalue = [0, 10, 264, 11, 0, 0, 1]\nclass = 3", fillcolor="#49e75b"] ;
396 -> 397 ;
398 [label="khambenh_sungphutay <= 0.5\ngini = 0.129\nsamples = 281\nvalue = [0, 10, 262, 8, 0, 0, 1]\nclass = 3", fillcolor="#47e759"] ;
397 -> 398 ;
399 [label="cannang <= 0.183\ngini = 0.117\nsamples = 278\nvalue = [0, 10, 261, 6, 0, 0, 1]\nclass = 3", fillcolor="#46e758"] ;
398 -> 399 ;
400 [label="tiensu_hensieng <= 0.5\ngini = 0.099\nsamples = 272\nvalue = [0, 8, 258, 6, 0, 0, 0]\nclass = 3", fillcolor="#44e656"] ;
399 -> 400 ;
401 [label="tiensu_xuathuyettieuhoa <= 0.5\ngini = 0.092\nsamples = 271\nvalue = [0, 8, 258, 5, 0, 0, 0]\nclass = 3", fillcolor="#43e656"] ;
400 -> 401 ;
402 [label="tiensu_tiemnguaCOVID <= 0.375\ngini = 0.086\nsamples = 270\nvalue = [0, 7, 258, 5, 0, 0, 0]\nclass = 3", fillcolor="#42e655"] ;
401 -> 402 ;
403 [label="khambenh_ho <= 0.5\ngini = 0.041\nsamples = 240\nvalue = [0, 3, 235, 2, 0, 0, 0]\nclass = 3", fillcolor="#3de651"] ;
402 -> 403 ;
404 [label="khambenh_SpO2 <= 0.787\ngini = 0.018\nsamples = 217\nvalue = [0, 0, 215, 2, 0, 0, 0]\nclass = 3", fillcolor="#3be54f"] ;
403 -> 404 ;
405 [label="gini = 0.0\nsamples = 177\nvalue = [0, 0, 177, 0, 0, 0, 0]\nclass = 3", fillcolor="#39e54d"] ;
404 -> 405 ;
406 [label="lydovaovien_khotho <= 0.5\ngini = 0.095\nsamples = 40\nvalue = [0, 0, 38, 2, 0, 0, 0]\nclass = 3", fillcolor="#43e656"] ;
404 -> 406 ;
407 [label="gini = 0.0\nsamples = 32\nvalue = [0, 0, 32, 0, 0, 0, 0]\nclass = 3", fillcolor="#39e54d"] ;
406 -> 407 ;
408 [label="bmi_on_dinh <= 0.5\ngini = 0.375\nsamples = 8\nvalue = [0, 0, 6, 2, 0, 0, 0]\nclass = 3", fillcolor="#7bee88"] ;
406 -> 408 ;
409 [label="gini = 0.0\nsamples = 5\nvalue = [0, 0, 5, 0, 0, 0, 0]\nclass = 3", fillcolor="#39e54d"] ;
408 -> 409 ;
410 [label="khambenh_khotho <= 0.5\ngini = 0.444\nsamples = 3\nvalue = [0, 0, 1, 2, 0, 0, 0]\nclass = 4", fillcolor="#9cf2f0"] ;
408 -> 410 ;
411 [label="gini = 0.0\nsamples = 1\nvalue = [0, 0, 1, 0, 0, 0, 0]\nclass = 3", fillcolor="#39e54d"] ;
410 -> 411 ;
412 [label="gini = 0.0\nsamples = 2\nvalue = [0, 0, 0, 2, 0, 0, 0]\nclass = 4", fillcolor="#39e5e2"] ;
410 -> 412 ;
413 [label="cannang <= 0.132\ngini = 0.227\nsamples = 23\nvalue = [0, 3, 20, 0, 0, 0, 0]\nclass = 3", fillcolor="#57e968"] ;
403 -> 413 ;
414 [label="gini = 0.0\nsamples = 13\nvalue = [0, 0, 13, 0, 0, 0, 0]\nclass = 3", fillcolor="#39e54d"] ;
413 -> 414 ;
415 [label="mach_on_dinh <= 0.75\ngini = 0.42\nsamples = 10\nvalue = [0, 3, 7, 0, 0, 0, 0]\nclass = 3", fillcolor="#8ef099"] ;
413 -> 415 ;
416 [label="huyetap1_on_dinh <= 0.5\ngini = 0.5\nsamples = 6\nvalue = [0, 3, 3, 0, 0, 0, 0]\nclass = 2", fillcolor="#ffffff"] ;
415 -> 416 ;
417 [label="sex <= 0.75\ngini = 0.375\nsamples = 4\nvalue = [0, 3, 1, 0, 0, 0, 0]\nclass = 2", fillcolor="#cfee7b"] ;
416 -> 417 ;
418 [label="gini = 0.0\nsamples = 2\nvalue = [0, 2, 0, 0, 0, 0, 0]\nclass = 2", fillcolor="#b7e539"] ;
417 -> 418 ;
419 [label="gini = 0.5\nsamples = 2\nvalue = [0, 1, 1, 0, 0, 0, 0]\nclass = 2", fillcolor="#ffffff"] ;
417 -> 419 ;
420 [label="gini = 0.0\nsamples = 2\nvalue = [0, 0, 2, 0, 0, 0, 0]\nclass = 3", fillcolor="#39e54d"] ;
416 -> 420 ;
421 [label="gini = 0.0\nsamples = 4\nvalue = [0, 0, 4, 0, 0, 0, 0]\nclass = 3", fillcolor="#39e54d"] ;
415 -> 421 ;
422 [label="hoibenh_lomo <= 0.5\ngini = 0.384\nsamples = 30\nvalue = [0, 4, 23, 3, 0, 0, 0]\nclass = 3", fillcolor="#6eec7d"] ;
402 -> 422 ;
423 [label="chieucao <= 0.948\ngini = 0.261\nsamples = 27\nvalue = [0, 1, 23, 3, 0, 0, 0]\nclass = 3", fillcolor="#5ae96b"] ;
422 -> 423 ;
424 [label="caccoquan_tuanhoan_T1T2ro <= 0.5\ngini = 0.15\nsamples = 25\nvalue = [0, 1, 23, 1, 0, 0, 0]\nclass = 3", fillcolor="#49e75c"] ;
423 -> 424 ;
425 [label="hoibenh_yeunuanguoi(P) <= 0.5\ngini = 0.08\nsamples = 24\nvalue = [0, 0, 23, 1, 0, 0, 0]\nclass = 3", fillcolor="#42e655"] ;
424 -> 425 ;
426 [label="gini = 0.0\nsamples = 23\nvalue = [0, 0, 23, 0, 0, 0, 0]\nclass = 3", fillcolor="#39e54d"] ;
425 -> 426 ;
427 [label="gini = 0.0\nsamples = 1\nvalue = [0, 0, 0, 1, 0, 0, 0]\nclass = 4", fillcolor="#39e5e2"] ;
425 -> 427 ;
428 [label="gini = 0.0\nsamples = 1\nvalue = [0, 1, 0, 0, 0, 0, 0]\nclass = 2", fillcolor="#b7e539"] ;
424 -> 428 ;
429 [label="gini = 0.0\nsamples = 2\nvalue = [0, 0, 0, 2, 0, 0, 0]\nclass = 4", fillcolor="#39e5e2"] ;
423 -> 429 ;
430 [label="gini = 0.0\nsamples = 3\nvalue = [0, 3, 0, 0, 0, 0, 0]\nclass = 2", fillcolor="#b7e539"] ;
422 -> 430 ;
431 [label="gini = 0.0\nsamples = 1\nvalue = [0, 1, 0, 0, 0, 0, 0]\nclass = 2", fillcolor="#b7e539"] ;
401 -> 431 ;
432 [label="gini = 0.0\nsamples = 1\nvalue = [0, 0, 0, 1, 0, 0, 0]\nclass = 4", fillcolor="#39e5e2"] ;
400 -> 432 ;
433 [label="khambenh_SpO2 <= 0.851\ngini = 0.611\nsamples = 6\nvalue = [0, 2, 3, 0, 0, 0, 1]\nclass = 3", fillcolor="#cef8d2"] ;
399 -> 433 ;
434 [label="khambenh_tongtrangbeo <= 0.5\ngini = 0.444\nsamples = 3\nvalue = [0, 2, 0, 0, 0, 0, 1]\nclass = 2", fillcolor="#dbf29c"] ;
433 -> 434 ;
435 [label="gini = 0.0\nsamples = 2\nvalue = [0, 2, 0, 0, 0, 0, 0]\nclass = 2", fillcolor="#b7e539"] ;
434 -> 435 ;
436 [label="gini = 0.0\nsamples = 1\nvalue = [0, 0, 0, 0, 0, 0, 1]\nclass = 7", fillcolor="#e53986"] ;
434 -> 436 ;
437 [label="gini = 0.0\nsamples = 3\nvalue = [0, 0, 3, 0, 0, 0, 0]\nclass = 3", fillcolor="#39e54d"] ;
433 -> 437 ;
438 [label="khambenh_SpO2 <= 0.47\ngini = 0.444\nsamples = 3\nvalue = [0, 0, 1, 2, 0, 0, 0]\nclass = 4", fillcolor="#9cf2f0"] ;
398 -> 438 ;
439 [label="gini = 0.0\nsamples = 1\nvalue = [0, 0, 1, 0, 0, 0, 0]\nclass = 3", fillcolor="#39e54d"] ;
438 -> 439 ;
440 [label="gini = 0.0\nsamples = 2\nvalue = [0, 0, 0, 2, 0, 0, 0]\nclass = 4", fillcolor="#39e5e2"] ;
438 -> 440 ;
441 [label="hoibenh_hodam <= 0.5\ngini = 0.48\nsamples = 5\nvalue = [0, 0, 2, 3, 0, 0, 0]\nclass = 4", fillcolor="#bdf6f5"] ;
397 -> 441 ;
442 [label="gini = 0.0\nsamples = 3\nvalue = [0, 0, 0, 3, 0, 0, 0]\nclass = 4", fillcolor="#39e5e2"] ;
441 -> 442 ;
443 [label="gini = 0.0\nsamples = 2\nvalue = [0, 0, 2, 0, 0, 0, 0]\nclass = 3", fillcolor="#39e54d"] ;
441 -> 443 ;
444 [label="gini = 0.0\nsamples = 2\nvalue = [0, 0, 0, 2, 0, 0, 0]\nclass = 4", fillcolor="#39e5e2"] ;
396 -> 444 ;
445 [label="gini = 0.0\nsamples = 2\nvalue = [0, 2, 0, 0, 0, 0, 0]\nclass = 2", fillcolor="#b7e539"] ;
395 -> 445 ;
446 [label="gini = 0.0\nsamples = 3\nvalue = [0, 0, 0, 3, 0, 0, 0]\nclass = 4", fillcolor="#39e5e2"] ;
390 -> 446 ;
447 [label="bmi_on_dinh <= 0.5\ngini = 0.444\nsamples = 6\nvalue = [0, 2, 0, 4, 0, 0, 0]\nclass = 4", fillcolor="#9cf2f0"] ;
389 -> 447 ;
448 [label="gini = 0.0\nsamples = 4\nvalue = [0, 0, 0, 4, 0, 0, 0]\nclass = 4", fillcolor="#39e5e2"] ;
447 -> 448 ;
449 [label="gini = 0.0\nsamples = 2\nvalue = [0, 2, 0, 0, 0, 0, 0]\nclass = 2", fillcolor="#b7e539"] ;
447 -> 449 ;
450 [label="khambenh_SpO2 <= 0.46\ngini = 0.375\nsamples = 12\nvalue = [0, 0, 3, 9, 0, 0, 0]\nclass = 4", fillcolor="#7beeec"] ;
348 -> 450 ;
451 [label="gini = 0.0\nsamples = 3\nvalue = [0, 0, 3, 0, 0, 0, 0]\nclass = 3", fillcolor="#39e54d"] ;
450 -> 451 ;
452 [label="gini = 0.0\nsamples = 9\nvalue = [0, 0, 0, 9, 0, 0, 0]\nclass = 4", fillcolor="#39e5e2"] ;
450 -> 452 ;
453 [label="age_phan_loai <= 0.929\ngini = 0.568\nsamples = 26\nvalue = [0, 0, 1, 13, 0, 1, 11]\nclass = 4", fillcolor="#e5fcfb"] ;
347 -> 453 ;
454 [label="khambenh_lomo <= 0.5\ngini = 0.18\nsamples = 10\nvalue = [0, 0, 0, 9, 0, 0, 1]\nclass = 4", fillcolor="#4fe8e5"] ;
453 -> 454 ;
455 [label="gini = 0.0\nsamples = 9\nvalue = [0, 0, 0, 9, 0, 0, 0]\nclass = 4", fillcolor="#39e5e2"] ;
454 -> 455 ;
456 [label="gini = 0.0\nsamples = 1\nvalue = [0, 0, 0, 0, 0, 0, 1]\nclass = 7", fillcolor="#e53986"] ;
454 -> 456 ;
457 [label="sex <= 0.75\ngini = 0.539\nsamples = 16\nvalue = [0, 0, 1, 4, 0, 1, 10]\nclass = 7", fillcolor="#f29cc2"] ;
453 -> 457 ;
458 [label="khambenh_nonoi <= 0.5\ngini = 0.571\nsamples = 7\nvalue = [0, 0, 1, 4, 0, 0, 2]\nclass = 4", fillcolor="#b0f5f3"] ;
457 -> 458 ;
459 [label="khambenh_cokeo <= 0.5\ngini = 0.32\nsamples = 5\nvalue = [0, 0, 1, 4, 0, 0, 0]\nclass = 4", fillcolor="#6aece9"] ;
458 -> 459 ;
460 [label="gini = 0.0\nsamples = 4\nvalue = [0, 0, 0, 4, 0, 0, 0]\nclass = 4", fillcolor="#39e5e2"] ;
459 -> 460 ;
461 [label="gini = 0.0\nsamples = 1\nvalue = [0, 0, 1, 0, 0, 0, 0]\nclass = 3", fillcolor="#39e54d"] ;
459 -> 461 ;
462 [label="gini = 0.0\nsamples = 2\nvalue = [0, 0, 0, 0, 0, 0, 2]\nclass = 7", fillcolor="#e53986"] ;
458 -> 462 ;
463 [label="tiensu_COVID(+) <= 0.5\ngini = 0.198\nsamples = 9\nvalue = [0, 0, 0, 0, 0, 1, 8]\nclass = 7", fillcolor="#e85295"] ;
457 -> 463 ;
464 [label="gini = 0.0\nsamples = 8\nvalue = [0, 0, 0, 0, 0, 0, 8]\nclass = 7", fillcolor="#e53986"] ;
463 -> 464 ;
465 [label="gini = 0.0\nsamples = 1\nvalue = [0, 0, 0, 0, 0, 1, 0]\nclass = 6", fillcolor="#b139e5"] ;
463 -> 465 ;
466 [label="hoibenh_khotho_ngaykhoiphat <= 0.041\ngini = 0.42\nsamples = 79\nvalue = [0, 0, 22, 56, 1, 0, 0]\nclass = 4", fillcolor="#89efee"] ;
346 -> 466 ;
467 [label="hoibenh_anuongkem <= 0.5\ngini = 0.201\nsamples = 63\nvalue = [0, 0, 6, 56, 1, 0, 0]\nclass = 4", fillcolor="#51e8e6"] ;
466 -> 467 ;
468 [label="khambenh_SpO2 <= 0.931\ngini = 0.099\nsamples = 58\nvalue = [0, 0, 2, 55, 1, 0, 0]\nclass = 4", fillcolor="#44e6e4"] ;
467 -> 468 ;
469 [label="lydovaovien_dauthuongvi <= 0.5\ngini = 0.035\nsamples = 56\nvalue = [0, 0, 0, 55, 1, 0, 0]\nclass = 4", fillcolor="#3de5e3"] ;
468 -> 469 ;
470 [label="gini = 0.0\nsamples = 55\nvalue = [0, 0, 0, 55, 0, 0, 0]\nclass = 4", fillcolor="#39e5e2"] ;
469 -> 470 ;
471 [label="gini = 0.0\nsamples = 1\nvalue = [0, 0, 0, 0, 1, 0, 0]\nclass = 5", fillcolor="#3956e5"] ;
469 -> 471 ;
472 [label="gini = 0.0\nsamples = 2\nvalue = [0, 0, 2, 0, 0, 0, 0]\nclass = 3", fillcolor="#39e54d"] ;
468 -> 472 ;
473 [label="sex <= 0.25\ngini = 0.32\nsamples = 5\nvalue = [0, 0, 4, 1, 0, 0, 0]\nclass = 3", fillcolor="#6aec79"] ;
467 -> 473 ;
474 [label="gini = 0.0\nsamples = 1\nvalue = [0, 0, 0, 1, 0, 0, 0]\nclass = 4", fillcolor="#39e5e2"] ;
473 -> 474 ;
475 [label="gini = 0.0\nsamples = 4\nvalue = [0, 0, 4, 0, 0, 0, 0]\nclass = 3", fillcolor="#39e54d"] ;
473 -> 475 ;
476 [label="gini = 0.0\nsamples = 16\nvalue = [0, 0, 16, 0, 0, 0, 0]\nclass = 3", fillcolor="#39e54d"] ;
466 -> 476 ;
}