digraph Tree {
node [shape=box, style="filled, rounded", color="black", fontname="helvetica"] ;
edge [fontname="helvetica"] ;
0 [label="nhiptho_on_dinh <= 0.5\ngini = 0.636\nsamples = 2062\nvalue = [52, 77, 1042, 650, 1, 161, 79]\nclass = 3", fillcolor="#c8f8ce"] ;
1 [label="chieucao <= 147.5\ngini = 0.666\nsamples = 483\nvalue = [52, 0, 216, 0, 1, 160, 54]\nclass = 3", fillcolor="#ddfae0"] ;
0 -> 1 [labeldistance=2.5, labelangle=45, headlabel="True"] ;
2 [label="khambenh_tiepxuctot <= 0.5\ngini = 0.113\nsamples = 50\nvalue = [0, 0, 0, 0, 0, 3, 47]\nclass = 7", fillcolor="#e7468e"] ;
1 -> 2 ;
3 [label="caccoquan_tuanhoan_binhthuong <= 0.5\ngini = 0.078\nsamples = 49\nvalue = [0, 0, 0, 0, 0, 2, 47]\nclass = 7", fillcolor="#e6418b"] ;
2 -> 3 ;
4 [label="chieucao <= 59.0\ngini = 0.042\nsamples = 47\nvalue = [0, 0, 0, 0, 0, 1, 46]\nclass = 7", fillcolor="#e63d89"] ;
3 -> 4 ;
5 [label="khambenh_nonoi <= 0.5\ngini = 0.444\nsamples = 3\nvalue = [0, 0, 0, 0, 0, 1, 2]\nclass = 7", fillcolor="#f29cc2"] ;
4 -> 5 ;
6 [label="gini = 0.0\nsamples = 1\nvalue = [0, 0, 0, 0, 0, 1, 0]\nclass = 6", fillcolor="#b139e5"] ;
5 -> 6 ;
7 [label="gini = 0.0\nsamples = 2\nvalue = [0, 0, 0, 0, 0, 0, 2]\nclass = 7", fillcolor="#e53986"] ;
5 -> 7 ;
8 [label="gini = 0.0\nsamples = 44\nvalue = [0, 0, 0, 0, 0, 0, 44]\nclass = 7", fillcolor="#e53986"] ;
4 -> 8 ;
9 [label="chieucao <= 97.5\ngini = 0.5\nsamples = 2\nvalue = [0, 0, 0, 0, 0, 1, 1]\nclass = 6", fillcolor="#ffffff"] ;
3 -> 9 ;
10 [label="gini = 0.0\nsamples = 1\nvalue = [0, 0, 0, 0, 0, 0, 1]\nclass = 7", fillcolor="#e53986"] ;
9 -> 10 ;
11 [label="gini = 0.0\nsamples = 1\nvalue = [0, 0, 0, 0, 0, 1, 0]\nclass = 6", fillcolor="#b139e5"] ;
9 -> 11 ;
12 [label="gini = 0.0\nsamples = 1\nvalue = [0, 0, 0, 0, 0, 1, 0]\nclass = 6", fillcolor="#b139e5"] ;
2 -> 12 ;
13 [label="caccoquan_hohap_phoiraleam <= 0.5\ngini = 0.605\nsamples = 433\nvalue = [52, 0, 216, 0, 1, 157, 7]\nclass = 3", fillcolor="#d5f9d9"] ;
1 -> 13 ;
14 [label="khambenh_tiepxuctot <= 0.5\ngini = 0.525\nsamples = 314\nvalue = [0, 0, 152, 0, 1, 154, 7]\nclass = 6", fillcolor="#fefdff"] ;
13 -> 14 ;
15 [label="cannang <= 64.0\ngini = 0.389\nsamples = 70\nvalue = [0, 0, 52, 0, 0, 17, 1]\nclass = 3", fillcolor="#7cee89"] ;
14 -> 15 ;
16 [label="chieucao <= 168.5\ngini = 0.198\nsamples = 55\nvalue = [0, 0, 49, 0, 0, 5, 1]\nclass = 3", fillcolor="#51e862"] ;
15 -> 16 ;
17 [label="lydovaovien_honme <= 0.5\ngini = 0.14\nsamples = 53\nvalue = [0, 0, 49, 0, 0, 4, 0]\nclass = 3", fillcolor="#49e75c"] ;
16 -> 17 ;
18 [label="hoibenh_sot_ngaykhoiphat <= 1.0\ngini = 0.077\nsamples = 50\nvalue = [0, 0, 48, 0, 0, 2, 0]\nclass = 3", fillcolor="#41e654"] ;
17 -> 18 ;
19 [label="gini = 0.0\nsamples = 46\nvalue = [0, 0, 46, 0, 0, 0, 0]\nclass = 3", fillcolor="#39e54d"] ;
18 -> 19 ;
20 [label="khambenh_SpO2 <= 37.0\ngini = 0.5\nsamples = 4\nvalue = [0, 0, 2, 0, 0, 2, 0]\nclass = 3", fillcolor="#ffffff"] ;
18 -> 20 ;
21 [label="caccoquan_tuanhoan_binhthuong <= 0.5\ngini = 0.444\nsamples = 3\nvalue = [0, 0, 1, 0, 0, 2, 0]\nclass = 6", fillcolor="#d89cf2"] ;
20 -> 21 ;
22 [label="gini = 0.0\nsamples = 2\nvalue = [0, 0, 0, 0, 0, 2, 0]\nclass = 6", fillcolor="#b139e5"] ;
21 -> 22 ;
23 [label="gini = 0.0\nsamples = 1\nvalue = [0, 0, 1, 0, 0, 0, 0]\nclass = 3", fillcolor="#39e54d"] ;
21 -> 23 ;
24 [label="gini = 0.0\nsamples = 1\nvalue = [0, 0, 1, 0, 0, 0, 0]\nclass = 3", fillcolor="#39e54d"] ;
20 -> 24 ;
25 [label="chieucao <= 161.0\ngini = 0.444\nsamples = 3\nvalue = [0, 0, 1, 0, 0, 2, 0]\nclass = 6", fillcolor="#d89cf2"] ;
17 -> 25 ;
26 [label="gini = 0.0\nsamples = 2\nvalue = [0, 0, 0, 0, 0, 2, 0]\nclass = 6", fillcolor="#b139e5"] ;
25 -> 26 ;
27 [label="gini = 0.0\nsamples = 1\nvalue = [0, 0, 1, 0, 0, 0, 0]\nclass = 3", fillcolor="#39e54d"] ;
25 -> 27 ;
28 [label="tiensu_khoe <= 0.5\ngini = 0.5\nsamples = 2\nvalue = [0, 0, 0, 0, 0, 1, 1]\nclass = 6", fillcolor="#ffffff"] ;
16 -> 28 ;
29 [label="gini = 0.0\nsamples = 1\nvalue = [0, 0, 0, 0, 0, 0, 1]\nclass = 7", fillcolor="#e53986"] ;
28 -> 29 ;
30 [label="gini = 0.0\nsamples = 1\nvalue = [0, 0, 0, 0, 0, 1, 0]\nclass = 6", fillcolor="#b139e5"] ;
28 -> 30 ;
31 [label="cannang <= 67.5\ngini = 0.32\nsamples = 15\nvalue = [0, 0, 3, 0, 0, 12, 0]\nclass = 6", fillcolor="#c46aec"] ;
15 -> 31 ;
32 [label="gini = 0.0\nsamples = 11\nvalue = [0, 0, 0, 0, 0, 11, 0]\nclass = 6", fillcolor="#b139e5"] ;
31 -> 32 ;
33 [label="caccoquan_tuanhoan_binhthuong <= 0.5\ngini = 0.375\nsamples = 4\nvalue = [0, 0, 3, 0, 0, 1, 0]\nclass = 3", fillcolor="#7bee88"] ;
31 -> 33 ;
34 [label="gini = 0.0\nsamples = 3\nvalue = [0, 0, 3, 0, 0, 0, 0]\nclass = 3", fillcolor="#39e54d"] ;
33 -> 34 ;
35 [label="gini = 0.0\nsamples = 1\nvalue = [0, 0, 0, 0, 0, 1, 0]\nclass = 6", fillcolor="#b139e5"] ;
33 -> 35 ;
36 [label="cannang <= 46.5\ngini = 0.516\nsamples = 244\nvalue = [0, 0, 100, 0, 1, 137, 6]\nclass = 6", fillcolor="#ebccf8"] ;
14 -> 36 ;
37 [label="gini = 0.0\nsamples = 24\nvalue = [0, 0, 0, 0, 0, 24, 0]\nclass = 6", fillcolor="#b139e5"] ;
36 -> 37 ;
38 [label="chieucao <= 157.5\ngini = 0.529\nsamples = 220\nvalue = [0, 0, 100, 0, 1, 113, 6]\nclass = 6", fillcolor="#f7eafc"] ;
36 -> 38 ;
39 [label="chieucao <= 155.5\ngini = 0.491\nsamples = 91\nvalue = [0, 0, 57, 0, 1, 31, 2]\nclass = 3", fillcolor="#a9f4b2"] ;
38 -> 39 ;
40 [label="khambenh_SpO2 <= 86.0\ngini = 0.545\nsamples = 63\nvalue = [0, 0, 29, 0, 1, 31, 2]\nclass = 6", fillcolor="#faf3fd"] ;
39 -> 40 ;
41 [label="hoibenh_khotho_ngaykhoiphat <= 0.5\ngini = 0.547\nsamples = 56\nvalue = [0, 0, 29, 0, 1, 24, 2]\nclass = 3", fillcolor="#e0fbe3"] ;
40 -> 41 ;
42 [label="hoibenh_khotho_ngaykhoiphat <= -0.5\ngini = 0.531\nsamples = 43\nvalue = [0, 0, 17, 0, 1, 24, 1]\nclass = 6", fillcolor="#eacaf8"] ;
41 -> 42 ;
43 [label="hoibenh_sot_ngaykhoiphat <= -0.5\ngini = 0.43\nsamples = 11\nvalue = [0, 0, 8, 0, 0, 2, 1]\nclass = 3", fillcolor="#7bee88"] ;
42 -> 43 ;
44 [label="gini = 0.0\nsamples = 2\nvalue = [0, 0, 0, 0, 0, 2, 0]\nclass = 6", fillcolor="#b139e5"] ;
43 -> 44 ;
45 [label="cannang <= 61.5\ngini = 0.198\nsamples = 9\nvalue = [0, 0, 8, 0, 0, 0, 1]\nclass = 3", fillcolor="#52e863"] ;
43 -> 45 ;
46 [label="gini = 0.0\nsamples = 8\nvalue = [0, 0, 8, 0, 0, 0, 0]\nclass = 3", fillcolor="#39e54d"] ;
45 -> 46 ;
47 [label="gini = 0.0\nsamples = 1\nvalue = [0, 0, 0, 0, 0, 0, 1]\nclass = 7", fillcolor="#e53986"] ;
45 -> 47 ;
48 [label="cannang <= 47.5\ngini = 0.447\nsamples = 32\nvalue = [0, 0, 9, 0, 1, 22, 0]\nclass = 6", fillcolor="#d38ff0"] ;
42 -> 48 ;
49 [label="gini = 0.0\nsamples = 3\nvalue = [0, 0, 3, 0, 0, 0, 0]\nclass = 3", fillcolor="#39e54d"] ;
48 -> 49 ;
50 [label="khambenh_yeunuanguoi(P) <= 0.5\ngini = 0.38\nsamples = 29\nvalue = [0, 0, 6, 0, 1, 22, 0]\nclass = 6", fillcolor="#c975ed"] ;
48 -> 50 ;
51 [label="lydovaovien_daunguc <= 0.5\ngini = 0.313\nsamples = 27\nvalue = [0, 0, 4, 0, 1, 22, 0]\nclass = 6", fillcolor="#c264eb"] ;
50 -> 51 ;
52 [label="hoibenh_sot_ngaykhoiphat <= 0.5\ngini = 0.269\nsamples = 26\nvalue = [0, 0, 3, 0, 1, 22, 0]\nclass = 6", fillcolor="#bf5bea"] ;
51 -> 52 ;
53 [label="hoibenh_sot_ngaykhoiphat <= -0.5\ngini = 0.1\nsamples = 19\nvalue = [0, 0, 1, 0, 0, 18, 0]\nclass = 6", fillcolor="#b544e6"] ;
52 -> 53 ;
54 [label="caccoquan_hohap_phoitho <= 0.5\ngini = 0.5\nsamples = 2\nvalue = [0, 0, 1, 0, 0, 1, 0]\nclass = 3", fillcolor="#ffffff"] ;
53 -> 54 ;
55 [label="gini = 0.0\nsamples = 1\nvalue = [0, 0, 1, 0, 0, 0, 0]\nclass = 3", fillcolor="#39e54d"] ;
54 -> 55 ;
56 [label="gini = 0.0\nsamples = 1\nvalue = [0, 0, 0, 0, 0, 1, 0]\nclass = 6", fillcolor="#b139e5"] ;
54 -> 56 ;
57 [label="gini = 0.0\nsamples = 17\nvalue = [0, 0, 0, 0, 0, 17, 0]\nclass = 6", fillcolor="#b139e5"] ;
53 -> 57 ;
58 [label="hoibenh_sot_ngaykhoiphat <= 3.5\ngini = 0.571\nsamples = 7\nvalue = [0, 0, 2, 0, 1, 4, 0]\nclass = 6", fillcolor="#e0b0f5"] ;
52 -> 58 ;
59 [label="caccoquan_tuanhoan_binhthuong <= 0.5\ngini = 0.625\nsamples = 4\nvalue = [0, 0, 2, 0, 1, 1, 0]\nclass = 3", fillcolor="#bdf6c4"] ;
58 -> 59 ;
60 [label="gini = 0.0\nsamples = 2\nvalue = [0, 0, 2, 0, 0, 0, 0]\nclass = 3", fillcolor="#39e54d"] ;
59 -> 60 ;
61 [label="caccoquan_hohap_phoitho <= 0.5\ngini = 0.5\nsamples = 2\nvalue = [0, 0, 0, 0, 1, 1, 0]\nclass = 5", fillcolor="#ffffff"] ;
59 -> 61 ;
62 [label="gini = 0.0\nsamples = 1\nvalue = [0, 0, 0, 0, 1, 0, 0]\nclass = 5", fillcolor="#3956e5"] ;
61 -> 62 ;
63 [label="gini = 0.0\nsamples = 1\nvalue = [0, 0, 0, 0, 0, 1, 0]\nclass = 6", fillcolor="#b139e5"] ;
61 -> 63 ;
64 [label="gini = 0.0\nsamples = 3\nvalue = [0, 0, 0, 0, 0, 3, 0]\nclass = 6", fillcolor="#b139e5"] ;
58 -> 64 ;
65 [label="gini = 0.0\nsamples = 1\nvalue = [0, 0, 1, 0, 0, 0, 0]\nclass = 3", fillcolor="#39e54d"] ;
51 -> 65 ;
66 [label="gini = 0.0\nsamples = 2\nvalue = [0, 0, 2, 0, 0, 0, 0]\nclass = 3", fillcolor="#39e54d"] ;
50 -> 66 ;
67 [label="cannang <= 66.0\ngini = 0.142\nsamples = 13\nvalue = [0, 0, 12, 0, 0, 0, 1]\nclass = 3", fillcolor="#49e75c"] ;
41 -> 67 ;
68 [label="gini = 0.0\nsamples = 12\nvalue = [0, 0, 12, 0, 0, 0, 0]\nclass = 3", fillcolor="#39e54d"] ;
67 -> 68 ;
69 [label="gini = 0.0\nsamples = 1\nvalue = [0, 0, 0, 0, 0, 0, 1]\nclass = 7", fillcolor="#e53986"] ;
67 -> 69 ;
70 [label="gini = 0.0\nsamples = 7\nvalue = [0, 0, 0, 0, 0, 7, 0]\nclass = 6", fillcolor="#b139e5"] ;
40 -> 70 ;
71 [label="gini = 0.0\nsamples = 28\nvalue = [0, 0, 28, 0, 0, 0, 0]\nclass = 3", fillcolor="#39e54d"] ;
39 -> 71 ;
72 [label="tiensu_khoe <= 0.5\ngini = 0.484\nsamples = 129\nvalue = [0, 0, 43, 0, 0, 82, 4]\nclass = 6", fillcolor="#dca5f3"] ;
38 -> 72 ;
73 [label="caccoquan_tuanhoan_binhthuong <= 0.5\ngini = 0.524\nsamples = 104\nvalue = [0, 0, 42, 0, 0, 58, 4]\nclass = 6", fillcolor="#ebccf8"] ;
72 -> 73 ;
74 [label="chieucao <= 162.5\ngini = 0.35\nsamples = 53\nvalue = [0, 0, 12, 0, 0, 41, 0]\nclass = 6", fillcolor="#c873ed"] ;
73 -> 74 ;
75 [label="hoibenh_khotho_ngaykhoiphat <= 0.5\ngini = 0.499\nsamples = 23\nvalue = [0, 0, 12, 0, 0, 11, 0]\nclass = 3", fillcolor="#effdf0"] ;
74 -> 75 ;
76 [label="hoibenh_sot_ngaykhoiphat <= 0.5\ngini = 0.165\nsamples = 11\nvalue = [0, 0, 1, 0, 0, 10, 0]\nclass = 6", fillcolor="#b94de8"] ;
75 -> 76 ;
77 [label="gini = 0.0\nsamples = 9\nvalue = [0, 0, 0, 0, 0, 9, 0]\nclass = 6", fillcolor="#b139e5"] ;
76 -> 77 ;
78 [label="lydovaovien_ho <= 0.5\ngini = 0.5\nsamples = 2\nvalue = [0, 0, 1, 0, 0, 1, 0]\nclass = 3", fillcolor="#ffffff"] ;
76 -> 78 ;
79 [label="gini = 0.0\nsamples = 1\nvalue = [0, 0, 1, 0, 0, 0, 0]\nclass = 3", fillcolor="#39e54d"] ;
78 -> 79 ;
80 [label="gini = 0.0\nsamples = 1\nvalue = [0, 0, 0, 0, 0, 1, 0]\nclass = 6", fillcolor="#b139e5"] ;
78 -> 80 ;
81 [label="tiensu_suythan <= 0.5\ngini = 0.153\nsamples = 12\nvalue = [0, 0, 11, 0, 0, 1, 0]\nclass = 3", fillcolor="#4be75d"] ;
75 -> 81 ;
82 [label="gini = 0.0\nsamples = 11\nvalue = [0, 0, 11, 0, 0, 0, 0]\nclass = 3", fillcolor="#39e54d"] ;
81 -> 82 ;
83 [label="gini = 0.0\nsamples = 1\nvalue = [0, 0, 0, 0, 0, 1, 0]\nclass = 6", fillcolor="#b139e5"] ;
81 -> 83 ;
84 [label="gini = 0.0\nsamples = 30\nvalue = [0, 0, 0, 0, 0, 30, 0]\nclass = 6", fillcolor="#b139e5"] ;
74 -> 84 ;
85 [label="chieucao <= 161.0\ngini = 0.537\nsamples = 51\nvalue = [0, 0, 30, 0, 0, 17, 4]\nclass = 3", fillcolor="#b3f5bb"] ;
73 -> 85 ;
86 [label="khambenh_thooxy <= 0.5\ngini = 0.539\nsamples = 16\nvalue = [0, 0, 3, 0, 0, 10, 3]\nclass = 6", fillcolor="#d594f1"] ;
85 -> 86 ;
87 [label="khambenh_SpO2 <= 84.5\ngini = 0.379\nsamples = 13\nvalue = [0, 0, 2, 0, 0, 10, 1]\nclass = 6", fillcolor="#c66fec"] ;
86 -> 87 ;
88 [label="huyetap1_on_dinh <= 0.5\ngini = 0.219\nsamples = 8\nvalue = [0, 0, 0, 0, 0, 7, 1]\nclass = 6", fillcolor="#bc55e9"] ;
87 -> 88 ;
89 [label="cannang <= 57.5\ngini = 0.5\nsamples = 2\nvalue = [0, 0, 0, 0, 0, 1, 1]\nclass = 6", fillcolor="#ffffff"] ;
88 -> 89 ;
90 [label="gini = 0.0\nsamples = 1\nvalue = [0, 0, 0, 0, 0, 1, 0]\nclass = 6", fillcolor="#b139e5"] ;
89 -> 90 ;
91 [label="gini = 0.0\nsamples = 1\nvalue = [0, 0, 0, 0, 0, 0, 1]\nclass = 7", fillcolor="#e53986"] ;
89 -> 91 ;
92 [label="gini = 0.0\nsamples = 6\nvalue = [0, 0, 0, 0, 0, 6, 0]\nclass = 6", fillcolor="#b139e5"] ;
88 -> 92 ;
93 [label="chieucao <= 159.0\ngini = 0.48\nsamples = 5\nvalue = [0, 0, 2, 0, 0, 3, 0]\nclass = 6", fillcolor="#e5bdf6"] ;
87 -> 93 ;
94 [label="gini = 0.0\nsamples = 2\nvalue = [0, 0, 0, 0, 0, 2, 0]\nclass = 6", fillcolor="#b139e5"] ;
93 -> 94 ;
95 [label="hoibenh_khotho_ngaykhoiphat <= 0.0\ngini = 0.444\nsamples = 3\nvalue = [0, 0, 2, 0, 0, 1, 0]\nclass = 3", fillcolor="#9cf2a6"] ;
93 -> 95 ;
96 [label="gini = 0.0\nsamples = 1\nvalue = [0, 0, 0, 0, 0, 1, 0]\nclass = 6", fillcolor="#b139e5"] ;
95 -> 96 ;
97 [label="gini = 0.0\nsamples = 2\nvalue = [0, 0, 2, 0, 0, 0, 0]\nclass = 3", fillcolor="#39e54d"] ;
95 -> 97 ;
98 [label="cannang <= 71.5\ngini = 0.444\nsamples = 3\nvalue = [0, 0, 1, 0, 0, 0, 2]\nclass = 7", fillcolor="#f29cc2"] ;
86 -> 98 ;
99 [label="gini = 0.0\nsamples = 1\nvalue = [0, 0, 1, 0, 0, 0, 0]\nclass = 3", fillcolor="#39e54d"] ;
98 -> 99 ;
100 [label="gini = 0.0\nsamples = 2\nvalue = [0, 0, 0, 0, 0, 0, 2]\nclass = 7", fillcolor="#e53986"] ;
98 -> 100 ;
101 [label="hoibenh_sot_ngaykhoiphat <= 2.5\ngini = 0.364\nsamples = 35\nvalue = [0, 0, 27, 0, 0, 7, 1]\nclass = 3", fillcolor="#72ec80"] ;
85 -> 101 ;
102 [label="huyetap1_on_dinh <= 0.5\ngini = 0.184\nsamples = 30\nvalue = [0, 0, 27, 0, 0, 2, 1]\nclass = 3", fillcolor="#4ee860"] ;
101 -> 102 ;
103 [label="cannang <= 62.0\ngini = 0.611\nsamples = 6\nvalue = [0, 0, 3, 0, 0, 2, 1]\nclass = 3", fillcolor="#cef8d2"] ;
102 -> 103 ;
104 [label="gini = 0.0\nsamples = 3\nvalue = [0, 0, 3, 0, 0, 0, 0]\nclass = 3", fillcolor="#39e54d"] ;
103 -> 104 ;
105 [label="chieucao <= 166.5\ngini = 0.444\nsamples = 3\nvalue = [0, 0, 0, 0, 0, 2, 1]\nclass = 6", fillcolor="#d89cf2"] ;
103 -> 105 ;
106 [label="gini = 0.0\nsamples = 1\nvalue = [0, 0, 0, 0, 0, 0, 1]\nclass = 7", fillcolor="#e53986"] ;
105 -> 106 ;
107 [label="gini = 0.0\nsamples = 2\nvalue = [0, 0, 0, 0, 0, 2, 0]\nclass = 6", fillcolor="#b139e5"] ;
105 -> 107 ;
108 [label="gini = 0.0\nsamples = 24\nvalue = [0, 0, 24, 0, 0, 0, 0]\nclass = 3", fillcolor="#39e54d"] ;
102 -> 108 ;
109 [label="gini = 0.0\nsamples = 5\nvalue = [0, 0, 0, 0, 0, 5, 0]\nclass = 6", fillcolor="#b139e5"] ;
101 -> 109 ;
110 [label="chieucao <= 167.5\ngini = 0.077\nsamples = 25\nvalue = [0, 0, 1, 0, 0, 24, 0]\nclass = 6", fillcolor="#b441e6"] ;
72 -> 110 ;
111 [label="gini = 0.0\nsamples = 24\nvalue = [0, 0, 0, 0, 0, 24, 0]\nclass = 6", fillcolor="#b139e5"] ;
110 -> 111 ;
112 [label="gini = 0.0\nsamples = 1\nvalue = [0, 0, 1, 0, 0, 0, 0]\nclass = 3", fillcolor="#39e54d"] ;
110 -> 112 ;
113 [label="khambenh_thooxy <= 0.5\ngini = 0.519\nsamples = 119\nvalue = [52, 0, 64, 0, 0, 3, 0]\nclass = 3", fillcolor="#dcfadf"] ;
13 -> 113 ;
114 [label="cannang <= 51.0\ngini = 0.444\nsamples = 88\nvalue = [24, 0, 61, 0, 0, 3, 0]\nclass = 3", fillcolor="#8df098"] ;
113 -> 114 ;
115 [label="khambenh_tiepxuctot <= 0.5\ngini = 0.58\nsamples = 32\nvalue = [14, 0, 15, 0, 0, 3, 0]\nclass = 3", fillcolor="#f4fef5"] ;
114 -> 115 ;
116 [label="lydovaovien_ho <= 0.5\ngini = 0.26\nsamples = 13\nvalue = [11, 0, 0, 0, 0, 2, 0]\nclass = 1", fillcolor="#ea985d"] ;
115 -> 116 ;
117 [label="gini = 0.0\nsamples = 11\nvalue = [11, 0, 0, 0, 0, 0, 0]\nclass = 1", fillcolor="#e58139"] ;
116 -> 117 ;
118 [label="gini = 0.0\nsamples = 2\nvalue = [0, 0, 0, 0, 0, 2, 0]\nclass = 6", fillcolor="#b139e5"] ;
116 -> 118 ;
119 [label="cannang <= 42.5\ngini = 0.349\nsamples = 19\nvalue = [3, 0, 15, 0, 0, 1, 0]\nclass = 3", fillcolor="#6aec7a"] ;
115 -> 119 ;
120 [label="chieucao <= 152.5\ngini = 0.48\nsamples = 5\nvalue = [3, 0, 2, 0, 0, 0, 0]\nclass = 1", fillcolor="#f6d5bd"] ;
119 -> 120 ;
121 [label="gini = 0.0\nsamples = 2\nvalue = [0, 0, 2, 0, 0, 0, 0]\nclass = 3", fillcolor="#39e54d"] ;
120 -> 121 ;
122 [label="gini = 0.0\nsamples = 3\nvalue = [3, 0, 0, 0, 0, 0, 0]\nclass = 1", fillcolor="#e58139"] ;
120 -> 122 ;
123 [label="huyetap1_on_dinh <= 0.5\ngini = 0.133\nsamples = 14\nvalue = [0, 0, 13, 0, 0, 1, 0]\nclass = 3", fillcolor="#48e75b"] ;
119 -> 123 ;
124 [label="gini = 0.0\nsamples = 11\nvalue = [0, 0, 11, 0, 0, 0, 0]\nclass = 3", fillcolor="#39e54d"] ;
123 -> 124 ;
125 [label="hoibenh_khotho_ngaykhoiphat <= 1.0\ngini = 0.444\nsamples = 3\nvalue = [0, 0, 2, 0, 0, 1, 0]\nclass = 3", fillcolor="#9cf2a6"] ;
123 -> 125 ;
126 [label="gini = 0.0\nsamples = 1\nvalue = [0, 0, 0, 0, 0, 1, 0]\nclass = 6", fillcolor="#b139e5"] ;
125 -> 126 ;
127 [label="gini = 0.0\nsamples = 2\nvalue = [0, 0, 2, 0, 0, 0, 0]\nclass = 3", fillcolor="#39e54d"] ;
125 -> 127 ;
128 [label="lydovaovien_ho <= 0.5\ngini = 0.293\nsamples = 56\nvalue = [10, 0, 46, 0, 0, 0, 0]\nclass = 3", fillcolor="#64eb74"] ;
114 -> 128 ;
129 [label="khambenh_nonoi <= 0.5\ngini = 0.208\nsamples = 51\nvalue = [6, 0, 45, 0, 0, 0, 0]\nclass = 3", fillcolor="#53e865"] ;
128 -> 129 ;
130 [label="hoibenh_khotho_ngaykhoiphat <= -0.5\ngini = 0.18\nsamples = 50\nvalue = [5, 0, 45, 0, 0, 0, 0]\nclass = 3", fillcolor="#4fe861"] ;
129 -> 130 ;
131 [label="chieucao <= 161.5\ngini = 0.397\nsamples = 11\nvalue = [3, 0, 8, 0, 0, 0, 0]\nclass = 3", fillcolor="#83ef90"] ;
130 -> 131 ;
132 [label="chieucao <= 157.5\ngini = 0.5\nsamples = 6\nvalue = [3, 0, 3, 0, 0, 0, 0]\nclass = 1", fillcolor="#ffffff"] ;
131 -> 132 ;
133 [label="gini = 0.0\nsamples = 2\nvalue = [0, 0, 2, 0, 0, 0, 0]\nclass = 3", fillcolor="#39e54d"] ;
132 -> 133 ;
134 [label="cannang <= 57.5\ngini = 0.375\nsamples = 4\nvalue = [3, 0, 1, 0, 0, 0, 0]\nclass = 1", fillcolor="#eeab7b"] ;
132 -> 134 ;
135 [label="gini = 0.0\nsamples = 3\nvalue = [3, 0, 0, 0, 0, 0, 0]\nclass = 1", fillcolor="#e58139"] ;
134 -> 135 ;
136 [label="gini = 0.0\nsamples = 1\nvalue = [0, 0, 1, 0, 0, 0, 0]\nclass = 3", fillcolor="#39e54d"] ;
134 -> 136 ;
137 [label="gini = 0.0\nsamples = 5\nvalue = [0, 0, 5, 0, 0, 0, 0]\nclass = 3", fillcolor="#39e54d"] ;
131 -> 137 ;
138 [label="chieucao <= 170.0\ngini = 0.097\nsamples = 39\nvalue = [2, 0, 37, 0, 0, 0, 0]\nclass = 3", fillcolor="#44e657"] ;
130 -> 138 ;
139 [label="cannang <= 67.5\ngini = 0.053\nsamples = 37\nvalue = [1, 0, 36, 0, 0, 0, 0]\nclass = 3", fillcolor="#3ee652"] ;
138 -> 139 ;
140 [label="gini = 0.0\nsamples = 30\nvalue = [0, 0, 30, 0, 0, 0, 0]\nclass = 3", fillcolor="#39e54d"] ;
139 -> 140 ;
141 [label="hoibenh_sot_ngaykhoiphat <= 0.5\ngini = 0.245\nsamples = 7\nvalue = [1, 0, 6, 0, 0, 0, 0]\nclass = 3", fillcolor="#5ae96b"] ;
139 -> 141 ;
142 [label="gini = 0.0\nsamples = 1\nvalue = [1, 0, 0, 0, 0, 0, 0]\nclass = 1", fillcolor="#e58139"] ;
141 -> 142 ;
143 [label="gini = 0.0\nsamples = 6\nvalue = [0, 0, 6, 0, 0, 0, 0]\nclass = 3", fillcolor="#39e54d"] ;
141 -> 143 ;
144 [label="huyetap1_on_dinh <= 0.5\ngini = 0.5\nsamples = 2\nvalue = [1, 0, 1, 0, 0, 0, 0]\nclass = 1", fillcolor="#ffffff"] ;
138 -> 144 ;
145 [label="gini = 0.0\nsamples = 1\nvalue = [1, 0, 0, 0, 0, 0, 0]\nclass = 1", fillcolor="#e58139"] ;
144 -> 145 ;
146 [label="gini = 0.0\nsamples = 1\nvalue = [0, 0, 1, 0, 0, 0, 0]\nclass = 3", fillcolor="#39e54d"] ;
144 -> 146 ;
147 [label="gini = 0.0\nsamples = 1\nvalue = [1, 0, 0, 0, 0, 0, 0]\nclass = 1", fillcolor="#e58139"] ;
129 -> 147 ;
148 [label="hoibenh_sot_ngaykhoiphat <= 1.0\ngini = 0.32\nsamples = 5\nvalue = [4, 0, 1, 0, 0, 0, 0]\nclass = 1", fillcolor="#eca06a"] ;
128 -> 148 ;
149 [label="gini = 0.0\nsamples = 4\nvalue = [4, 0, 0, 0, 0, 0, 0]\nclass = 1", fillcolor="#e58139"] ;
148 -> 149 ;
150 [label="gini = 0.0\nsamples = 1\nvalue = [0, 0, 1, 0, 0, 0, 0]\nclass = 3", fillcolor="#39e54d"] ;
148 -> 150 ;
151 [label="lydovaovien_ho <= 0.5\ngini = 0.175\nsamples = 31\nvalue = [28, 0, 3, 0, 0, 0, 0]\nclass = 1", fillcolor="#e88e4e"] ;
113 -> 151 ;
152 [label="cannang <= 65.0\ngini = 0.067\nsamples = 29\nvalue = [28, 0, 1, 0, 0, 0, 0]\nclass = 1", fillcolor="#e68640"] ;
151 -> 152 ;
153 [label="gini = 0.0\nsamples = 28\nvalue = [28, 0, 0, 0, 0, 0, 0]\nclass = 1", fillcolor="#e58139"] ;
152 -> 153 ;
154 [label="gini = 0.0\nsamples = 1\nvalue = [0, 0, 1, 0, 0, 0, 0]\nclass = 3", fillcolor="#39e54d"] ;
152 -> 154 ;
155 [label="gini = 0.0\nsamples = 2\nvalue = [0, 0, 2, 0, 0, 0, 0]\nclass = 3", fillcolor="#39e54d"] ;
151 -> 155 ;
156 [label="caccoquan_tuanhoan_binhthuong <= 0.5\ngini = 0.554\nsamples = 1579\nvalue = [0, 77, 826, 650, 0, 1, 25]\nclass = 3", fillcolor="#d9fadd"] ;
0 -> 156 [labeldistance=2.5, labelangle=-45, headlabel="False"] ;
157 [label="caccoquan_hohap_phoiraleam <= 0.5\ngini = 0.517\nsamples = 583\nvalue = [0, 52, 377, 138, 0, 1, 15]\nclass = 3", fillcolor="#95f19f"] ;
156 -> 157 ;
158 [label="caccoquan_hohap_phoitho <= 0.5\ngini = 0.597\nsamples = 296\nvalue = [0, 19, 146, 116, 0, 1, 14]\nclass = 3", fillcolor="#defbe1"] ;
157 -> 158 ;
159 [label="hoibenh_khotho_ngaykhoiphat <= 1.5\ngini = 0.557\nsamples = 176\nvalue = [0, 5, 58, 101, 0, 1, 11]\nclass = 4", fillcolor="#b7f6f4"] ;
158 -> 159 ;
160 [label="cannang <= 37.5\ngini = 0.528\nsamples = 150\nvalue = [0, 5, 38, 95, 0, 1, 11]\nclass = 4", fillcolor="#9af2f0"] ;
159 -> 160 ;
161 [label="hoibenh_sot_ngaykhoiphat <= -0.5\ngini = 0.526\nsamples = 19\nvalue = [0, 0, 0, 7, 0, 1, 11]\nclass = 7", fillcolor="#f6bdd7"] ;
160 -> 161 ;
162 [label="gini = 0.0\nsamples = 3\nvalue = [0, 0, 0, 3, 0, 0, 0]\nclass = 4", fillcolor="#39e5e2"] ;
161 -> 162 ;
163 [label="tiensu_khoe <= 0.5\ngini = 0.461\nsamples = 16\nvalue = [0, 0, 0, 4, 0, 1, 11]\nclass = 7", fillcolor="#f08cb8"] ;
161 -> 163 ;
164 [label="chieucao <= 121.0\ngini = 0.625\nsamples = 4\nvalue = [0, 0, 0, 2, 0, 1, 1]\nclass = 4", fillcolor="#bdf6f5"] ;
163 -> 164 ;
165 [label="gini = 0.0\nsamples = 2\nvalue = [0, 0, 0, 2, 0, 0, 0]\nclass = 4", fillcolor="#39e5e2"] ;
164 -> 165 ;
166 [label="hoibenh_sot_ngaykhoiphat <= 3.5\ngini = 0.5\nsamples = 2\nvalue = [0, 0, 0, 0, 0, 1, 1]\nclass = 6", fillcolor="#ffffff"] ;
164 -> 166 ;
167 [label="gini = 0.0\nsamples = 1\nvalue = [0, 0, 0, 0, 0, 0, 1]\nclass = 7", fillcolor="#e53986"] ;
166 -> 167 ;
168 [label="gini = 0.0\nsamples = 1\nvalue = [0, 0, 0, 0, 0, 1, 0]\nclass = 6", fillcolor="#b139e5"] ;
166 -> 168 ;
169 [label="chieucao <= 60.0\ngini = 0.278\nsamples = 12\nvalue = [0, 0, 0, 2, 0, 0, 10]\nclass = 7", fillcolor="#ea619e"] ;
163 -> 169 ;
170 [label="gini = 0.0\nsamples = 1\nvalue = [0, 0, 0, 1, 0, 0, 0]\nclass = 4", fillcolor="#39e5e2"] ;
169 -> 170 ;
171 [label="cannang <= 13.0\ngini = 0.165\nsamples = 11\nvalue = [0, 0, 0, 1, 0, 0, 10]\nclass = 7", fillcolor="#e84d92"] ;
169 -> 171 ;
172 [label="chieucao <= 79.5\ngini = 0.32\nsamples = 5\nvalue = [0, 0, 0, 1, 0, 0, 4]\nclass = 7", fillcolor="#ec6aa4"] ;
171 -> 172 ;
173 [label="gini = 0.0\nsamples = 3\nvalue = [0, 0, 0, 0, 0, 0, 3]\nclass = 7", fillcolor="#e53986"] ;
172 -> 173 ;
174 [label="khambenh_nonoi <= 0.5\ngini = 0.5\nsamples = 2\nvalue = [0, 0, 0, 1, 0, 0, 1]\nclass = 4", fillcolor="#ffffff"] ;
172 -> 174 ;
175 [label="gini = 0.0\nsamples = 1\nvalue = [0, 0, 0, 1, 0, 0, 0]\nclass = 4", fillcolor="#39e5e2"] ;
174 -> 175 ;
176 [label="gini = 0.0\nsamples = 1\nvalue = [0, 0, 0, 0, 0, 0, 1]\nclass = 7", fillcolor="#e53986"] ;
174 -> 176 ;
177 [label="gini = 0.0\nsamples = 6\nvalue = [0, 0, 0, 0, 0, 0, 6]\nclass = 7", fillcolor="#e53986"] ;
171 -> 177 ;
178 [label="khambenh_SpO2 <= 93.5\ngini = 0.463\nsamples = 131\nvalue = [0, 5, 38, 88, 0, 0, 0]\nclass = 4", fillcolor="#95f1ef"] ;
160 -> 178 ;
179 [label="khambenh_SpO2 <= 76.0\ngini = 0.432\nsamples = 124\nvalue = [0, 5, 31, 88, 0, 0, 0]\nclass = 4", fillcolor="#86efed"] ;
178 -> 179 ;
180 [label="caccoquan_hohap_phoiraleno <= 0.5\ngini = 0.518\nsamples = 90\nvalue = [0, 5, 31, 54, 0, 0, 0]\nclass = 4", fillcolor="#b2f5f4"] ;
179 -> 180 ;
181 [label="hoibenh_sot_ngaykhoiphat <= 1.5\ngini = 0.361\nsamples = 55\nvalue = [0, 0, 13, 42, 0, 0, 0]\nclass = 4", fillcolor="#76edeb"] ;
180 -> 181 ;
182 [label="chieucao <= 157.5\ngini = 0.329\nsamples = 53\nvalue = [0, 0, 11, 42, 0, 0, 0]\nclass = 4", fillcolor="#6decea"] ;
181 -> 182 ;
183 [label="chieucao <= 80.5\ngini = 0.091\nsamples = 21\nvalue = [0, 0, 1, 20, 0, 0, 0]\nclass = 4", fillcolor="#43e6e3"] ;
182 -> 183 ;
184 [label="gini = 0.0\nsamples = 1\nvalue = [0, 0, 1, 0, 0, 0, 0]\nclass = 3", fillcolor="#39e54d"] ;
183 -> 184 ;
185 [label="gini = 0.0\nsamples = 20\nvalue = [0, 0, 0, 20, 0, 0, 0]\nclass = 4", fillcolor="#39e5e2"] ;
183 -> 185 ;
186 [label="chieucao <= 168.5\ngini = 0.43\nsamples = 32\nvalue = [0, 0, 10, 22, 0, 0, 0]\nclass = 4", fillcolor="#93f1ef"] ;
182 -> 186 ;
187 [label="cannang <= 59.0\ngini = 0.499\nsamples = 19\nvalue = [0, 0, 10, 9, 0, 0, 0]\nclass = 3", fillcolor="#ebfced"] ;
186 -> 187 ;
188 [label="huyetap1_on_dinh <= 0.5\ngini = 0.278\nsamples = 12\nvalue = [0, 0, 10, 2, 0, 0, 0]\nclass = 3", fillcolor="#61ea71"] ;
187 -> 188 ;
189 [label="khambenh_tiepxuctot <= 0.5\ngini = 0.165\nsamples = 11\nvalue = [0, 0, 10, 1, 0, 0, 0]\nclass = 3", fillcolor="#4de85f"] ;
188 -> 189 ;
190 [label="cannang <= 50.0\ngini = 0.5\nsamples = 2\nvalue = [0, 0, 1, 1, 0, 0, 0]\nclass = 3", fillcolor="#ffffff"] ;
189 -> 190 ;
191 [label="gini = 0.0\nsamples = 1\nvalue = [0, 0, 1, 0, 0, 0, 0]\nclass = 3", fillcolor="#39e54d"] ;
190 -> 191 ;
192 [label="gini = 0.0\nsamples = 1\nvalue = [0, 0, 0, 1, 0, 0, 0]\nclass = 4", fillcolor="#39e5e2"] ;
190 -> 192 ;
193 [label="gini = 0.0\nsamples = 9\nvalue = [0, 0, 9, 0, 0, 0, 0]\nclass = 3", fillcolor="#39e54d"] ;
189 -> 193 ;
194 [label="gini = 0.0\nsamples = 1\nvalue = [0, 0, 0, 1, 0, 0, 0]\nclass = 4", fillcolor="#39e5e2"] ;
188 -> 194 ;
195 [label="gini = 0.0\nsamples = 7\nvalue = [0, 0, 0, 7, 0, 0, 0]\nclass = 4", fillcolor="#39e5e2"] ;
187 -> 195 ;
196 [label="gini = 0.0\nsamples = 13\nvalue = [0, 0, 0, 13, 0, 0, 0]\nclass = 4", fillcolor="#39e5e2"] ;
186 -> 196 ;
197 [label="gini = 0.0\nsamples = 2\nvalue = [0, 0, 2, 0, 0, 0, 0]\nclass = 3", fillcolor="#39e54d"] ;
181 -> 197 ;
198 [label="hoibenh_khotho_ngaykhoiphat <= 0.5\ngini = 0.598\nsamples = 35\nvalue = [0, 5, 18, 12, 0, 0, 0]\nclass = 3", fillcolor="#cbf8d1"] ;
180 -> 198 ;
199 [label="cannang <= 65.0\ngini = 0.637\nsamples = 25\nvalue = [0, 5, 9, 11, 0, 0, 0]\nclass = 4", fillcolor="#e6fcfb"] ;
198 -> 199 ;
200 [label="hoibenh_khotho_ngaykhoiphat <= -0.5\ngini = 0.58\nsamples = 21\nvalue = [0, 2, 9, 10, 0, 0, 0]\nclass = 4", fillcolor="#eefdfd"] ;
199 -> 200 ;
201 [label="khambenh_ho <= 0.5\ngini = 0.48\nsamples = 5\nvalue = [0, 2, 0, 3, 0, 0, 0]\nclass = 4", fillcolor="#bdf6f5"] ;
200 -> 201 ;
202 [label="gini = 0.0\nsamples = 2\nvalue = [0, 2, 0, 0, 0, 0, 0]\nclass = 2", fillcolor="#b7e539"] ;
201 -> 202 ;
203 [label="gini = 0.0\nsamples = 3\nvalue = [0, 0, 0, 3, 0, 0, 0]\nclass = 4", fillcolor="#39e5e2"] ;
201 -> 203 ;
204 [label="chieucao <= 164.0\ngini = 0.492\nsamples = 16\nvalue = [0, 0, 9, 7, 0, 0, 0]\nclass = 3", fillcolor="#d3f9d7"] ;
200 -> 204 ;
205 [label="tiensu_suythan <= 0.5\ngini = 0.463\nsamples = 11\nvalue = [0, 0, 4, 7, 0, 0, 0]\nclass = 4", fillcolor="#aaf4f3"] ;
204 -> 205 ;
206 [label="tiensu_mocotsong <= 0.5\ngini = 0.346\nsamples = 9\nvalue = [0, 0, 2, 7, 0, 0, 0]\nclass = 4", fillcolor="#72ecea"] ;
205 -> 206 ;
207 [label="chieucao <= 152.5\ngini = 0.219\nsamples = 8\nvalue = [0, 0, 1, 7, 0, 0, 0]\nclass = 4", fillcolor="#55e9e6"] ;
206 -> 207 ;
208 [label="cannang <= 54.0\ngini = 0.5\nsamples = 2\nvalue = [0, 0, 1, 1, 0, 0, 0]\nclass = 3", fillcolor="#ffffff"] ;
207 -> 208 ;
209 [label="gini = 0.0\nsamples = 1\nvalue = [0, 0, 1, 0, 0, 0, 0]\nclass = 3", fillcolor="#39e54d"] ;
208 -> 209 ;
210 [label="gini = 0.0\nsamples = 1\nvalue = [0, 0, 0, 1, 0, 0, 0]\nclass = 4", fillcolor="#39e5e2"] ;
208 -> 210 ;
211 [label="gini = 0.0\nsamples = 6\nvalue = [0, 0, 0, 6, 0, 0, 0]\nclass = 4", fillcolor="#39e5e2"] ;
207 -> 211 ;
212 [label="gini = 0.0\nsamples = 1\nvalue = [0, 0, 1, 0, 0, 0, 0]\nclass = 3", fillcolor="#39e54d"] ;
206 -> 212 ;
213 [label="gini = 0.0\nsamples = 2\nvalue = [0, 0, 2, 0, 0, 0, 0]\nclass = 3", fillcolor="#39e54d"] ;
205 -> 213 ;
214 [label="gini = 0.0\nsamples = 5\nvalue = [0, 0, 5, 0, 0, 0, 0]\nclass = 3", fillcolor="#39e54d"] ;
204 -> 214 ;
215 [label="cannang <= 80.0\ngini = 0.375\nsamples = 4\nvalue = [0, 3, 0, 1, 0, 0, 0]\nclass = 2", fillcolor="#cfee7b"] ;
199 -> 215 ;
216 [label="gini = 0.0\nsamples = 3\nvalue = [0, 3, 0, 0, 0, 0, 0]\nclass = 2", fillcolor="#b7e539"] ;
215 -> 216 ;
217 [label="gini = 0.0\nsamples = 1\nvalue = [0, 0, 0, 1, 0, 0, 0]\nclass = 4", fillcolor="#39e5e2"] ;
215 -> 217 ;
218 [label="cannang <= 65.0\ngini = 0.18\nsamples = 10\nvalue = [0, 0, 9, 1, 0, 0, 0]\nclass = 3", fillcolor="#4fe861"] ;
198 -> 218 ;
219 [label="gini = 0.0\nsamples = 9\nvalue = [0, 0, 9, 0, 0, 0, 0]\nclass = 3", fillcolor="#39e54d"] ;
218 -> 219 ;
220 [label="gini = 0.0\nsamples = 1\nvalue = [0, 0, 0, 1, 0, 0, 0]\nclass = 4", fillcolor="#39e5e2"] ;
218 -> 220 ;
221 [label="gini = 0.0\nsamples = 34\nvalue = [0, 0, 0, 34, 0, 0, 0]\nclass = 4", fillcolor="#39e5e2"] ;
179 -> 221 ;
222 [label="gini = 0.0\nsamples = 7\nvalue = [0, 0, 7, 0, 0, 0, 0]\nclass = 3", fillcolor="#39e54d"] ;
178 -> 222 ;
223 [label="tiensu_suytim <= 0.5\ngini = 0.355\nsamples = 26\nvalue = [0, 0, 20, 6, 0, 0, 0]\nclass = 3", fillcolor="#74ed82"] ;
159 -> 223 ;
224 [label="hoibenh_khotho_ngaykhoiphat <= 8.5\ngini = 0.278\nsamples = 24\nvalue = [0, 0, 20, 4, 0, 0, 0]\nclass = 3", fillcolor="#61ea71"] ;
223 -> 224 ;
225 [label="lydovaovien_honme <= 0.5\ngini = 0.165\nsamples = 22\nvalue = [0, 0, 20, 2, 0, 0, 0]\nclass = 3", fillcolor="#4de85f"] ;
224 -> 225 ;
226 [label="khambenh_SpO2 <= 91.0\ngini = 0.091\nsamples = 21\nvalue = [0, 0, 20, 1, 0, 0, 0]\nclass = 3", fillcolor="#43e656"] ;
225 -> 226 ;
227 [label="gini = 0.0\nsamples = 19\nvalue = [0, 0, 19, 0, 0, 0, 0]\nclass = 3", fillcolor="#39e54d"] ;
226 -> 227 ;
228 [label="cannang <= 51.5\ngini = 0.5\nsamples = 2\nvalue = [0, 0, 1, 1, 0, 0, 0]\nclass = 3", fillcolor="#ffffff"] ;
226 -> 228 ;
229 [label="gini = 0.0\nsamples = 1\nvalue = [0, 0, 1, 0, 0, 0, 0]\nclass = 3", fillcolor="#39e54d"] ;
228 -> 229 ;
230 [label="gini = 0.0\nsamples = 1\nvalue = [0, 0, 0, 1, 0, 0, 0]\nclass = 4", fillcolor="#39e5e2"] ;
228 -> 230 ;
231 [label="gini = 0.0\nsamples = 1\nvalue = [0, 0, 0, 1, 0, 0, 0]\nclass = 4", fillcolor="#39e5e2"] ;
225 -> 231 ;
232 [label="gini = 0.0\nsamples = 2\nvalue = [0, 0, 0, 2, 0, 0, 0]\nclass = 4", fillcolor="#39e5e2"] ;
224 -> 232 ;
233 [label="gini = 0.0\nsamples = 2\nvalue = [0, 0, 0, 2, 0, 0, 0]\nclass = 4", fillcolor="#39e5e2"] ;
223 -> 233 ;
234 [label="hoibenh_matkhuugiac <= 0.5\ngini = 0.432\nsamples = 120\nvalue = [0, 14, 88, 15, 0, 0, 3]\nclass = 3", fillcolor="#75ed83"] ;
158 -> 234 ;
235 [label="hoibenh_khotho_ngaykhoiphat <= 0.5\ngini = 0.339\nsamples = 110\nvalue = [0, 4, 88, 15, 0, 0, 3]\nclass = 3", fillcolor="#67eb76"] ;
234 -> 235 ;
236 [label="hoibenh_sot_ngaykhoiphat <= 1.5\ngini = 0.16\nsamples = 82\nvalue = [0, 4, 75, 0, 0, 0, 3]\nclass = 3", fillcolor="#4be75d"] ;
235 -> 236 ;
237 [label="tiensu_xuathuyettieuhoa <= 0.5\ngini = 0.096\nsamples = 79\nvalue = [0, 4, 75, 0, 0, 0, 0]\nclass = 3", fillcolor="#44e656"] ;
236 -> 237 ;
238 [label="khambenh_ho <= 0.5\ngini = 0.074\nsamples = 78\nvalue = [0, 3, 75, 0, 0, 0, 0]\nclass = 3", fillcolor="#41e654"] ;
237 -> 238 ;
239 [label="gini = 0.0\nsamples = 54\nvalue = [0, 0, 54, 0, 0, 0, 0]\nclass = 3", fillcolor="#39e54d"] ;
238 -> 239 ;
240 [label="khambenh_SpO2 <= 55.5\ngini = 0.219\nsamples = 24\nvalue = [0, 3, 21, 0, 0, 0, 0]\nclass = 3", fillcolor="#55e966"] ;
238 -> 240 ;
241 [label="gini = 0.0\nsamples = 1\nvalue = [0, 1, 0, 0, 0, 0, 0]\nclass = 2", fillcolor="#b7e539"] ;
240 -> 241 ;
242 [label="cannang <= 59.5\ngini = 0.159\nsamples = 23\nvalue = [0, 2, 21, 0, 0, 0, 0]\nclass = 3", fillcolor="#4ce75e"] ;
240 -> 242 ;
243 [label="gini = 0.0\nsamples = 14\nvalue = [0, 0, 14, 0, 0, 0, 0]\nclass = 3", fillcolor="#39e54d"] ;
242 -> 243 ;
244 [label="khambenh_SpO2 <= 88.5\ngini = 0.346\nsamples = 9\nvalue = [0, 2, 7, 0, 0, 0, 0]\nclass = 3", fillcolor="#72ec80"] ;
242 -> 244 ;
245 [label="gini = 0.408\nsamples = 7\nvalue = [0, 2, 5, 0, 0, 0, 0]\nclass = 3", fillcolor="#88ef94"] ;
244 -> 245 ;
246 [label="gini = 0.0\nsamples = 2\nvalue = [0, 0, 2, 0, 0, 0, 0]\nclass = 3", fillcolor="#39e54d"] ;
244 -> 246 ;
247 [label="gini = 0.0\nsamples = 1\nvalue = [0, 1, 0, 0, 0, 0, 0]\nclass = 2", fillcolor="#b7e539"] ;
237 -> 247 ;
248 [label="gini = 0.0\nsamples = 3\nvalue = [0, 0, 0, 0, 0, 0, 3]\nclass = 7", fillcolor="#e53986"] ;
236 -> 248 ;
249 [label="hoibenh_khotho_ngaykhoiphat <= 1.5\ngini = 0.497\nsamples = 28\nvalue = [0, 0, 13, 15, 0, 0, 0]\nclass = 4", fillcolor="#e5fcfb"] ;
235 -> 249 ;
250 [label="chieucao <= 154.0\ngini = 0.117\nsamples = 16\nvalue = [0, 0, 1, 15, 0, 0, 0]\nclass = 4", fillcolor="#46e7e4"] ;
249 -> 250 ;
251 [label="gini = 0.0\nsamples = 1\nvalue = [0, 0, 1, 0, 0, 0, 0]\nclass = 3", fillcolor="#39e54d"] ;
250 -> 251 ;
252 [label="gini = 0.0\nsamples = 15\nvalue = [0, 0, 0, 15, 0, 0, 0]\nclass = 4", fillcolor="#39e5e2"] ;
250 -> 252 ;
253 [label="gini = 0.0\nsamples = 12\nvalue = [0, 0, 12, 0, 0, 0, 0]\nclass = 3", fillcolor="#39e54d"] ;
249 -> 253 ;
254 [label="gini = 0.0\nsamples = 10\nvalue = [0, 10, 0, 0, 0, 0, 0]\nclass = 2", fillcolor="#b7e539"] ;
234 -> 254 ;
255 [label="cannang <= 54.0\ngini = 0.333\nsamples = 287\nvalue = [0, 33, 231, 22, 0, 0, 1]\nclass = 3", fillcolor="#65eb74"] ;
157 -> 255 ;
256 [label="tiensu_khoe <= 0.5\ngini = 0.621\nsamples = 77\nvalue = [0, 23, 39, 14, 0, 0, 1]\nclass = 3", fillcolor="#c4f7ca"] ;
255 -> 256 ;
257 [label="khambenh_tiepxuctot <= 0.5\ngini = 0.507\nsamples = 51\nvalue = [0, 5, 33, 13, 0, 0, 0]\nclass = 3", fillcolor="#97f1a1"] ;
256 -> 257 ;
258 [label="chieucao <= 158.5\ngini = 0.499\nsamples = 27\nvalue = [0, 0, 14, 13, 0, 0, 0]\nclass = 3", fillcolor="#f1fdf2"] ;
257 -> 258 ;
259 [label="khambenh_SpO2 <= 32.0\ngini = 0.483\nsamples = 22\nvalue = [0, 0, 9, 13, 0, 0, 0]\nclass = 4", fillcolor="#c2f7f6"] ;
258 -> 259 ;
260 [label="hoibenh_khotho_ngaykhoiphat <= 0.5\ngini = 0.401\nsamples = 18\nvalue = [0, 0, 5, 13, 0, 0, 0]\nclass = 4", fillcolor="#85efed"] ;
259 -> 260 ;
261 [label="caccoquan_hohap_phoiraleno <= 0.5\ngini = 0.245\nsamples = 14\nvalue = [0, 0, 2, 12, 0, 0, 0]\nclass = 4", fillcolor="#5ae9e7"] ;
260 -> 261 ;
262 [label="cannang <= 26.6\ngini = 0.444\nsamples = 3\nvalue = [0, 0, 2, 1, 0, 0, 0]\nclass = 3", fillcolor="#9cf2a6"] ;
261 -> 262 ;
263 [label="gini = 0.0\nsamples = 1\nvalue = [0, 0, 0, 1, 0, 0, 0]\nclass = 4", fillcolor="#39e5e2"] ;
262 -> 263 ;
264 [label="gini = 0.0\nsamples = 2\nvalue = [0, 0, 2, 0, 0, 0, 0]\nclass = 3", fillcolor="#39e54d"] ;
262 -> 264 ;
265 [label="gini = 0.0\nsamples = 11\nvalue = [0, 0, 0, 11, 0, 0, 0]\nclass = 4", fillcolor="#39e5e2"] ;
261 -> 265 ;
266 [label="cannang <= 47.0\ngini = 0.375\nsamples = 4\nvalue = [0, 0, 3, 1, 0, 0, 0]\nclass = 3", fillcolor="#7bee88"] ;
260 -> 266 ;
267 [label="gini = 0.0\nsamples = 1\nvalue = [0, 0, 0, 1, 0, 0, 0]\nclass = 4", fillcolor="#39e5e2"] ;
266 -> 267 ;
268 [label="gini = 0.0\nsamples = 3\nvalue = [0, 0, 3, 0, 0, 0, 0]\nclass = 3", fillcolor="#39e54d"] ;
266 -> 268 ;
269 [label="gini = 0.0\nsamples = 4\nvalue = [0, 0, 4, 0, 0, 0, 0]\nclass = 3", fillcolor="#39e54d"] ;
259 -> 269 ;
270 [label="gini = 0.0\nsamples = 5\nvalue = [0, 0, 5, 0, 0, 0, 0]\nclass = 3", fillcolor="#39e54d"] ;
258 -> 270 ;
271 [label="hoibenh_matkhuugiac <= 0.5\ngini = 0.33\nsamples = 24\nvalue = [0, 5, 19, 0, 0, 0, 0]\nclass = 3", fillcolor="#6dec7c"] ;
257 -> 271 ;
272 [label="chieucao <= 159.0\ngini = 0.172\nsamples = 21\nvalue = [0, 2, 19, 0, 0, 0, 0]\nclass = 3", fillcolor="#4ee860"] ;
271 -> 272 ;
273 [label="hoibenh_khotho_ngaykhoiphat <= 0.5\ngini = 0.095\nsamples = 20\nvalue = [0, 1, 19, 0, 0, 0, 0]\nclass = 3", fillcolor="#43e656"] ;
272 -> 273 ;
274 [label="gini = 0.0\nsamples = 10\nvalue = [0, 0, 10, 0, 0, 0, 0]\nclass = 3", fillcolor="#39e54d"] ;
273 -> 274 ;
275 [label="hoibenh_khotho_ngaykhoiphat <= 1.5\ngini = 0.18\nsamples = 10\nvalue = [0, 1, 9, 0, 0, 0, 0]\nclass = 3", fillcolor="#4fe861"] ;
273 -> 275 ;
276 [label="hoibenh_tinhtao <= 0.5\ngini = 0.32\nsamples = 5\nvalue = [0, 1, 4, 0, 0, 0, 0]\nclass = 3", fillcolor="#6aec79"] ;
275 -> 276 ;
277 [label="huyetap1_on_dinh <= 0.5\ngini = 0.5\nsamples = 2\nvalue = [0, 1, 1, 0, 0, 0, 0]\nclass = 2", fillcolor="#ffffff"] ;
276 -> 277 ;
278 [label="gini = 0.0\nsamples = 1\nvalue = [0, 1, 0, 0, 0, 0, 0]\nclass = 2", fillcolor="#b7e539"] ;
277 -> 278 ;
279 [label="gini = 0.0\nsamples = 1\nvalue = [0, 0, 1, 0, 0, 0, 0]\nclass = 3", fillcolor="#39e54d"] ;
277 -> 279 ;
280 [label="gini = 0.0\nsamples = 3\nvalue = [0, 0, 3, 0, 0, 0, 0]\nclass = 3", fillcolor="#39e54d"] ;
276 -> 280 ;
281 [label="gini = 0.0\nsamples = 5\nvalue = [0, 0, 5, 0, 0, 0, 0]\nclass = 3", fillcolor="#39e54d"] ;
275 -> 281 ;
282 [label="gini = 0.0\nsamples = 1\nvalue = [0, 1, 0, 0, 0, 0, 0]\nclass = 2", fillcolor="#b7e539"] ;
272 -> 282 ;
283 [label="gini = 0.0\nsamples = 3\nvalue = [0, 3, 0, 0, 0, 0, 0]\nclass = 2", fillcolor="#b7e539"] ;
271 -> 283 ;
284 [label="huyetap1_on_dinh <= 0.5\ngini = 0.464\nsamples = 26\nvalue = [0, 18, 6, 1, 0, 0, 1]\nclass = 2", fillcolor="#d4ef88"] ;
256 -> 284 ;
285 [label="chieucao <= 112.5\ngini = 0.406\nsamples = 8\nvalue = [0, 0, 6, 1, 0, 0, 1]\nclass = 3", fillcolor="#72ec80"] ;
284 -> 285 ;
286 [label="lydovaovien_ho <= 0.5\ngini = 0.5\nsamples = 2\nvalue = [0, 0, 0, 1, 0, 0, 1]\nclass = 4", fillcolor="#ffffff"] ;
285 -> 286 ;
287 [label="gini = 0.0\nsamples = 1\nvalue = [0, 0, 0, 1, 0, 0, 0]\nclass = 4", fillcolor="#39e5e2"] ;
286 -> 287 ;
288 [label="gini = 0.0\nsamples = 1\nvalue = [0, 0, 0, 0, 0, 0, 1]\nclass = 7", fillcolor="#e53986"] ;
286 -> 288 ;
289 [label="gini = 0.0\nsamples = 6\nvalue = [0, 0, 6, 0, 0, 0, 0]\nclass = 3", fillcolor="#39e54d"] ;
285 -> 289 ;
290 [label="gini = 0.0\nsamples = 18\nvalue = [0, 18, 0, 0, 0, 0, 0]\nclass = 2", fillcolor="#b7e539"] ;
284 -> 290 ;
291 [label="caccoquan_hohap_phoitho <= 0.5\ngini = 0.16\nsamples = 210\nvalue = [0, 10, 192, 8, 0, 0, 0]\nclass = 3", fillcolor="#4be75d"] ;
255 -> 291 ;
292 [label="khambenh_sungphutay <= 0.5\ngini = 0.13\nsamples = 203\nvalue = [0, 10, 189, 4, 0, 0, 0]\nclass = 3", fillcolor="#47e75a"] ;
291 -> 292 ;
293 [label="chieucao <= 168.5\ngini = 0.114\nsamples = 200\nvalue = [0, 10, 188, 2, 0, 0, 0]\nclass = 3", fillcolor="#46e758"] ;
292 -> 293 ;
294 [label="khambenh_SpO2 <= 30.0\ngini = 0.098\nsamples = 195\nvalue = [0, 8, 185, 2, 0, 0, 0]\nclass = 3", fillcolor="#44e657"] ;
293 -> 294 ;
295 [label="chieucao <= 164.5\ngini = 0.052\nsamples = 150\nvalue = [0, 4, 146, 0, 0, 0, 0]\nclass = 3", fillcolor="#3ee652"] ;
294 -> 295 ;
296 [label="huyetap1_on_dinh <= 0.5\ngini = 0.031\nsamples = 126\nvalue = [0, 2, 124, 0, 0, 0, 0]\nclass = 3", fillcolor="#3ce550"] ;
295 -> 296 ;
297 [label="gini = 0.0\nsamples = 89\nvalue = [0, 0, 89, 0, 0, 0, 0]\nclass = 3", fillcolor="#39e54d"] ;
296 -> 297 ;
298 [label="hoibenh_khotho_ngaykhoiphat <= 1.0\ngini = 0.102\nsamples = 37\nvalue = [0, 2, 35, 0, 0, 0, 0]\nclass = 3", fillcolor="#44e657"] ;
296 -> 298 ;
299 [label="gini = 0.0\nsamples = 24\nvalue = [0, 0, 24, 0, 0, 0, 0]\nclass = 3", fillcolor="#39e54d"] ;
298 -> 299 ;
300 [label="hoibenh_khotho_ngaykhoiphat <= 2.5\ngini = 0.26\nsamples = 13\nvalue = [0, 2, 11, 0, 0, 0, 0]\nclass = 3", fillcolor="#5dea6d"] ;
298 -> 300 ;
301 [label="gini = 0.0\nsamples = 2\nvalue = [0, 2, 0, 0, 0, 0, 0]\nclass = 2", fillcolor="#b7e539"] ;
300 -> 301 ;
302 [label="gini = 0.0\nsamples = 11\nvalue = [0, 0, 11, 0, 0, 0, 0]\nclass = 3", fillcolor="#39e54d"] ;
300 -> 302 ;
303 [label="cannang <= 61.0\ngini = 0.153\nsamples = 24\nvalue = [0, 2, 22, 0, 0, 0, 0]\nclass = 3", fillcolor="#4be75d"] ;
295 -> 303 ;
304 [label="cannang <= 59.0\ngini = 0.375\nsamples = 8\nvalue = [0, 2, 6, 0, 0, 0, 0]\nclass = 3", fillcolor="#7bee88"] ;
303 -> 304 ;
305 [label="gini = 0.0\nsamples = 5\nvalue = [0, 0, 5, 0, 0, 0, 0]\nclass = 3", fillcolor="#39e54d"] ;
304 -> 305 ;
306 [label="huyetap1_on_dinh <= 0.5\ngini = 0.444\nsamples = 3\nvalue = [0, 2, 1, 0, 0, 0, 0]\nclass = 2", fillcolor="#dbf29c"] ;
304 -> 306 ;
307 [label="gini = 0.0\nsamples = 2\nvalue = [0, 2, 0, 0, 0, 0, 0]\nclass = 2", fillcolor="#b7e539"] ;
306 -> 307 ;
308 [label="gini = 0.0\nsamples = 1\nvalue = [0, 0, 1, 0, 0, 0, 0]\nclass = 3", fillcolor="#39e54d"] ;
306 -> 308 ;
309 [label="gini = 0.0\nsamples = 16\nvalue = [0, 0, 16, 0, 0, 0, 0]\nclass = 3", fillcolor="#39e54d"] ;
303 -> 309 ;
310 [label="hoibenh_sot_ngaykhoiphat <= -0.5\ngini = 0.239\nsamples = 45\nvalue = [0, 4, 39, 2, 0, 0, 0]\nclass = 3", fillcolor="#56e967"] ;
294 -> 310 ;
311 [label="gini = 0.444\nsamples = 3\nvalue = [0, 2, 1, 0, 0, 0, 0]\nclass = 2", fillcolor="#dbf29c"] ;
310 -> 311 ;
312 [label="khambenh_SpO2 <= 63.5\ngini = 0.177\nsamples = 42\nvalue = [0, 2, 38, 2, 0, 0, 0]\nclass = 3", fillcolor="#4de85f"] ;
310 -> 312 ;
313 [label="gini = 0.0\nsamples = 1\nvalue = [0, 0, 0, 1, 0, 0, 0]\nclass = 4", fillcolor="#39e5e2"] ;
312 -> 313 ;
314 [label="khambenh_SpO2 <= 75.5\ngini = 0.138\nsamples = 41\nvalue = [0, 2, 38, 1, 0, 0, 0]\nclass = 3", fillcolor="#48e75b"] ;
312 -> 314 ;
315 [label="cannang <= 59.0\ngini = 0.444\nsamples = 6\nvalue = [0, 2, 4, 0, 0, 0, 0]\nclass = 3", fillcolor="#9cf2a6"] ;
314 -> 315 ;
316 [label="gini = 0.0\nsamples = 4\nvalue = [0, 0, 4, 0, 0, 0, 0]\nclass = 3", fillcolor="#39e54d"] ;
315 -> 316 ;
317 [label="gini = 0.0\nsamples = 2\nvalue = [0, 2, 0, 0, 0, 0, 0]\nclass = 2", fillcolor="#b7e539"] ;
315 -> 317 ;
318 [label="chieucao <= 158.5\ngini = 0.056\nsamples = 35\nvalue = [0, 0, 34, 1, 0, 0, 0]\nclass = 3", fillcolor="#3fe652"] ;
314 -> 318 ;
319 [label="gini = 0.0\nsamples = 28\nvalue = [0, 0, 28, 0, 0, 0, 0]\nclass = 3", fillcolor="#39e54d"] ;
318 -> 319 ;
320 [label="hoibenh_khotho_ngaykhoiphat <= 6.5\ngini = 0.245\nsamples = 7\nvalue = [0, 0, 6, 1, 0, 0, 0]\nclass = 3", fillcolor="#5ae96b"] ;
318 -> 320 ;
321 [label="gini = 0.0\nsamples = 6\nvalue = [0, 0, 6, 0, 0, 0, 0]\nclass = 3", fillcolor="#39e54d"] ;
320 -> 321 ;
322 [label="gini = 0.0\nsamples = 1\nvalue = [0, 0, 0, 1, 0, 0, 0]\nclass = 4", fillcolor="#39e5e2"] ;
320 -> 322 ;
323 [label="caccoquan_hohap_phoiraleno <= 0.5\ngini = 0.48\nsamples = 5\nvalue = [0, 2, 3, 0, 0, 0, 0]\nclass = 3", fillcolor="#bdf6c4"] ;
293 -> 323 ;
324 [label="gini = 0.0\nsamples = 2\nvalue = [0, 2, 0, 0, 0, 0, 0]\nclass = 2", fillcolor="#b7e539"] ;
323 -> 324 ;
325 [label="gini = 0.0\nsamples = 3\nvalue = [0, 0, 3, 0, 0, 0, 0]\nclass = 3", fillcolor="#39e54d"] ;
323 -> 325 ;
326 [label="hoibenh_khotho_ngaykhoiphat <= 2.5\ngini = 0.444\nsamples = 3\nvalue = [0, 0, 1, 2, 0, 0, 0]\nclass = 4", fillcolor="#9cf2f0"] ;
292 -> 326 ;
327 [label="gini = 0.0\nsamples = 1\nvalue = [0, 0, 1, 0, 0, 0, 0]\nclass = 3", fillcolor="#39e54d"] ;
326 -> 327 ;
328 [label="gini = 0.0\nsamples = 2\nvalue = [0, 0, 0, 2, 0, 0, 0]\nclass = 4", fillcolor="#39e5e2"] ;
326 -> 328 ;
329 [label="lydovaovien_daunguc <= 0.5\ngini = 0.49\nsamples = 7\nvalue = [0, 0, 3, 4, 0, 0, 0]\nclass = 4", fillcolor="#cef8f8"] ;
291 -> 329 ;
330 [label="gini = 0.0\nsamples = 4\nvalue = [0, 0, 0, 4, 0, 0, 0]\nclass = 4", fillcolor="#39e5e2"] ;
329 -> 330 ;
331 [label="gini = 0.0\nsamples = 3\nvalue = [0, 0, 3, 0, 0, 0, 0]\nclass = 3", fillcolor="#39e54d"] ;
329 -> 331 ;
332 [label="khambenh_tiepxuctot <= 0.5\ngini = 0.532\nsamples = 996\nvalue = [0, 25, 449, 512, 0, 0, 10]\nclass = 4", fillcolor="#e8fcfc"] ;
156 -> 332 ;
333 [label="huyetap1_on_dinh <= 0.5\ngini = 0.432\nsamples = 269\nvalue = [0, 3, 188, 76, 0, 0, 2]\nclass = 3", fillcolor="#8cf098"] ;
332 -> 333 ;
334 [label="cannang <= 39.5\ngini = 0.365\nsamples = 221\nvalue = [0, 3, 170, 46, 0, 0, 2]\nclass = 3", fillcolor="#73ed81"] ;
333 -> 334 ;
335 [label="khambenh_nonoi <= 0.5\ngini = 0.32\nsamples = 10\nvalue = [0, 0, 0, 8, 0, 0, 2]\nclass = 4", fillcolor="#6aece9"] ;
334 -> 335 ;
336 [label="chieucao <= 126.0\ngini = 0.198\nsamples = 9\nvalue = [0, 0, 0, 8, 0, 0, 1]\nclass = 4", fillcolor="#52e8e6"] ;
335 -> 336 ;
337 [label="tiensu_khoe <= 0.5\ngini = 0.375\nsamples = 4\nvalue = [0, 0, 0, 3, 0, 0, 1]\nclass = 4", fillcolor="#7beeec"] ;
336 -> 337 ;
338 [label="gini = 0.0\nsamples = 1\nvalue = [0, 0, 0, 0, 0, 0, 1]\nclass = 7", fillcolor="#e53986"] ;
337 -> 338 ;
339 [label="gini = 0.0\nsamples = 3\nvalue = [0, 0, 0, 3, 0, 0, 0]\nclass = 4", fillcolor="#39e5e2"] ;
337 -> 339 ;
340 [label="gini = 0.0\nsamples = 5\nvalue = [0, 0, 0, 5, 0, 0, 0]\nclass = 4", fillcolor="#39e5e2"] ;
336 -> 340 ;
341 [label="gini = 0.0\nsamples = 1\nvalue = [0, 0, 0, 0, 0, 0, 1]\nclass = 7", fillcolor="#e53986"] ;
335 -> 341 ;
342 [label="caccoquan_hohap_phoiraleno <= 0.5\ngini = 0.318\nsamples = 211\nvalue = [0, 3, 170, 38, 0, 0, 0]\nclass = 3", fillcolor="#68eb77"] ;
334 -> 342 ;
343 [label="chieucao <= 159.0\ngini = 0.27\nsamples = 197\nvalue = [0, 3, 166, 28, 0, 0, 0]\nclass = 3", fillcolor="#5dea6e"] ;
342 -> 343 ;
344 [label="tiensu_khoe <= 0.5\ngini = 0.407\nsamples = 88\nvalue = [0, 0, 63, 25, 0, 0, 0]\nclass = 3", fillcolor="#88ef94"] ;
343 -> 344 ;
345 [label="cannang <= 52.0\ngini = 0.356\nsamples = 82\nvalue = [0, 0, 63, 19, 0, 0, 0]\nclass = 3", fillcolor="#75ed83"] ;
344 -> 345 ;
346 [label="cannang <= 48.5\ngini = 0.156\nsamples = 47\nvalue = [0, 0, 43, 4, 0, 0, 0]\nclass = 3", fillcolor="#4be75e"] ;
345 -> 346 ;
347 [label="cannang <= 47.5\ngini = 0.444\nsamples = 12\nvalue = [0, 0, 8, 4, 0, 0, 0]\nclass = 3", fillcolor="#9cf2a6"] ;
346 -> 347 ;
348 [label="gini = 0.0\nsamples = 8\nvalue = [0, 0, 8, 0, 0, 0, 0]\nclass = 3", fillcolor="#39e54d"] ;
347 -> 348 ;
349 [label="gini = 0.0\nsamples = 4\nvalue = [0, 0, 0, 4, 0, 0, 0]\nclass = 4", fillcolor="#39e5e2"] ;
347 -> 349 ;
350 [label="gini = 0.0\nsamples = 35\nvalue = [0, 0, 35, 0, 0, 0, 0]\nclass = 3", fillcolor="#39e54d"] ;
346 -> 350 ;
351 [label="hoibenh_khotho_ngaykhoiphat <= -0.5\ngini = 0.49\nsamples = 35\nvalue = [0, 0, 20, 15, 0, 0, 0]\nclass = 3", fillcolor="#cef8d2"] ;
345 -> 351 ;
352 [label="chieucao <= 154.5\ngini = 0.165\nsamples = 11\nvalue = [0, 0, 10, 1, 0, 0, 0]\nclass = 3", fillcolor="#4de85f"] ;
351 -> 352 ;
353 [label="lydovaovien_ho <= 0.5\ngini = 0.5\nsamples = 2\nvalue = [0, 0, 1, 1, 0, 0, 0]\nclass = 3", fillcolor="#ffffff"] ;
352 -> 353 ;
354 [label="gini = 0.0\nsamples = 1\nvalue = [0, 0, 0, 1, 0, 0, 0]\nclass = 4", fillcolor="#39e5e2"] ;
353 -> 354 ;
355 [label="gini = 0.0\nsamples = 1\nvalue = [0, 0, 1, 0, 0, 0, 0]\nclass = 3", fillcolor="#39e54d"] ;
353 -> 355 ;
356 [label="gini = 0.0\nsamples = 9\nvalue = [0, 0, 9, 0, 0, 0, 0]\nclass = 3", fillcolor="#39e54d"] ;
352 -> 356 ;
357 [label="cannang <= 66.5\ngini = 0.486\nsamples = 24\nvalue = [0, 0, 10, 14, 0, 0, 0]\nclass = 4", fillcolor="#c6f8f7"] ;
351 -> 357 ;
358 [label="cannang <= 62.5\ngini = 0.444\nsamples = 21\nvalue = [0, 0, 7, 14, 0, 0, 0]\nclass = 4", fillcolor="#9cf2f0"] ;
357 -> 358 ;
359 [label="chieucao <= 153.5\ngini = 0.492\nsamples = 16\nvalue = [0, 0, 7, 9, 0, 0, 0]\nclass = 4", fillcolor="#d3f9f9"] ;
358 -> 359 ;
360 [label="cannang <= 57.5\ngini = 0.219\nsamples = 8\nvalue = [0, 0, 1, 7, 0, 0, 0]\nclass = 4", fillcolor="#55e9e6"] ;
359 -> 360 ;
361 [label="gini = 0.0\nsamples = 6\nvalue = [0, 0, 0, 6, 0, 0, 0]\nclass = 4", fillcolor="#39e5e2"] ;
360 -> 361 ;
362 [label="hoibenh_sot_ngaykhoiphat <= -0.5\ngini = 0.5\nsamples = 2\nvalue = [0, 0, 1, 1, 0, 0, 0]\nclass = 3", fillcolor="#ffffff"] ;
360 -> 362 ;
363 [label="gini = 0.0\nsamples = 1\nvalue = [0, 0, 0, 1, 0, 0, 0]\nclass = 4", fillcolor="#39e5e2"] ;
362 -> 363 ;
364 [label="gini = 0.0\nsamples = 1\nvalue = [0, 0, 1, 0, 0, 0, 0]\nclass = 3", fillcolor="#39e54d"] ;
362 -> 364 ;
365 [label="hoibenh_khotho_ngaykhoiphat <= 0.5\ngini = 0.375\nsamples = 8\nvalue = [0, 0, 6, 2, 0, 0, 0]\nclass = 3", fillcolor="#7bee88"] ;
359 -> 365 ;
366 [label="chieucao <= 154.5\ngini = 0.5\nsamples = 4\nvalue = [0, 0, 2, 2, 0, 0, 0]\nclass = 3", fillcolor="#ffffff"] ;
365 -> 366 ;
367 [label="gini = 0.0\nsamples = 1\nvalue = [0, 0, 1, 0, 0, 0, 0]\nclass = 3", fillcolor="#39e54d"] ;
366 -> 367 ;
368 [label="cannang <= 57.5\ngini = 0.444\nsamples = 3\nvalue = [0, 0, 1, 2, 0, 0, 0]\nclass = 4", fillcolor="#9cf2f0"] ;
366 -> 368 ;
369 [label="gini = 0.0\nsamples = 1\nvalue = [0, 0, 0, 1, 0, 0, 0]\nclass = 4", fillcolor="#39e5e2"] ;
368 -> 369 ;
370 [label="chieucao <= 155.5\ngini = 0.5\nsamples = 2\nvalue = [0, 0, 1, 1, 0, 0, 0]\nclass = 3", fillcolor="#ffffff"] ;
368 -> 370 ;
371 [label="gini = 0.0\nsamples = 1\nvalue = [0, 0, 0, 1, 0, 0, 0]\nclass = 4", fillcolor="#39e5e2"] ;
370 -> 371 ;
372 [label="gini = 0.0\nsamples = 1\nvalue = [0, 0, 1, 0, 0, 0, 0]\nclass = 3", fillcolor="#39e54d"] ;
370 -> 372 ;
373 [label="gini = 0.0\nsamples = 4\nvalue = [0, 0, 4, 0, 0, 0, 0]\nclass = 3", fillcolor="#39e54d"] ;
365 -> 373 ;
374 [label="gini = 0.0\nsamples = 5\nvalue = [0, 0, 0, 5, 0, 0, 0]\nclass = 4", fillcolor="#39e5e2"] ;
358 -> 374 ;
375 [label="gini = 0.0\nsamples = 3\nvalue = [0, 0, 3, 0, 0, 0, 0]\nclass = 3", fillcolor="#39e54d"] ;
357 -> 375 ;
376 [label="gini = 0.0\nsamples = 6\nvalue = [0, 0, 0, 6, 0, 0, 0]\nclass = 4", fillcolor="#39e5e2"] ;
344 -> 376 ;
377 [label="hoibenh_khotho_ngaykhoiphat <= 6.0\ngini = 0.106\nsamples = 109\nvalue = [0, 3, 103, 3, 0, 0, 0]\nclass = 3", fillcolor="#44e657"] ;
343 -> 377 ;
378 [label="lydovaovien_honme <= 0.5\ngini = 0.055\nsamples = 106\nvalue = [0, 0, 103, 3, 0, 0, 0]\nclass = 3", fillcolor="#3fe652"] ;
377 -> 378 ;
379 [label="tiensu_laophoi <= 0.5\ngini = 0.037\nsamples = 105\nvalue = [0, 0, 103, 2, 0, 0, 0]\nclass = 3", fillcolor="#3de650"] ;
378 -> 379 ;
380 [label="cannang <= 57.5\ngini = 0.019\nsamples = 104\nvalue = [0, 0, 103, 1, 0, 0, 0]\nclass = 3", fillcolor="#3be54f"] ;
379 -> 380 ;
381 [label="cannang <= 53.0\ngini = 0.062\nsamples = 31\nvalue = [0, 0, 30, 1, 0, 0, 0]\nclass = 3", fillcolor="#40e653"] ;
380 -> 381 ;
382 [label="gini = 0.0\nsamples = 29\nvalue = [0, 0, 29, 0, 0, 0, 0]\nclass = 3", fillcolor="#39e54d"] ;
381 -> 382 ;
383 [label="chieucao <= 167.5\ngini = 0.5\nsamples = 2\nvalue = [0, 0, 1, 1, 0, 0, 0]\nclass = 3", fillcolor="#ffffff"] ;
381 -> 383 ;
384 [label="gini = 0.0\nsamples = 1\nvalue = [0, 0, 0, 1, 0, 0, 0]\nclass = 4", fillcolor="#39e5e2"] ;
383 -> 384 ;
385 [label="gini = 0.0\nsamples = 1\nvalue = [0, 0, 1, 0, 0, 0, 0]\nclass = 3", fillcolor="#39e54d"] ;
383 -> 385 ;
386 [label="gini = 0.0\nsamples = 73\nvalue = [0, 0, 73, 0, 0, 0, 0]\nclass = 3", fillcolor="#39e54d"] ;
380 -> 386 ;
387 [label="gini = 0.0\nsamples = 1\nvalue = [0, 0, 0, 1, 0, 0, 0]\nclass = 4", fillcolor="#39e5e2"] ;
379 -> 387 ;
388 [label="gini = 0.0\nsamples = 1\nvalue = [0, 0, 0, 1, 0, 0, 0]\nclass = 4", fillcolor="#39e5e2"] ;
378 -> 388 ;
389 [label="gini = 0.0\nsamples = 3\nvalue = [0, 3, 0, 0, 0, 0, 0]\nclass = 2", fillcolor="#b7e539"] ;
377 -> 389 ;
390 [label="khambenh_SpO2 <= 56.0\ngini = 0.408\nsamples = 14\nvalue = [0, 0, 4, 10, 0, 0, 0]\nclass = 4", fillcolor="#88efee"] ;
342 -> 390 ;
391 [label="gini = 0.0\nsamples = 10\nvalue = [0, 0, 0, 10, 0, 0, 0]\nclass = 4", fillcolor="#39e5e2"] ;
390 -> 391 ;
392 [label="gini = 0.0\nsamples = 4\nvalue = [0, 0, 4, 0, 0, 0, 0]\nclass = 3", fillcolor="#39e54d"] ;
390 -> 392 ;
393 [label="tiensu_khoe <= 0.5\ngini = 0.469\nsamples = 48\nvalue = [0, 0, 18, 30, 0, 0, 0]\nclass = 4", fillcolor="#b0f5f3"] ;
333 -> 393 ;
394 [label="chieucao <= 159.0\ngini = 0.485\nsamples = 29\nvalue = [0, 0, 17, 12, 0, 0, 0]\nclass = 3", fillcolor="#c5f7cb"] ;
393 -> 394 ;
395 [label="hoibenh_khotho_ngaykhoiphat <= -0.5\ngini = 0.153\nsamples = 12\nvalue = [0, 0, 11, 1, 0, 0, 0]\nclass = 3", fillcolor="#4be75d"] ;
394 -> 395 ;
396 [label="gini = 0.0\nsamples = 1\nvalue = [0, 0, 0, 1, 0, 0, 0]\nclass = 4", fillcolor="#39e5e2"] ;
395 -> 396 ;
397 [label="gini = 0.0\nsamples = 11\nvalue = [0, 0, 11, 0, 0, 0, 0]\nclass = 3", fillcolor="#39e54d"] ;
395 -> 397 ;
398 [label="hoibenh_khotho_ngaykhoiphat <= -0.5\ngini = 0.457\nsamples = 17\nvalue = [0, 0, 6, 11, 0, 0, 0]\nclass = 4", fillcolor="#a5f3f2"] ;
394 -> 398 ;
399 [label="gini = 0.0\nsamples = 4\nvalue = [0, 0, 4, 0, 0, 0, 0]\nclass = 3", fillcolor="#39e54d"] ;
398 -> 399 ;
400 [label="lydovaovien_ho <= 0.5\ngini = 0.26\nsamples = 13\nvalue = [0, 0, 2, 11, 0, 0, 0]\nclass = 4", fillcolor="#5deae7"] ;
398 -> 400 ;
401 [label="cannang <= 64.0\ngini = 0.153\nsamples = 12\nvalue = [0, 0, 1, 11, 0, 0, 0]\nclass = 4", fillcolor="#4be7e5"] ;
400 -> 401 ;
402 [label="gini = 0.0\nsamples = 11\nvalue = [0, 0, 0, 11, 0, 0, 0]\nclass = 4", fillcolor="#39e5e2"] ;
401 -> 402 ;
403 [label="gini = 0.0\nsamples = 1\nvalue = [0, 0, 1, 0, 0, 0, 0]\nclass = 3", fillcolor="#39e54d"] ;
401 -> 403 ;
404 [label="gini = 0.0\nsamples = 1\nvalue = [0, 0, 1, 0, 0, 0, 0]\nclass = 3", fillcolor="#39e54d"] ;
400 -> 404 ;
405 [label="hoibenh_khotho_ngaykhoiphat <= -0.5\ngini = 0.1\nsamples = 19\nvalue = [0, 0, 1, 18, 0, 0, 0]\nclass = 4", fillcolor="#44e6e4"] ;
393 -> 405 ;
406 [label="cannang <= 50.0\ngini = 0.32\nsamples = 5\nvalue = [0, 0, 1, 4, 0, 0, 0]\nclass = 4", fillcolor="#6aece9"] ;
405 -> 406 ;
407 [label="gini = 0.0\nsamples = 1\nvalue = [0, 0, 1, 0, 0, 0, 0]\nclass = 3", fillcolor="#39e54d"] ;
406 -> 407 ;
408 [label="gini = 0.0\nsamples = 4\nvalue = [0, 0, 0, 4, 0, 0, 0]\nclass = 4", fillcolor="#39e5e2"] ;
406 -> 408 ;
409 [label="gini = 0.0\nsamples = 14\nvalue = [0, 0, 0, 14, 0, 0, 0]\nclass = 4", fillcolor="#39e5e2"] ;
405 -> 409 ;
410 [label="lydovaovien_ho <= 0.5\ngini = 0.51\nsamples = 727\nvalue = [0, 22, 261, 436, 0, 0, 8]\nclass = 4", fillcolor="#b5f5f4"] ;
332 -> 410 ;
411 [label="khambenh_thooxy <= 0.5\ngini = 0.475\nsamples = 672\nvalue = [0, 4, 232, 428, 0, 0, 8]\nclass = 4", fillcolor="#a7f3f2"] ;
410 -> 411 ;
412 [label="khambenh_SpO2 <= 77.0\ngini = 0.451\nsamples = 601\nvalue = [0, 4, 187, 404, 0, 0, 6]\nclass = 4", fillcolor="#97f1f0"] ;
411 -> 412 ;
413 [label="tiensu_khoe <= 0.5\ngini = 0.485\nsamples = 457\nvalue = [0, 1, 174, 278, 0, 0, 4]\nclass = 4", fillcolor="#b6f5f4"] ;
412 -> 413 ;
414 [label="caccoquan_hohap_phoiraleno <= 0.5\ngini = 0.509\nsamples = 336\nvalue = [0, 0, 153, 179, 0, 0, 4]\nclass = 4", fillcolor="#e3fbfb"] ;
413 -> 414 ;
415 [label="hoibenh_khotho_ngaykhoiphat <= -0.5\ngini = 0.513\nsamples = 291\nvalue = [0, 0, 149, 138, 0, 0, 4]\nclass = 3", fillcolor="#f1fdf2"] ;
414 -> 415 ;
416 [label="chieucao <= 161.0\ngini = 0.388\nsamples = 76\nvalue = [0, 0, 56, 20, 0, 0, 0]\nclass = 3", fillcolor="#80ee8d"] ;
415 -> 416 ;
417 [label="tiensu_laophoi <= 0.5\ngini = 0.238\nsamples = 58\nvalue = [0, 0, 50, 8, 0, 0, 0]\nclass = 3", fillcolor="#59e969"] ;
416 -> 417 ;
418 [label="chieucao <= 151.5\ngini = 0.137\nsamples = 54\nvalue = [0, 0, 50, 4, 0, 0, 0]\nclass = 3", fillcolor="#49e75b"] ;
417 -> 418 ;
419 [label="gini = 0.0\nsamples = 3\nvalue = [0, 0, 0, 3, 0, 0, 0]\nclass = 4", fillcolor="#39e5e2"] ;
418 -> 419 ;
420 [label="tiensu_suytim <= 0.5\ngini = 0.038\nsamples = 51\nvalue = [0, 0, 50, 1, 0, 0, 0]\nclass = 3", fillcolor="#3de651"] ;
418 -> 420 ;
421 [label="gini = 0.0\nsamples = 50\nvalue = [0, 0, 50, 0, 0, 0, 0]\nclass = 3", fillcolor="#39e54d"] ;
420 -> 421 ;
422 [label="gini = 0.0\nsamples = 1\nvalue = [0, 0, 0, 1, 0, 0, 0]\nclass = 4", fillcolor="#39e5e2"] ;
420 -> 422 ;
423 [label="gini = 0.0\nsamples = 4\nvalue = [0, 0, 0, 4, 0, 0, 0]\nclass = 4", fillcolor="#39e5e2"] ;
417 -> 423 ;
424 [label="huyetap1_on_dinh <= 0.5\ngini = 0.444\nsamples = 18\nvalue = [0, 0, 6, 12, 0, 0, 0]\nclass = 4", fillcolor="#9cf2f0"] ;
416 -> 424 ;
425 [label="cannang <= 62.5\ngini = 0.375\nsamples = 8\nvalue = [0, 0, 6, 2, 0, 0, 0]\nclass = 3", fillcolor="#7bee88"] ;
424 -> 425 ;
426 [label="gini = 0.0\nsamples = 6\nvalue = [0, 0, 6, 0, 0, 0, 0]\nclass = 3", fillcolor="#39e54d"] ;
425 -> 426 ;
427 [label="gini = 0.0\nsamples = 2\nvalue = [0, 0, 0, 2, 0, 0, 0]\nclass = 4", fillcolor="#39e5e2"] ;
425 -> 427 ;
428 [label="gini = 0.0\nsamples = 10\nvalue = [0, 0, 0, 10, 0, 0, 0]\nclass = 4", fillcolor="#39e5e2"] ;
424 -> 428 ;
429 [label="cannang <= 49.0\ngini = 0.511\nsamples = 215\nvalue = [0, 0, 93, 118, 0, 0, 4]\nclass = 4", fillcolor="#d6faf9"] ;
415 -> 429 ;
430 [label="cannang <= 43.5\ngini = 0.448\nsamples = 56\nvalue = [0, 0, 37, 19, 0, 0, 0]\nclass = 3", fillcolor="#9ff2a8"] ;
429 -> 430 ;
431 [label="hoibenh_sot_ngaykhoiphat <= 0.5\ngini = 0.375\nsamples = 12\nvalue = [0, 0, 3, 9, 0, 0, 0]\nclass = 4", fillcolor="#7beeec"] ;
430 -> 431 ;
432 [label="huyetap1_on_dinh <= 0.5\ngini = 0.18\nsamples = 10\nvalue = [0, 0, 1, 9, 0, 0, 0]\nclass = 4", fillcolor="#4fe8e5"] ;
431 -> 432 ;
433 [label="gini = 0.0\nsamples = 9\nvalue = [0, 0, 0, 9, 0, 0, 0]\nclass = 4", fillcolor="#39e5e2"] ;
432 -> 433 ;
434 [label="gini = 0.0\nsamples = 1\nvalue = [0, 0, 1, 0, 0, 0, 0]\nclass = 3", fillcolor="#39e54d"] ;
432 -> 434 ;
435 [label="gini = 0.0\nsamples = 2\nvalue = [0, 0, 2, 0, 0, 0, 0]\nclass = 3", fillcolor="#39e54d"] ;
431 -> 435 ;
436 [label="hoibenh_sot_ngaykhoiphat <= 0.5\ngini = 0.351\nsamples = 44\nvalue = [0, 0, 34, 10, 0, 0, 0]\nclass = 3", fillcolor="#73ed81"] ;
430 -> 436 ;
437 [label="chieucao <= 151.0\ngini = 0.229\nsamples = 38\nvalue = [0, 0, 33, 5, 0, 0, 0]\nclass = 3", fillcolor="#57e968"] ;
436 -> 437 ;
438 [label="gini = 0.0\nsamples = 3\nvalue = [0, 0, 0, 3, 0, 0, 0]\nclass = 4", fillcolor="#39e5e2"] ;
437 -> 438 ;
439 [label="hoibenh_khotho_ngaykhoiphat <= 1.0\ngini = 0.108\nsamples = 35\nvalue = [0, 0, 33, 2, 0, 0, 0]\nclass = 3", fillcolor="#45e758"] ;
437 -> 439 ;
440 [label="huyetap1_on_dinh <= 0.5\ngini = 0.18\nsamples = 20\nvalue = [0, 0, 18, 2, 0, 0, 0]\nclass = 3", fillcolor="#4fe861"] ;
439 -> 440 ;
441 [label="cannang <= 45.5\ngini = 0.48\nsamples = 5\nvalue = [0, 0, 3, 2, 0, 0, 0]\nclass = 3", fillcolor="#bdf6c4"] ;
440 -> 441 ;
442 [label="gini = 0.0\nsamples = 2\nvalue = [0, 0, 0, 2, 0, 0, 0]\nclass = 4", fillcolor="#39e5e2"] ;
441 -> 442 ;
443 [label="gini = 0.0\nsamples = 3\nvalue = [0, 0, 3, 0, 0, 0, 0]\nclass = 3", fillcolor="#39e54d"] ;
441 -> 443 ;
444 [label="gini = 0.0\nsamples = 15\nvalue = [0, 0, 15, 0, 0, 0, 0]\nclass = 3", fillcolor="#39e54d"] ;
440 -> 444 ;
445 [label="gini = 0.0\nsamples = 15\nvalue = [0, 0, 15, 0, 0, 0, 0]\nclass = 3", fillcolor="#39e54d"] ;
439 -> 445 ;
446 [label="cannang <= 47.5\ngini = 0.278\nsamples = 6\nvalue = [0, 0, 1, 5, 0, 0, 0]\nclass = 4", fillcolor="#61eae8"] ;
436 -> 446 ;
447 [label="gini = 0.0\nsamples = 5\nvalue = [0, 0, 0, 5, 0, 0, 0]\nclass = 4", fillcolor="#39e5e2"] ;
446 -> 447 ;
448 [label="gini = 0.0\nsamples = 1\nvalue = [0, 0, 1, 0, 0, 0, 0]\nclass = 3", fillcolor="#39e54d"] ;
446 -> 448 ;
449 [label="khambenh_SpO2 <= 19.5\ngini = 0.488\nsamples = 159\nvalue = [0, 0, 56, 99, 0, 0, 4]\nclass = 4", fillcolor="#acf4f3"] ;
429 -> 449 ;
450 [label="tiensu_suytim <= 0.5\ngini = 0.432\nsamples = 141\nvalue = [0, 0, 41, 98, 0, 0, 2]\nclass = 4", fillcolor="#8ef0ee"] ;
449 -> 450 ;
451 [label="chieucao <= 156.0\ngini = 0.395\nsamples = 133\nvalue = [0, 0, 33, 98, 0, 0, 2]\nclass = 4", fillcolor="#7eeeec"] ;
450 -> 451 ;
452 [label="khambenh_yeunuanguoi(P) <= 0.5\ngini = 0.078\nsamples = 49\nvalue = [0, 0, 2, 47, 0, 0, 0]\nclass = 4", fillcolor="#41e6e3"] ;
451 -> 452 ;
453 [label="hoibenh_sot_ngaykhoiphat <= 3.5\ngini = 0.041\nsamples = 48\nvalue = [0, 0, 1, 47, 0, 0, 0]\nclass = 4", fillcolor="#3de6e3"] ;
452 -> 453 ;
454 [label="gini = 0.0\nsamples = 41\nvalue = [0, 0, 0, 41, 0, 0, 0]\nclass = 4", fillcolor="#39e5e2"] ;
453 -> 454 ;
455 [label="huyetap1_on_dinh <= 0.5\ngini = 0.245\nsamples = 7\nvalue = [0, 0, 1, 6, 0, 0, 0]\nclass = 4", fillcolor="#5ae9e7"] ;
453 -> 455 ;
456 [label="gini = 0.0\nsamples = 1\nvalue = [0, 0, 1, 0, 0, 0, 0]\nclass = 3", fillcolor="#39e54d"] ;
455 -> 456 ;
457 [label="gini = 0.0\nsamples = 6\nvalue = [0, 0, 0, 6, 0, 0, 0]\nclass = 4", fillcolor="#39e5e2"] ;
455 -> 457 ;
458 [label="gini = 0.0\nsamples = 1\nvalue = [0, 0, 1, 0, 0, 0, 0]\nclass = 3", fillcolor="#39e54d"] ;
452 -> 458 ;
459 [label="hoibenh_khotho_ngaykhoiphat <= 0.5\ngini = 0.495\nsamples = 84\nvalue = [0, 0, 31, 51, 0, 0, 2]\nclass = 4", fillcolor="#b4f5f4"] ;
451 -> 459 ;
460 [label="huyetap1_on_dinh <= 0.5\ngini = 0.512\nsamples = 47\nvalue = [0, 0, 26, 20, 0, 0, 1]\nclass = 3", fillcolor="#d3f9d7"] ;
459 -> 460 ;
461 [label="cannang <= 64.5\ngini = 0.436\nsamples = 27\nvalue = [0, 0, 7, 19, 0, 0, 1]\nclass = 4", fillcolor="#88efee"] ;
460 -> 461 ;
462 [label="hoibenh_daumansuon(P) <= 0.5\ngini = 0.287\nsamples = 23\nvalue = [0, 0, 4, 19, 0, 0, 0]\nclass = 4", fillcolor="#63eae8"] ;
461 -> 462 ;
463 [label="tiensu_suythan <= 0.5\ngini = 0.236\nsamples = 22\nvalue = [0, 0, 3, 19, 0, 0, 0]\nclass = 4", fillcolor="#58e9e7"] ;
462 -> 463 ;
464 [label="hoibenh_daulung <= 0.5\ngini = 0.172\nsamples = 21\nvalue = [0, 0, 2, 19, 0, 0, 0]\nclass = 4", fillcolor="#4ee8e5"] ;
463 -> 464 ;
465 [label="hoibenh_sot_ngaykhoiphat <= 1.0\ngini = 0.095\nsamples = 20\nvalue = [0, 0, 1, 19, 0, 0, 0]\nclass = 4", fillcolor="#43e6e4"] ;
464 -> 465 ;
466 [label="cannang <= 55.5\ngini = 0.18\nsamples = 10\nvalue = [0, 0, 1, 9, 0, 0, 0]\nclass = 4", fillcolor="#4fe8e5"] ;
465 -> 466 ;
467 [label="hoibenh_dautay <= 0.5\ngini = 0.444\nsamples = 3\nvalue = [0, 0, 1, 2, 0, 0, 0]\nclass = 4", fillcolor="#9cf2f0"] ;
466 -> 467 ;
468 [label="gini = 0.5\nsamples = 2\nvalue = [0, 0, 1, 1, 0, 0, 0]\nclass = 3", fillcolor="#ffffff"] ;
467 -> 468 ;
469 [label="gini = 0.0\nsamples = 1\nvalue = [0, 0, 0, 1, 0, 0, 0]\nclass = 4", fillcolor="#39e5e2"] ;
467 -> 469 ;
470 [label="gini = 0.0\nsamples = 7\nvalue = [0, 0, 0, 7, 0, 0, 0]\nclass = 4", fillcolor="#39e5e2"] ;
466 -> 470 ;
471 [label="gini = 0.0\nsamples = 10\nvalue = [0, 0, 0, 10, 0, 0, 0]\nclass = 4", fillcolor="#39e5e2"] ;
465 -> 471 ;
472 [label="gini = 0.0\nsamples = 1\nvalue = [0, 0, 1, 0, 0, 0, 0]\nclass = 3", fillcolor="#39e54d"] ;
464 -> 472 ;
473 [label="gini = 0.0\nsamples = 1\nvalue = [0, 0, 1, 0, 0, 0, 0]\nclass = 3", fillcolor="#39e54d"] ;
463 -> 473 ;
474 [label="gini = 0.0\nsamples = 1\nvalue = [0, 0, 1, 0, 0, 0, 0]\nclass = 3", fillcolor="#39e54d"] ;
462 -> 474 ;
475 [label="chieucao <= 164.0\ngini = 0.375\nsamples = 4\nvalue = [0, 0, 3, 0, 0, 0, 1]\nclass = 3", fillcolor="#7bee88"] ;
461 -> 475 ;
476 [label="gini = 0.0\nsamples = 1\nvalue = [0, 0, 0, 0, 0, 0, 1]\nclass = 7", fillcolor="#e53986"] ;
475 -> 476 ;
477 [label="gini = 0.0\nsamples = 3\nvalue = [0, 0, 3, 0, 0, 0, 0]\nclass = 3", fillcolor="#39e54d"] ;
475 -> 477 ;
478 [label="lydovaovien_daunguc <= 0.5\ngini = 0.095\nsamples = 20\nvalue = [0, 0, 19, 1, 0, 0, 0]\nclass = 3", fillcolor="#43e656"] ;
460 -> 478 ;
479 [label="gini = 0.0\nsamples = 19\nvalue = [0, 0, 19, 0, 0, 0, 0]\nclass = 3", fillcolor="#39e54d"] ;
478 -> 479 ;
480 [label="gini = 0.0\nsamples = 1\nvalue = [0, 0, 0, 1, 0, 0, 0]\nclass = 4", fillcolor="#39e5e2"] ;
478 -> 480 ;
481 [label="hoibenh_khotho_ngaykhoiphat <= 5.5\ngini = 0.279\nsamples = 37\nvalue = [0, 0, 5, 31, 0, 0, 1]\nclass = 4", fillcolor="#5eeae7"] ;
459 -> 481 ;
482 [label="cannang <= 62.5\ngini = 0.207\nsamples = 35\nvalue = [0, 0, 3, 31, 0, 0, 1]\nclass = 4", fillcolor="#52e8e6"] ;
481 -> 482 ;
483 [label="tiensu_suythan <= 0.5\ngini = 0.164\nsamples = 34\nvalue = [0, 0, 2, 31, 0, 0, 1]\nclass = 4", fillcolor="#4ce7e5"] ;
482 -> 483 ;
484 [label="cannang <= 59.0\ngini = 0.116\nsamples = 33\nvalue = [0, 0, 1, 31, 0, 0, 1]\nclass = 4", fillcolor="#45e7e4"] ;
483 -> 484 ;
485 [label="hoibenh_sot_ngaykhoiphat <= 1.0\ngini = 0.062\nsamples = 31\nvalue = [0, 0, 1, 30, 0, 0, 0]\nclass = 4", fillcolor="#40e6e3"] ;
484 -> 485 ;
486 [label="gini = 0.0\nsamples = 29\nvalue = [0, 0, 0, 29, 0, 0, 0]\nclass = 4", fillcolor="#39e5e2"] ;
485 -> 486 ;
487 [label="chieucao <= 161.5\ngini = 0.5\nsamples = 2\nvalue = [0, 0, 1, 1, 0, 0, 0]\nclass = 3", fillcolor="#ffffff"] ;
485 -> 487 ;
488 [label="gini = 0.0\nsamples = 1\nvalue = [0, 0, 1, 0, 0, 0, 0]\nclass = 3", fillcolor="#39e54d"] ;
487 -> 488 ;
489 [label="gini = 0.0\nsamples = 1\nvalue = [0, 0, 0, 1, 0, 0, 0]\nclass = 4", fillcolor="#39e5e2"] ;
487 -> 489 ;
490 [label="hoibenh_khotho_ngaykhoiphat <= 2.0\ngini = 0.5\nsamples = 2\nvalue = [0, 0, 0, 1, 0, 0, 1]\nclass = 4", fillcolor="#ffffff"] ;
484 -> 490 ;
491 [label="gini = 0.0\nsamples = 1\nvalue = [0, 0, 0, 0, 0, 0, 1]\nclass = 7", fillcolor="#e53986"] ;
490 -> 491 ;
492 [label="gini = 0.0\nsamples = 1\nvalue = [0, 0, 0, 1, 0, 0, 0]\nclass = 4", fillcolor="#39e5e2"] ;
490 -> 492 ;
493 [label="gini = 0.0\nsamples = 1\nvalue = [0, 0, 1, 0, 0, 0, 0]\nclass = 3", fillcolor="#39e54d"] ;
483 -> 493 ;
494 [label="gini = 0.0\nsamples = 1\nvalue = [0, 0, 1, 0, 0, 0, 0]\nclass = 3", fillcolor="#39e54d"] ;
482 -> 494 ;
495 [label="gini = 0.0\nsamples = 2\nvalue = [0, 0, 2, 0, 0, 0, 0]\nclass = 3", fillcolor="#39e54d"] ;
481 -> 495 ;
496 [label="gini = 0.0\nsamples = 8\nvalue = [0, 0, 8, 0, 0, 0, 0]\nclass = 3", fillcolor="#39e54d"] ;
450 -> 496 ;
497 [label="tiensu_suytim <= 0.5\ngini = 0.29\nsamples = 18\nvalue = [0, 0, 15, 1, 0, 0, 2]\nclass = 3", fillcolor="#5eea6e"] ;
449 -> 497 ;
498 [label="khambenh_SpO2 <= 66.0\ngini = 0.208\nsamples = 17\nvalue = [0, 0, 15, 0, 0, 0, 2]\nclass = 3", fillcolor="#53e865"] ;
497 -> 498 ;
499 [label="gini = 0.0\nsamples = 12\nvalue = [0, 0, 12, 0, 0, 0, 0]\nclass = 3", fillcolor="#39e54d"] ;
498 -> 499 ;
500 [label="khambenh_SpO2 <= 68.5\ngini = 0.48\nsamples = 5\nvalue = [0, 0, 3, 0, 0, 0, 2]\nclass = 3", fillcolor="#bdf6c4"] ;
498 -> 500 ;
501 [label="gini = 0.0\nsamples = 2\nvalue = [0, 0, 0, 0, 0, 0, 2]\nclass = 7", fillcolor="#e53986"] ;
500 -> 501 ;
502 [label="gini = 0.0\nsamples = 3\nvalue = [0, 0, 3, 0, 0, 0, 0]\nclass = 3", fillcolor="#39e54d"] ;
500 -> 502 ;
503 [label="gini = 0.0\nsamples = 1\nvalue = [0, 0, 0, 1, 0, 0, 0]\nclass = 4", fillcolor="#39e5e2"] ;
497 -> 503 ;
504 [label="cannang <= 58.5\ngini = 0.162\nsamples = 45\nvalue = [0, 0, 4, 41, 0, 0, 0]\nclass = 4", fillcolor="#4ce8e5"] ;
414 -> 504 ;
505 [label="gini = 0.0\nsamples = 38\nvalue = [0, 0, 0, 38, 0, 0, 0]\nclass = 4", fillcolor="#39e5e2"] ;
504 -> 505 ;
506 [label="hoibenh_khotho_ngaykhoiphat <= 1.5\ngini = 0.49\nsamples = 7\nvalue = [0, 0, 4, 3, 0, 0, 0]\nclass = 3", fillcolor="#cef8d2"] ;
504 -> 506 ;
507 [label="gini = 0.0\nsamples = 4\nvalue = [0, 0, 4, 0, 0, 0, 0]\nclass = 3", fillcolor="#39e54d"] ;
506 -> 507 ;
508 [label="gini = 0.0\nsamples = 3\nvalue = [0, 0, 0, 3, 0, 0, 0]\nclass = 4", fillcolor="#39e5e2"] ;
506 -> 508 ;
509 [label="khambenh_SpO2 <= 35.5\ngini = 0.3\nsamples = 121\nvalue = [0, 1, 21, 99, 0, 0, 0]\nclass = 4", fillcolor="#65ebe8"] ;
413 -> 509 ;
510 [label="cannang <= 57.5\ngini = 0.242\nsamples = 115\nvalue = [0, 1, 15, 99, 0, 0, 0]\nclass = 4", fillcolor="#59e9e7"] ;
509 -> 510 ;
511 [label="hoibenh_khotho_ngaykhoiphat <= -0.5\ngini = 0.14\nsamples = 80\nvalue = [0, 1, 5, 74, 0, 0, 0]\nclass = 4", fillcolor="#49e7e4"] ;
510 -> 511 ;
512 [label="gini = 0.0\nsamples = 35\nvalue = [0, 0, 0, 35, 0, 0, 0]\nclass = 4", fillcolor="#39e5e2"] ;
511 -> 512 ;
513 [label="cannang <= 43.5\ngini = 0.236\nsamples = 45\nvalue = [0, 1, 5, 39, 0, 0, 0]\nclass = 4", fillcolor="#57e9e6"] ;
511 -> 513 ;
514 [label="hoibenh_khotho_ngaykhoiphat <= 0.5\ngini = 0.5\nsamples = 2\nvalue = [0, 1, 0, 1, 0, 0, 0]\nclass = 2", fillcolor="#ffffff"] ;
513 -> 514 ;
515 [label="gini = 0.0\nsamples = 1\nvalue = [0, 1, 0, 0, 0, 0, 0]\nclass = 2", fillcolor="#b7e539"] ;
514 -> 515 ;
516 [label="gini = 0.0\nsamples = 1\nvalue = [0, 0, 0, 1, 0, 0, 0]\nclass = 4", fillcolor="#39e5e2"] ;
514 -> 516 ;
517 [label="chieucao <= 166.0\ngini = 0.206\nsamples = 43\nvalue = [0, 0, 5, 38, 0, 0, 0]\nclass = 4", fillcolor="#53e8e6"] ;
513 -> 517 ;
518 [label="chieucao <= 161.5\ngini = 0.176\nsamples = 41\nvalue = [0, 0, 4, 37, 0, 0, 0]\nclass = 4", fillcolor="#4ee8e5"] ;
517 -> 518 ;
519 [label="chieucao <= 152.5\ngini = 0.238\nsamples = 29\nvalue = [0, 0, 4, 25, 0, 0, 0]\nclass = 4", fillcolor="#59e9e7"] ;
518 -> 519 ;
520 [label="gini = 0.0\nsamples = 11\nvalue = [0, 0, 0, 11, 0, 0, 0]\nclass = 4", fillcolor="#39e5e2"] ;
519 -> 520 ;
521 [label="huyetap1_on_dinh <= 0.5\ngini = 0.346\nsamples = 18\nvalue = [0, 0, 4, 14, 0, 0, 0]\nclass = 4", fillcolor="#72ecea"] ;
519 -> 521 ;
522 [label="chieucao <= 157.5\ngini = 0.165\nsamples = 11\nvalue = [0, 0, 1, 10, 0, 0, 0]\nclass = 4", fillcolor="#4de8e5"] ;
521 -> 522 ;
523 [label="cannang <= 50.0\ngini = 0.5\nsamples = 2\nvalue = [0, 0, 1, 1, 0, 0, 0]\nclass = 3", fillcolor="#ffffff"] ;
522 -> 523 ;
524 [label="gini = 0.0\nsamples = 1\nvalue = [0, 0, 0, 1, 0, 0, 0]\nclass = 4", fillcolor="#39e5e2"] ;
523 -> 524 ;
525 [label="gini = 0.0\nsamples = 1\nvalue = [0, 0, 1, 0, 0, 0, 0]\nclass = 3", fillcolor="#39e54d"] ;
523 -> 525 ;
526 [label="gini = 0.0\nsamples = 9\nvalue = [0, 0, 0, 9, 0, 0, 0]\nclass = 4", fillcolor="#39e5e2"] ;
522 -> 526 ;
527 [label="cannang <= 47.5\ngini = 0.49\nsamples = 7\nvalue = [0, 0, 3, 4, 0, 0, 0]\nclass = 4", fillcolor="#cef8f8"] ;
521 -> 527 ;
528 [label="gini = 0.0\nsamples = 4\nvalue = [0, 0, 0, 4, 0, 0, 0]\nclass = 4", fillcolor="#39e5e2"] ;
527 -> 528 ;
529 [label="gini = 0.0\nsamples = 3\nvalue = [0, 0, 3, 0, 0, 0, 0]\nclass = 3", fillcolor="#39e54d"] ;
527 -> 529 ;
530 [label="gini = 0.0\nsamples = 12\nvalue = [0, 0, 0, 12, 0, 0, 0]\nclass = 4", fillcolor="#39e5e2"] ;
518 -> 530 ;
531 [label="chieucao <= 168.5\ngini = 0.5\nsamples = 2\nvalue = [0, 0, 1, 1, 0, 0, 0]\nclass = 3", fillcolor="#ffffff"] ;
517 -> 531 ;
532 [label="gini = 0.0\nsamples = 1\nvalue = [0, 0, 1, 0, 0, 0, 0]\nclass = 3", fillcolor="#39e54d"] ;
531 -> 532 ;
533 [label="gini = 0.0\nsamples = 1\nvalue = [0, 0, 0, 1, 0, 0, 0]\nclass = 4", fillcolor="#39e5e2"] ;
531 -> 533 ;
534 [label="cannang <= 59.0\ngini = 0.408\nsamples = 35\nvalue = [0, 0, 10, 25, 0, 0, 0]\nclass = 4", fillcolor="#88efee"] ;
510 -> 534 ;
535 [label="gini = 0.0\nsamples = 5\nvalue = [0, 0, 5, 0, 0, 0, 0]\nclass = 3", fillcolor="#39e54d"] ;
534 -> 535 ;
536 [label="huyetap1_on_dinh <= 0.5\ngini = 0.278\nsamples = 30\nvalue = [0, 0, 5, 25, 0, 0, 0]\nclass = 4", fillcolor="#61eae8"] ;
534 -> 536 ;
537 [label="chieucao <= 161.0\ngini = 0.459\nsamples = 14\nvalue = [0, 0, 5, 9, 0, 0, 0]\nclass = 4", fillcolor="#a7f3f2"] ;
536 -> 537 ;
538 [label="gini = 0.0\nsamples = 7\nvalue = [0, 0, 0, 7, 0, 0, 0]\nclass = 4", fillcolor="#39e5e2"] ;
537 -> 538 ;
539 [label="lydovaovien_daunguc <= 0.5\ngini = 0.408\nsamples = 7\nvalue = [0, 0, 5, 2, 0, 0, 0]\nclass = 3", fillcolor="#88ef94"] ;
537 -> 539 ;
540 [label="gini = 0.0\nsamples = 5\nvalue = [0, 0, 5, 0, 0, 0, 0]\nclass = 3", fillcolor="#39e54d"] ;
539 -> 540 ;
541 [label="gini = 0.0\nsamples = 2\nvalue = [0, 0, 0, 2, 0, 0, 0]\nclass = 4", fillcolor="#39e5e2"] ;
539 -> 541 ;
542 [label="gini = 0.0\nsamples = 16\nvalue = [0, 0, 0, 16, 0, 0, 0]\nclass = 4", fillcolor="#39e5e2"] ;
536 -> 542 ;
543 [label="gini = 0.0\nsamples = 6\nvalue = [0, 0, 6, 0, 0, 0, 0]\nclass = 3", fillcolor="#39e54d"] ;
509 -> 543 ;
544 [label="hoibenh_sot_ngaykhoiphat <= 0.5\ngini = 0.226\nsamples = 144\nvalue = [0, 3, 13, 126, 0, 0, 2]\nclass = 4", fillcolor="#54e9e6"] ;
412 -> 544 ;
545 [label="khambenh_tongtranggay <= 0.5\ngini = 0.084\nsamples = 115\nvalue = [0, 0, 3, 110, 0, 0, 2]\nclass = 4", fillcolor="#42e6e3"] ;
544 -> 545 ;
546 [label="chieucao <= 151.0\ngini = 0.068\nsamples = 114\nvalue = [0, 0, 3, 110, 0, 0, 1]\nclass = 4", fillcolor="#40e6e3"] ;
545 -> 546 ;
547 [label="cannang <= 55.0\ngini = 0.5\nsamples = 2\nvalue = [0, 0, 1, 1, 0, 0, 0]\nclass = 3", fillcolor="#ffffff"] ;
546 -> 547 ;
548 [label="gini = 0.0\nsamples = 1\nvalue = [0, 0, 1, 0, 0, 0, 0]\nclass = 3", fillcolor="#39e54d"] ;
547 -> 548 ;
549 [label="gini = 0.0\nsamples = 1\nvalue = [0, 0, 0, 1, 0, 0, 0]\nclass = 4", fillcolor="#39e5e2"] ;
547 -> 549 ;
550 [label="cannang <= 62.5\ngini = 0.052\nsamples = 112\nvalue = [0, 0, 2, 109, 0, 0, 1]\nclass = 4", fillcolor="#3ee6e3"] ;
546 -> 550 ;
551 [label="chieucao <= 155.5\ngini = 0.036\nsamples = 110\nvalue = [0, 0, 1, 108, 0, 0, 1]\nclass = 4", fillcolor="#3de5e3"] ;
550 -> 551 ;
552 [label="khambenh_SpO2 <= 91.5\ngini = 0.292\nsamples = 12\nvalue = [0, 0, 1, 10, 0, 0, 1]\nclass = 4", fillcolor="#5deae7"] ;
551 -> 552 ;
553 [label="khambenh_SpO2 <= 84.0\ngini = 0.5\nsamples = 2\nvalue = [0, 0, 1, 0, 0, 0, 1]\nclass = 3", fillcolor="#ffffff"] ;
552 -> 553 ;
554 [label="gini = 0.0\nsamples = 1\nvalue = [0, 0, 1, 0, 0, 0, 0]\nclass = 3", fillcolor="#39e54d"] ;
553 -> 554 ;
555 [label="gini = 0.0\nsamples = 1\nvalue = [0, 0, 0, 0, 0, 0, 1]\nclass = 7", fillcolor="#e53986"] ;
553 -> 555 ;
556 [label="gini = 0.0\nsamples = 10\nvalue = [0, 0, 0, 10, 0, 0, 0]\nclass = 4", fillcolor="#39e5e2"] ;
552 -> 556 ;
557 [label="gini = 0.0\nsamples = 98\nvalue = [0, 0, 0, 98, 0, 0, 0]\nclass = 4", fillcolor="#39e5e2"] ;
551 -> 557 ;
558 [label="caccoquan_hohap_phoiraleno <= 0.5\ngini = 0.5\nsamples = 2\nvalue = [0, 0, 1, 1, 0, 0, 0]\nclass = 3", fillcolor="#ffffff"] ;
550 -> 558 ;
559 [label="gini = 0.0\nsamples = 1\nvalue = [0, 0, 1, 0, 0, 0, 0]\nclass = 3", fillcolor="#39e54d"] ;
558 -> 559 ;
560 [label="gini = 0.0\nsamples = 1\nvalue = [0, 0, 0, 1, 0, 0, 0]\nclass = 4", fillcolor="#39e5e2"] ;
558 -> 560 ;
561 [label="gini = 0.0\nsamples = 1\nvalue = [0, 0, 0, 0, 0, 0, 1]\nclass = 7", fillcolor="#e53986"] ;
545 -> 561 ;
562 [label="huyetap1_on_dinh <= 0.5\ngini = 0.566\nsamples = 29\nvalue = [0, 3, 10, 16, 0, 0, 0]\nclass = 4", fillcolor="#c0f7f6"] ;
544 -> 562 ;
563 [label="hoibenh_sot_ngaykhoiphat <= 5.5\ngini = 0.434\nsamples = 22\nvalue = [0, 3, 3, 16, 0, 0, 0]\nclass = 4", fillcolor="#78edeb"] ;
562 -> 563 ;
564 [label="hoibenh_sot_ngaykhoiphat <= 3.0\ngini = 0.612\nsamples = 7\nvalue = [0, 3, 3, 1, 0, 0, 0]\nclass = 2", fillcolor="#ffffff"] ;
563 -> 564 ;
565 [label="tiensu_khoe <= 0.5\ngini = 0.375\nsamples = 4\nvalue = [0, 3, 0, 1, 0, 0, 0]\nclass = 2", fillcolor="#cfee7b"] ;
564 -> 565 ;
566 [label="gini = 0.0\nsamples = 3\nvalue = [0, 3, 0, 0, 0, 0, 0]\nclass = 2", fillcolor="#b7e539"] ;
565 -> 566 ;
567 [label="gini = 0.0\nsamples = 1\nvalue = [0, 0, 0, 1, 0, 0, 0]\nclass = 4", fillcolor="#39e5e2"] ;
565 -> 567 ;
568 [label="gini = 0.0\nsamples = 3\nvalue = [0, 0, 3, 0, 0, 0, 0]\nclass = 3", fillcolor="#39e54d"] ;
564 -> 568 ;
569 [label="gini = 0.0\nsamples = 15\nvalue = [0, 0, 0, 15, 0, 0, 0]\nclass = 4", fillcolor="#39e5e2"] ;
563 -> 569 ;
570 [label="gini = 0.0\nsamples = 7\nvalue = [0, 0, 7, 0, 0, 0, 0]\nclass = 3", fillcolor="#39e54d"] ;
562 -> 570 ;
571 [label="caccoquan_hohap_phoiraleno <= 0.5\ngini = 0.483\nsamples = 71\nvalue = [0, 0, 45, 24, 0, 0, 2]\nclass = 3", fillcolor="#a7f3af"] ;
411 -> 571 ;
572 [label="khambenh_SpO2 <= 91.0\ngini = 0.424\nsamples = 63\nvalue = [0, 0, 45, 16, 0, 0, 2]\nclass = 3", fillcolor="#85ef91"] ;
571 -> 572 ;
573 [label="gini = 0.0\nsamples = 28\nvalue = [0, 0, 28, 0, 0, 0, 0]\nclass = 3", fillcolor="#39e54d"] ;
572 -> 573 ;
574 [label="tiensu_khoe <= 0.5\ngini = 0.552\nsamples = 35\nvalue = [0, 0, 17, 16, 0, 0, 2]\nclass = 3", fillcolor="#f5fef6"] ;
572 -> 574 ;
575 [label="cannang <= 51.0\ngini = 0.277\nsamples = 19\nvalue = [0, 0, 2, 16, 0, 0, 1]\nclass = 4", fillcolor="#5ceae7"] ;
574 -> 575 ;
576 [label="tiensu_rungnhi <= 0.5\ngini = 0.444\nsamples = 3\nvalue = [0, 0, 2, 0, 0, 0, 1]\nclass = 3", fillcolor="#9cf2a6"] ;
575 -> 576 ;
577 [label="gini = 0.0\nsamples = 1\nvalue = [0, 0, 0, 0, 0, 0, 1]\nclass = 7", fillcolor="#e53986"] ;
576 -> 577 ;
578 [label="gini = 0.0\nsamples = 2\nvalue = [0, 0, 2, 0, 0, 0, 0]\nclass = 3", fillcolor="#39e54d"] ;
576 -> 578 ;
579 [label="gini = 0.0\nsamples = 16\nvalue = [0, 0, 0, 16, 0, 0, 0]\nclass = 4", fillcolor="#39e5e2"] ;
575 -> 579 ;
580 [label="khambenh_SpO2 <= 95.0\ngini = 0.117\nsamples = 16\nvalue = [0, 0, 15, 0, 0, 0, 1]\nclass = 3", fillcolor="#46e759"] ;
574 -> 580 ;
581 [label="gini = 0.0\nsamples = 1\nvalue = [0, 0, 0, 0, 0, 0, 1]\nclass = 7", fillcolor="#e53986"] ;
580 -> 581 ;
582 [label="gini = 0.0\nsamples = 15\nvalue = [0, 0, 15, 0, 0, 0, 0]\nclass = 3", fillcolor="#39e54d"] ;
580 -> 582 ;
583 [label="gini = 0.0\nsamples = 8\nvalue = [0, 0, 0, 8, 0, 0, 0]\nclass = 4", fillcolor="#39e5e2"] ;
571 -> 583 ;
584 [label="chieucao <= 167.5\ngini = 0.594\nsamples = 55\nvalue = [0, 18, 29, 8, 0, 0, 0]\nclass = 3", fillcolor="#c4f7ca"] ;
410 -> 584 ;
585 [label="chieucao <= 151.0\ngini = 0.339\nsamples = 37\nvalue = [0, 0, 29, 8, 0, 0, 0]\nclass = 3", fillcolor="#70ec7e"] ;
584 -> 585 ;
586 [label="gini = 0.0\nsamples = 6\nvalue = [0, 0, 0, 6, 0, 0, 0]\nclass = 4", fillcolor="#39e5e2"] ;
585 -> 586 ;
587 [label="khambenh_SpO2 <= 84.5\ngini = 0.121\nsamples = 31\nvalue = [0, 0, 29, 2, 0, 0, 0]\nclass = 3", fillcolor="#47e759"] ;
585 -> 587 ;
588 [label="gini = 0.0\nsamples = 25\nvalue = [0, 0, 25, 0, 0, 0, 0]\nclass = 3", fillcolor="#39e54d"] ;
587 -> 588 ;
589 [label="chieucao <= 156.0\ngini = 0.444\nsamples = 6\nvalue = [0, 0, 4, 2, 0, 0, 0]\nclass = 3", fillcolor="#9cf2a6"] ;
587 -> 589 ;
590 [label="gini = 0.0\nsamples = 2\nvalue = [0, 0, 0, 2, 0, 0, 0]\nclass = 4", fillcolor="#39e5e2"] ;
589 -> 590 ;
591 [label="gini = 0.0\nsamples = 4\nvalue = [0, 0, 4, 0, 0, 0, 0]\nclass = 3", fillcolor="#39e54d"] ;
589 -> 591 ;
592 [label="gini = 0.0\nsamples = 18\nvalue = [0, 18, 0, 0, 0, 0, 0]\nclass = 2", fillcolor="#b7e539"] ;
584 -> 592 ;
}